{"learner":{"attributes":{"scikit_learn":"{\"_estimator_type\": \"classifier\"}"},"feature_names":[],"feature_types":[],"gradient_booster":{"model":{"gbtree_model_param":{"num_parallel_tree":"1","num_trees":"300"},"iteration_indptr":[0,3,6,9,12,15,18,21,24,27,30,33,36,39,42,45,48,51,54,57,60,63,66,69,72,75,78,81,84,87,90,93,96,99,102,105,108,111,114,117,120,123,126,129,132,135,138,141,144,147,150,153,156,159,162,165,168,171,174,177,180,183,186,189,192,195,198,201,204,207,210,213,216,219,222,225,228,231,234,237,240,243,246,249,252,255,258,261,264,267,270,273,276,279,282,285,288,291,294,297,300],"tree_info":[0,1,2,0,1,2,0,1,2,0,1,2,0,1,2,0,1,2,0,1,2,0,1,2,0,1,2,0,1,2,0,1,2,0,1,2,0,1,2,0,1,2,0,1,2,0,1,2,0,1,2,0,1,2,0,1,2,0,1,2,0,1,2,0,1,2,0,1,2,0,1,2,0,1,2,0,1,2,0,1,2,0,1,2,0,1,2,0,1,2,0,1,2,0,1,2,0,1,2,0,1,2,0,1,2,0,1,2,0,1,2,0,1,2,0,1,2,0,1,2,0,1,2,0,1,2,0,1,2,0,1,2,0,1,2,0,1,2,0,1,2,0,1,2,0,1,2,0,1,2,0,1,2,0,1,2,0,1,2,0,1,2,0,1,2,0,1,2,0,1,2,0,1,2,0,1,2,0,1,2,0,1,2,0,1,2,0,1,2,0,1,2,0,1,2,0,1,2,0,1,2,0,1,2,0,1,2,0,1,2,0,1,2,0,1,2,0,1,2,0,1,2,0,1,2,0,1,2,0,1,2,0,1,2,0,1,2,0,1,2,0,1,2,0,1,2,0,1,2,0,1,2,0,1,2,0,1,2,0,1,2,0,1,2,0,1,2,0,1,2,0,1,2,0,1,2,0,1,2,0,1,2,0,1,2,0,1,2,0,1,2,0,1,2,0,1,2,0,1,2],"trees":[{"base_weights":[-8.03303E-2,2.1435073E-1,-2.513957E-1,3.7068105E-1,-1.7115861E-1,-2.9340002E-1,1.5027826E-1,2.2889256E-1,5.767214E-1,-2.347133E-1,5.5364805E-1,-3.2930892E-2,-3.4931025E-1,5.7324797E-2,7.605634E-1,-5.5249063E-3,3.7719637E-1,4.6032438E-1,1.0186757E0,-2.629317E-3,-4.0972692E-1,-1.7560977E-1,7.61194E-1,-1.062058E-1,4.8387092E-1,-2.7790067E-1,-4.9817124E-1,-2.770138E-1,2.4315439E-1,9.7790056E-1,-3.658537E-1,6.7164177E-1,-1.0020882E-1,2.4094485E-1,7.62406E-1,6.0111314E-1,1.1589892E-1,1.1172023E0,1.3043475E-1,-2.0505206E-1,2.8301883E-1,-5.9760964E-1,-2.179657E-1,-1.4400001E-1,8.918919E-1,2.513966E-1,-2.0822215E-1,-4.02685E-2,8.507463E-1,-7.1146294E-2,-3.5193682E-1,-3.6616707E-1,-5.647841E-1,-3.3468565E-1,2.8800002E-1,1.03985695E-2,6.2608695E-1,-1.2857145E-1,1.1005917E0,-7.663455E-9,-1.5517244E-1,-9.473686E-2,3E-1,-4.35165E-2,2E-1,1.3776281E-1,-3.6000017E-2,-1.3584907E-1,2.5652173E-1,1.9331603E-1,-7.411766E-2,-2.7331904E-2,1.6289592E-1,3.5029942E-1,4.864864E-2,3.1034482E-1,-1.2857145E-1,8.944099E-2,-1.07101746E-1,-5.070424E-2,1.8791209E-1,-1.8928088E-1,1.7999999E-1,-8.9610405E-2,1.7260273E-1,2.9822487E-1,-3.600001E-2,-5.7073187E-2,1.5307918E-1,-1.0117098E-1,2.0965047E-2,-1.6363639E-1,1.3333333E-1,-3.3962276E-2,3.3821654E-1,-6.894412E-2,6.1290316E-2,-1.09029904E-1,1.8701299E-1,-1.24355994E-1,4.1860454E-2,-1.7195533E-1,8.181818E-2,-1.3333336E-1,4.6391744E-2,-3.684212E-2,2.8356165E-1,2.9020408E-1,-5.779818E-2,-7.663455E-9,3.5541403E-1],"categories":[],"categories_nodes":[],"categories_segments":[],"categories_sizes":[],"default_left":[0,0,0,0,0,0,0,0,0,0,0,0,0,0,0,0,0,0,0,0,0,0,0,0,0,0,0,0,0,0,0,0,0,0,0,0,0,0,0,0,0,0,0,0,0,0,0,0,0,0,0,0,0,0,0,0,0,0,0,0,0,0,0,0,0,0,0,0,0,0,0,0,0,0,0,0,0,0,0,0,0,0,0,0,0,0,0,0,0,0,0,0,0,0,0,0,0,0,0,0,0,0,0,0,0,0,0,0,0,0,0],"id":0,"left_children":[1,3,5,7,9,11,13,15,17,19,21,23,25,27,29,31,33,35,37,39,41,-1,43,45,47,49,51,53,55,57,59,61,63,65,67,69,71,73,75,77,79,81,83,-1,85,87,89,91,93,95,97,99,101,103,-1,105,107,-1,109,-1,-1,-1,-1,-1,-1,-1,-1,-1,-1,-1,-1,-1,-1,-1,-1,-1,-1,-1,-1,-1,-1,-1,-1,-1,-1,-1,-1,-1,-1,-1,-1,-1,-1,-1,-1,-1,-1,-1,-1,-1,-1,-1,-1,-1,-1,-1,-1,-1,-1,-1,-1],"loss_changes":[1.5066136E2,6.622968E1,3.1945358E1,2.2697227E1,1.4752985E1,2.4921799E1,1.014855E1,1.615236E1,1.5883957E1,1.1881901E1,6.5656514E0,1.1550821E1,1.4844086E1,9.821768E0,6.151658E0,1.1672442E1,1.4751312E1,1.2220161E1,5.581665E0,7.3885374E0,5.8785152E0,0E0,4.051054E0,9.784744E0,7.320057E0,1.4590027E1,3.799942E0,4.3560205E0,9.035209E0,3.942091E0,2.5231284E-1,7.5569515E0,5.587868E0,1.6730518E1,8.707951E0,6.753586E0,6.6605244E0,2.6433716E0,4.317841E0,5.8240495E0,8.331873E0,3.7178917E0,5.559025E0,0E0,2.2448616E0,6.918543E0,7.4905176E0,4.2963867E0,6.083269E0,1.1104194E1,8.106377E0,3.8642235E0,2.273964E0,3.0107183E0,0E0,8.099293E0,1.0896924E1,0E0,1.7385159E0,0E0,0E0,0E0,0E0,0E0,0E0,0E0,0E0,0E0,0E0,0E0,0E0,0E0,0E0,0E0,0E0,0E0,0E0,0E0,0E0,0E0,0E0,0E0,0E0,0E0,0E0,0E0,0E0,0E0,0E0,0E0,0E0,0E0,0E0,0E0,0E0,0E0,0E0,0E0,0E0,0E0,0E0,0E0,0E0,0E0,0E0,0E0,0E0,0E0,0E0,0E0,0E0],"parents":[2147483647,0,0,1,1,2,2,3,3,4,4,5,5,6,6,7,7,8,8,9,9,10,10,11,11,12,12,13,13,14,14,15,15,16,16,17,17,18,18,19,19,20,20,22,22,23,23,24,24,25,25,26,26,27,27,28,28,29,29,30,30,31,31,32,32,33,33,34,34,35,35,36,36,37,37,38,38,39,39,40,40,41,41,42,42,44,44,45,45,46,46,47,47,48,48,49,49,50,50,51,51,52,52,53,53,55,55,56,56,58,58],"right_children":[2,4,6,8,10,12,14,16,18,20,22,24,26,28,30,32,34,36,38,40,42,-1,44,46,48,50,52,54,56,58,60,62,64,66,68,70,72,74,76,78,80,82,84,-1,86,88,90,92,94,96,98,100,102,104,-1,106,108,-1,110,-1,-1,-1,-1,-1,-1,-1,-1,-1,-1,-1,-1,-1,-1,-1,-1,-1,-1,-1,-1,-1,-1,-1,-1,-1,-1,-1,-1,-1,-1,-1,-1,-1,-1,-1,-1,-1,-1,-1,-1,-1,-1,-1,-1,-1,-1,-1,-1,-1,-1,-1,-1],"split_conditions":[-3.4764865E-1,4.2069998E-1,1.1237279E0,-7.254021E-2,9.8336464E-1,-9.568349E-1,8.765605E-1,-2.6433656E-1,1.0079671E0,-6.427374E-1,-8.6463976E-1,1.2839881E0,6.1160564E-1,-5.8756846E-1,1.277351E0,-1.2262398E0,-4.6359736E-2,6.564841E-1,4.848698E-1,-1.3350151E-1,-3.9733297E-1,-1.7560977E-1,5.709281E-1,-6.708647E-1,2.350871E-1,-6.416608E-1,-1.2108271E-1,1.9469107E0,2.898773E-1,-1.7573572E0,-9.4894576E-1,-6.812975E-1,1.9025556E0,-5.719116E-1,-1.0655644E0,2.4077926E0,5.4896593E-1,1.6374036E0,1.6098565E-1,4.848698E-1,-6.356771E-1,1.5543538E0,1.8805009E0,-1.4400001E-1,6.959941E-1,-4.7229162E-1,4.2107317E-1,-4.5604068E-1,1.0625023E0,-3.789356E-1,2.4346473E0,5.2375346E-1,5.6132774E0,1.267472E0,2.8800002E-1,8.3995825E-1,8.489265E-1,-1.2857145E-1,-1.239954E0,-7.663455E-9,-1.5517244E-1,-9.473686E-2,3E-1,-4.35165E-2,2E-1,1.3776281E-1,-3.6000017E-2,-1.3584907E-1,2.5652173E-1,1.9331603E-1,-7.411766E-2,-2.7331904E-2,1.6289592E-1,3.5029942E-1,4.864864E-2,3.1034482E-1,-1.2857145E-1,8.944099E-2,-1.07101746E-1,-5.070424E-2,1.8791209E-1,-1.8928088E-1,1.7999999E-1,-8.9610405E-2,1.7260273E-1,2.9822487E-1,-3.600001E-2,-5.7073187E-2,1.5307918E-1,-1.0117098E-1,2.0965047E-2,-1.6363639E-1,1.3333333E-1,-3.3962276E-2,3.3821654E-1,-6.894412E-2,6.1290316E-2,-1.09029904E-1,1.8701299E-1,-1.24355994E-1,4.1860454E-2,-1.7195533E-1,8.181818E-2,-1.3333336E-1,4.6391744E-2,-3.684212E-2,2.8356165E-1,2.9020408E-1,-5.779818E-2,-7.663455E-9,3.5541403E-1],"split_indices":[20,1,47,41,41,8,12,17,38,22,17,27,15,19,12,2,32,19,8,17,11,0,33,28,12,21,0,38,32,14,0,15,47,20,42,21,12,19,6,8,26,49,10,0,17,4,14,6,41,39,36,10,23,32,0,16,27,0,10,0,0,0,0,0,0,0,0,0,0,0,0,0,0,0,0,0,0,0,0,0,0,0,0,0,0,0,0,0,0,0,0,0,0,0,0,0,0,0,0,0,0,0,0,0,0,0,0,0,0,0,0],"split_type":[0,0,0,0,0,0,0,0,0,0,0,0,0,0,0,0,0,0,0,0,0,0,0,0,0,0,0,0,0,0,0,0,0,0,0,0,0,0,0,0,0,0,0,0,0,0,0,0,0,0,0,0,0,0,0,0,0,0,0,0,0,0,0,0,0,0,0,0,0,0,0,0,0,0,0,0,0,0,0,0,0,0,0,0,0,0,0,0,0,0,0,0,0,0,0,0,0,0,0,0,0,0,0,0,0,0,0,0,0,0,0],"sum_hessian":[2.9866665E3,1.0968888E3,1.8897777E3,7.804444E2,3.1644443E2,1.711111E3,1.7866666E2,4.6355554E2,3.1688885E2,2.9155554E2,2.4888887E1,3.0266666E2,1.4084443E3,1.5599998E2,2.2666666E1,1.7999998E2,2.8355554E2,2.5244443E2,6.444444E1,1.2577777E2,1.6577777E2,3.5555553E0,2.1333332E1,2.6577777E2,3.6888885E1,9.537777E2,4.5466663E2,5.5555553E1,1.00444435E2,1.911111E1,3.5555553E0,2.1333332E1,1.5866666E2,2.1066666E2,7.2888885E1,1.7866666E2,7.377777E1,5.7777775E1,6.666666E0,7.377777E1,5.1999996E1,8.2666664E1,8.311111E1,1.7777777E0,1.9555553E1,5.8666664E1,2.071111E2,1.5555554E1,2.1333332E1,2.5199998E2,7.017777E2,1.5466666E2,2.9999997E2,5.3777775E1,1.7777777E0,6.3111107E1,3.7333332E1,1.3333333E0,1.7777777E1,1.3333333E0,2.222222E0,5.333333E0,1.5999999E1,1.5066666E2,7.9999995E0,1.311111E2,7.955555E1,4.8888884E0,6.799999E1,1.7022221E2,8.444444E0,5.0222218E1,2.3555553E1,5.4666664E1,3.111111E0,2.222222E0,4.444444E0,1.6888887E1,5.6888885E1,2.2666666E1,2.9333332E1,8.0888885E1,1.7777777E0,7.599999E1,7.1111107E0,1.7777777E1,1.7777777E0,2.1777777E1,3.6888885E1,1.4133333E2,6.577777E1,7.5555553E0,7.9999995E0,4.8888884E0,1.6444443E1,1.5999998E2,9.199999E1,6.9422217E2,7.5555553E0,1.4133333E2,1.3333332E1,2.973333E2,2.6666665E0,4.3999996E1,9.777777E0,5.5999996E1,7.1111107E0,2.6222221E1,1.1111111E1,1.3333333E0,1.6444443E1],"tree_param":{"num_deleted":"0","num_feature":"50","num_nodes":"111","size_leaf_vector":"1"}},{"base_weights":[-8.03303E-2,2.6025072E-1,-2.473816E-1,-1.5605256E-1,3.8574573E-1,-3.013834E-1,2.4482948E-1,-2.929937E-1,1.4241956E-1,5.6191015E-1,1.9897494E-1,-1.3845444E-1,-4.0827143E-1,4.5930658E-2,6.8402153E-1,-1.388551E-1,-4.991681E-1,4.741641E-1,-1.8918924E-1,4.3517327E-1,8.109495E-1,3.5929757E-1,-1.2488692E-1,-3.9771435E-1,3.9052285E-2,-4.1984582E-1,7.425742E-1,-2.3797144E-1,4.9896047E-1,8.2092553E-1,-3.913044E-1,3E-1,-2.0254782E-1,-5.601437E-1,2.2641507E-1,6.435986E-1,-1.836735E-1,6.7346936E-1,-3.276451E-1,3.2995436E-1,9.8123324E-1,9.1575813E-1,1.4201179E-1,-2.3622052E-1,4.8025957E-1,1.10429406E-1,-3.0720004E-1,-4.1228414E-1,3.1034482E-1,1.5501516E-1,-3.475816E-1,-5.2200115E-1,-2.875265E-1,1.0235294E0,-1.4400001E-1,-3.263599E-1,8.3606553E-1,8.9552236E-1,2.0761243E-1,8.7318087E-1,-1.4400001E-1,-1.8679248E-1,7.2E-2,9.664429E-2,-9.6279085E-2,-1.8067545E-1,8.181818E-2,2.8800002E-1,-9.729732E-2,1.855669E-2,2.6865673E-1,-3.600001E-2,3.2727274E-1,2.9032247E-2,-1.5071774E-1,4.7291826E-2,1.8362416E-1,3.1163436E-1,-1.2857145E-1,3.0033597E-1,7.199999E-2,1.2558138E-1,-1.836735E-1,-1.09565236E-1,2.4E-1,1.7921795E-1,3.962263E-2,8.181818E-2,-1.3539825E-1,-1.2643255E-1,1.16129026E-1,-1.3311665E-1,3.5294108E-2,1.4932735E-1,1.6427629E-2,2.195122E-1,-1.186698E-1,-2.8015578E-2,-1.6265063E-1,1.14084505E-1,-9.659514E-2,-7.663455E-9,3.5753426E-1,2.5714287E-1,-1.223043E-1,-1.2857145E-1,3.6734694E-1,3E-1,-1.2857145E-1,1.3943662E-1,-1.3764708E-1,2.8314605E-1,-1.07288365E-8],"categories":[],"categories_nodes":[],"categories_segments":[],"categories_sizes":[],"default_left":[0,0,0,0,0,0,0,0,0,0,0,0,0,0,0,0,0,0,0,0,0,0,0,0,0,0,0,0,0,0,0,0,0,0,0,0,0,0,0,0,0,0,0,0,0,0,0,0,0,0,0,0,0,0,0,0,0,0,0,0,0,0,0,0,0,0,0,0,0,0,0,0,0,0,0,0,0,0,0,0,0,0,0,0,0,0,0,0,0,0,0,0,0,0,0,0,0,0,0,0,0,0,0,0,0,0,0,0,0,0,0,0,0],"id":1,"left_children":[1,3,5,7,9,11,13,15,17,19,21,23,25,27,29,31,33,35,37,39,41,43,45,47,49,51,53,55,57,59,61,-1,63,65,67,69,-1,71,73,75,77,79,81,83,85,87,89,91,-1,93,95,97,99,101,-1,103,105,107,109,111,-1,-1,-1,-1,-1,-1,-1,-1,-1,-1,-1,-1,-1,-1,-1,-1,-1,-1,-1,-1,-1,-1,-1,-1,-1,-1,-1,-1,-1,-1,-1,-1,-1,-1,-1,-1,-1,-1,-1,-1,-1,-1,-1,-1,-1,-1,-1,-1,-1,-1,-1,-1,-1],"loss_changes":[1.7004619E2,5.145086E1,5.336725E1,9.383504E0,2.4766037E1,3.1416534E1,1.733277E1,4.9200583E0,8.0715E0,1.1910866E1,1.9181156E1,3.3032593E1,1.4841278E1,1.785347E1,9.432295E0,6.8195124E0,3.0812645E0,7.1230087E0,4.6399436E0,1.45956E1,8.976517E0,1.7890095E1,5.3012443E0,6.5126534E0,1.9188536E1,1.4455933E1,4.3459992E0,8.384308E0,5.9889183E0,4.1731415E0,1.2691059E0,0E0,5.521172E0,2.334715E0,2.6905453E0,4.650647E0,0E0,1.9342487E0,2.4631379E0,1.0560904E1,3.8076363E0,6.226738E0,4.1737466E0,5.950838E0,8.299957E0,5.0767636E0,5.671313E0,4.874344E0,0E0,1.1277887E1,5.4050426E0,5.2098083E0,1.100658E1,1.6264305E0,0E0,8.016859E0,3.8541317E0,3.5181236E0,5.716828E0,3.296505E0,0E0,0E0,0E0,0E0,0E0,0E0,0E0,0E0,0E0,0E0,0E0,0E0,0E0,0E0,0E0,0E0,0E0,0E0,0E0,0E0,0E0,0E0,0E0,0E0,0E0,0E0,0E0,0E0,0E0,0E0,0E0,0E0,0E0,0E0,0E0,0E0,0E0,0E0,0E0,0E0,0E0,0E0,0E0,0E0,0E0,0E0,0E0,0E0,0E0,0E0,0E0,0E0,0E0],"parents":[2147483647,0,0,1,1,2,2,3,3,4,4,5,5,6,6,7,7,8,8,9,9,10,10,11,11,12,12,13,13,14,14,15,15,16,16,17,17,18,18,19,19,20,20,21,21,22,22,23,23,24,24,25,25,26,26,27,27,28,28,29,29,30,30,32,32,33,33,34,34,35,35,37,37,38,38,39,39,40,40,41,41,42,42,43,43,44,44,45,45,46,46,47,47,49,49,50,50,51,51,52,52,53,53,55,55,56,56,57,57,58,58,59,59],"right_children":[2,4,6,8,10,12,14,16,18,20,22,24,26,28,30,32,34,36,38,40,42,44,46,48,50,52,54,56,58,60,62,-1,64,66,68,70,-1,72,74,76,78,80,82,84,86,88,90,92,-1,94,96,98,100,102,-1,104,106,108,110,112,-1,-1,-1,-1,-1,-1,-1,-1,-1,-1,-1,-1,-1,-1,-1,-1,-1,-1,-1,-1,-1,-1,-1,-1,-1,-1,-1,-1,-1,-1,-1,-1,-1,-1,-1,-1,-1,-1,-1,-1,-1,-1,-1,-1,-1,-1,-1,-1,-1,-1,-1,-1,-1],"split_conditions":[-4.504408E-1,-7.1941715E-1,1.0708696E0,7.134687E-1,-3.1204728E-2,-1.4292343E-1,3.6953336E-1,3.7303638E-1,-6.7742085E-1,9.450118E-1,3.9052274E-2,-9.908581E-2,2.3406296E0,1.3983399E-1,6.1511964E-1,-6.617832E-1,2.4920566E0,3.0221794E0,-7.6505387E-1,1.2787601E0,5.1060694E-1,-1.1636593E0,-6.555517E-1,1.5357174E0,7.952035E-1,-1.9779915E-1,2.4298066E-1,1.267472E0,-4.042581E-1,2.819072E-1,9.665593E-1,3E-1,-4.7721902E-1,1.3575091E0,-2.551394E-1,-1.9742727E-1,-1.836735E-1,3.990219E-1,-1.864629E-1,-5.0970702E-3,1.5215309E0,-1.9586487E-1,5.9522E-1,2.3859224E0,-1.3154191E-1,4.62789E-1,1.0235612E0,1.3514806E0,3.1034482E-1,-7.913836E-1,-1.8815901E0,-2.0057905E0,-1.3681371E0,-1.2387452E0,-1.4400001E-1,-9.19423E-1,-3.6191425E-1,5.4483986E-1,7.85767E-1,1.5963372E0,-1.4400001E-1,-1.8679248E-1,7.2E-2,9.664429E-2,-9.6279085E-2,-1.8067545E-1,8.181818E-2,2.8800002E-1,-9.729732E-2,1.855669E-2,2.6865673E-1,-3.600001E-2,3.2727274E-1,2.9032247E-2,-1.5071774E-1,4.7291826E-2,1.8362416E-1,3.1163436E-1,-1.2857145E-1,3.0033597E-1,7.199999E-2,1.2558138E-1,-1.836735E-1,-1.09565236E-1,2.4E-1,1.7921795E-1,3.962263E-2,8.181818E-2,-1.3539825E-1,-1.2643255E-1,1.16129026E-1,-1.3311665E-1,3.5294108E-2,1.4932735E-1,1.6427629E-2,2.195122E-1,-1.186698E-1,-2.8015578E-2,-1.6265063E-1,1.14084505E-1,-9.659514E-2,-7.663455E-9,3.5753426E-1,2.5714287E-1,-1.223043E-1,-1.2857145E-1,3.6734694E-1,3E-1,-1.2857145E-1,1.3943662E-1,-1.3764708E-1,2.8314605E-1,-1.07288365E-8],"split_indices":[7,2,14,6,17,5,1,31,18,8,28,8,11,11,37,4,28,37,44,11,29,16,32,19,7,48,24,32,30,47,3,0,27,12,19,44,0,12,27,21,30,17,11,1,43,21,6,13,0,31,17,13,15,8,0,38,25,10,39,2,0,0,0,0,0,0,0,0,0,0,0,0,0,0,0,0,0,0,0,0,0,0,0,0,0,0,0,0,0,0,0,0,0,0,0,0,0,0,0,0,0,0,0,0,0,0,0,0,0,0,0,0,0],"split_type":[0,0,0,0,0,0,0,0,0,0,0,0,0,0,0,0,0,0,0,0,0,0,0,0,0,0,0,0,0,0,0,0,0,0,0,0,0,0,0,0,0,0,0,0,0,0,0,0,0,0,0,0,0,0,0,0,0,0,0,0,0,0,0,0,0,0,0,0,0,0,0,0,0,0,0,0,0,0,0,0,0,0,0,0,0,0,0,0,0,0,0,0,0,0,0,0,0,0,0,0,0,0,0,0,0,0,0,0,0,0,0,0,0],"sum_hessian":[2.9866665E3,9.826666E2,2.0039999E3,2.2755554E2,7.551111E2,1.8062222E3,1.9777777E2,1.5599998E2,7.155555E1,3.8755554E2,3.6755554E2,7.164444E2,1.0897777E3,1.3688889E2,6.0888885E1,9.022221E1,6.577777E1,3.5555553E1,3.5999996E1,2.5866666E2,1.2888889E2,2.4577776E2,1.2177777E2,2.9066666E2,4.2577774E2,1.0795555E3,1.0222221E1,8.444444E1,5.2444443E1,5.4222218E1,6.666666E0,3.9999998E0,8.622221E1,6.0888885E1,4.8888884E0,3.1111109E1,4.444444E0,4.444444E0,3.1555553E1,2.1822221E2,4.0444443E1,1.1111111E2,1.7777777E1,4.1333332E1,2.0444443E2,5.333333E1,6.844444E1,2.8844443E2,2.222222E0,3.2799997E2,9.777777E1,6.0755554E2,4.7199997E2,8.444444E0,1.7777777E0,7.8666664E1,5.7777777E0,2.1333332E1,3.1111109E1,5.2444443E1,1.7777777E0,4.8888884E0,1.7777777E0,1.5555554E1,7.0666664E1,5.8222218E1,2.6666665E0,1.7777777E0,3.111111E0,9.777777E0,2.1333332E1,1.7777777E0,2.6666665E0,9.333333E0,2.2222221E1,1.3644444E2,8.177777E1,3.9111107E1,1.3333333E0,9.822221E1,1.2888888E1,1.3333332E1,4.444444E0,3.7333332E1,3.9999998E0,1.5244444E2,5.1999996E1,4.1777775E1,1.1555555E1,5.9111107E1,9.333333E0,2.7244443E2,1.5999999E1,7.333333E1,2.5466666E2,3.5555553E0,9.422221E1,2.7555553E1,5.7999994E2,2.2666666E1,4.493333E2,1.3333333E0,7.1111107E0,4.444444E0,7.422222E1,1.3333333E0,4.444444E0,1.9999998E1,1.3333333E0,2.2666666E1,8.444444E0,4.8444443E1,3.9999998E0],"tree_param":{"num_deleted":"0","num_feature":"50","num_nodes":"113","size_leaf_vector":"1"}},{"base_weights":[1.6066046E-1,-4.1514367E-1,5.2020293E-1,2.6826605E-1,-4.8118314E-1,3.8576502E-1,7.8312176E-1,5.930902E-1,-1.555556E-1,-6.775873E-1,-2.4053614E-1,5.5529743E-1,2.0891361E-1,8.3067155E-1,1.5555552E-1,2.1212117E-1,1.055794E0,5.9999996E-1,-4.0776706E-1,-7.160244E-1,-4.4546655E-1,-1.3328983E-1,-5.1207334E-1,4.2946488E-1,9.7284716E-1,4.3264657E-1,8.740356E-2,8.54829E-1,2.0487802E-1,-1.4946625E-1,7.8947365E-1,3.5999998E-1,3.4482718E-2,2.459016E-1,1.2762431E0,9.1764706E-1,-1.5517244E-1,-2.0207259E-1,-2.0880002E-1,-7.2718704E-1,-4.5365858E-1,3.861386E-1,-5.6502247E-1,-2.1036932E-1,4.0102825E-1,-1.2956816E-1,-6.336634E-1,4.880922E-1,-2.7596444E-1,1.0589765E0,2.2758617E-1,2.195791E-1,7.1569836E-1,2.6032406E-1,-1.20225474E-1,8.8867563E-1,3.3644855E-1,-1.918033E-1,5.2941173E-1,-4.4776124E-1,5.3932583E-1,-1.6363637E-1,1.1284404E0,-1.972603E-1,8.680203E-2,-1.5517244E-1,2.195122E-1,3.9408287E-1,1.2857142E-1,3.5753426E-1,-1.2857145E-1,1.6363636E-1,-1.0118345E-1,-2.2298291E-1,-1.8347982E-1,1.4693877E-1,-2.127273E-1,-1.8E-1,3.0461538E-1,1.6981132E-1,-1.9584003E-1,1.611939E-2,-1.100297E-1,-2.9032271E-2,2.933702E-1,-9.310347E-2,2.5714287E-1,-1.9793816E-1,-1.07288365E-8,8.875346E-2,1.9329685E-1,1.9565217E-1,-1.494585E-1,3.3803624E-1,1.0353982E-1,2E-1,-8.630139E-2,1.0251916E-1,-1.1428574E-1,2.4301222E-1,-6.6666685E-2,-8.927616E-2,1.17947064E-1,1.5058365E-1,-7.138623E-2,3.0290285E-1,2.2839293E-1,-1.28746045E-8,3.0857143E-1,2.9690722E-1,-6.923079E-2,8.181818E-2,-1.6779664E-1,3.512195E-1,-1.1293513E-8,3.804124E-1,-7.663455E-9],"categories":[],"categories_nodes":[],"categories_segments":[],"categories_sizes":[],"default_left":[0,0,0,0,0,0,0,0,0,0,0,0,0,0,0,0,0,0,0,0,0,0,0,0,0,0,0,0,0,0,0,0,0,0,0,0,0,0,0,0,0,0,0,0,0,0,0,0,0,0,0,0,0,0,0,0,0,0,0,0,0,0,0,0,0,0,0,0,0,0,0,0,0,0,0,0,0,0,0,0,0,0,0,0,0,0,0,0,0,0,0,0,0,0,0,0,0,0,0,0,0,0,0,0,0,0,0,0,0,0,0,0,0,0,0,0,0],"id":2,"left_children":[1,3,5,7,9,11,13,15,17,19,21,23,25,27,29,31,33,35,37,39,41,43,45,47,49,51,53,55,57,59,61,-1,63,65,67,69,-1,71,-1,73,75,77,79,81,83,85,87,89,91,93,95,97,99,101,103,105,107,-1,109,111,113,-1,115,-1,-1,-1,-1,-1,-1,-1,-1,-1,-1,-1,-1,-1,-1,-1,-1,-1,-1,-1,-1,-1,-1,-1,-1,-1,-1,-1,-1,-1,-1,-1,-1,-1,-1,-1,-1,-1,-1,-1,-1,-1,-1,-1,-1,-1,-1,-1,-1,-1,-1,-1,-1,-1,-1],"loss_changes":[6.1874066E2,5.1985764E1,6.4723236E1,1.4119049E1,4.9375E1,3.643878E1,1.84151E1,9.9804535E0,8.819849E0,4.8251038E0,1.3693203E1,3.2257095E1,1.6228354E1,8.554413E0,8.819146E0,5.749634E0,4.3083725E0,4.61501E0,1.8949099E0,1.1139526E0,8.624971E0,1.4091826E1,6.1242485E0,1.997248E1,8.9522705E0,1.2527866E1,1.3997686E1,9.450409E0,6.5791E0,6.656508E0,7.3024006E0,0E0,5.304854E0,2.8912575E0,7.403183E-2,3.996179E0,0E0,2.351356E0,0E0,4.217682E-1,5.8364997E0,7.572886E0,7.7494507E0,1.2323816E1,1.2506693E1,6.231642E0,1.6723518E0,1.3121529E1,8.048226E0,5.8124847E0,3.8367498E0,9.038834E0,8.133881E0,1.5869256E1,1.3116771E1,7.26062E0,8.305474E0,0E0,6.1766114E0,1.9476571E0,3.3674977E0,0E0,1.9078798E0,0E0,0E0,0E0,0E0,0E0,0E0,0E0,0E0,0E0,0E0,0E0,0E0,0E0,0E0,0E0,0E0,0E0,0E0,0E0,0E0,0E0,0E0,0E0,0E0,0E0,0E0,0E0,0E0,0E0,0E0,0E0,0E0,0E0,0E0,0E0,0E0,0E0,0E0,0E0,0E0,0E0,0E0,0E0,0E0,0E0,0E0,0E0,0E0,0E0,0E0,0E0,0E0,0E0,0E0],"parents":[2147483647,0,0,1,1,2,2,3,3,4,4,5,5,6,6,7,7,8,8,9,9,10,10,11,11,12,12,13,13,14,14,15,15,16,16,17,17,18,18,19,19,20,20,21,21,22,22,23,23,24,24,25,25,26,26,27,27,28,28,29,29,30,30,32,32,33,33,34,34,35,35,37,37,39,39,40,40,41,41,42,42,43,43,44,44,45,45,46,46,47,47,48,48,49,49,50,50,51,51,52,52,53,53,54,54,55,55,56,56,58,58,59,59,60,60,62,62],"right_children":[2,4,6,8,10,12,14,16,18,20,22,24,26,28,30,32,34,36,38,40,42,44,46,48,50,52,54,56,58,60,62,-1,64,66,68,70,-1,72,-1,74,76,78,80,82,84,86,88,90,92,94,96,98,100,102,104,106,108,-1,110,112,114,-1,116,-1,-1,-1,-1,-1,-1,-1,-1,-1,-1,-1,-1,-1,-1,-1,-1,-1,-1,-1,-1,-1,-1,-1,-1,-1,-1,-1,-1,-1,-1,-1,-1,-1,-1,-1,-1,-1,-1,-1,-1,-1,-1,-1,-1,-1,-1,-1,-1,-1,-1,-1,-1,-1,-1],"split_conditions":[-3.5515842E-1,-1.1900902E0,6.34903E-1,-3.815761E-1,-6.4529574E-1,-1.9779915E-1,1.0708696E0,5.2893734E-1,-9.263756E-1,-1.4132491E-2,6.2363815E-2,-7.209699E-1,-5.2218437E-2,3.8086169E0,-8.251193E-2,-1.3306882E0,-9.45035E-1,-5.62324E-1,-1.1657339E0,1.4795477E0,-5.6748307E-1,-5.401935E-1,-5.398764E-1,1.1324177E0,9.794257E-1,4.848698E-1,1.1065142E-1,7.001358E-1,1.7800188E-1,3.5527176E-1,-6.461825E-1,3.5999998E-1,-5.77937E-1,-5.668762E-1,-5.504435E-1,1.412754E0,-1.5517244E-1,-2.5191492E-1,-2.0880002E-1,-7.1459645E-1,-6.608569E-1,5.483334E-1,-1.8683962E0,1.394894E-1,4.0977317E-1,1.3826938E0,-2.8409427E-1,-4.0714968E-2,-6.763852E-1,1.1001104E0,-4.099628E-1,6.1773974E-1,8.8544124E-1,-1.1790212E0,-9.2136097E-1,-1.9978975E-1,-3.577048E-1,-1.918033E-1,2.808606E-1,-1.3909594E0,-8.5031664E-1,-1.6363637E-1,1.2712168E0,-1.972603E-1,8.680203E-2,-1.5517244E-1,2.195122E-1,3.9408287E-1,1.2857142E-1,3.5753426E-1,-1.2857145E-1,1.6363636E-1,-1.0118345E-1,-2.2298291E-1,-1.8347982E-1,1.4693877E-1,-2.127273E-1,-1.8E-1,3.0461538E-1,1.6981132E-1,-1.9584003E-1,1.611939E-2,-1.100297E-1,-2.9032271E-2,2.933702E-1,-9.310347E-2,2.5714287E-1,-1.9793816E-1,-1.07288365E-8,8.875346E-2,1.9329685E-1,1.9565217E-1,-1.494585E-1,3.3803624E-1,1.0353982E-1,2E-1,-8.630139E-2,1.0251916E-1,-1.1428574E-1,2.4301222E-1,-6.6666685E-2,-8.927616E-2,1.17947064E-1,1.5058365E-1,-7.138623E-2,3.0290285E-1,2.2839293E-1,-1.28746045E-8,3.0857143E-1,2.9690722E-1,-6.923079E-2,8.181818E-2,-1.6779664E-1,3.512195E-1,-1.1293513E-8,3.804124E-1,-7.663455E-9],"split_indices":[7,3,7,18,20,48,14,0,34,15,49,48,4,22,32,34,27,11,4,17,11,49,11,11,14,8,8,3,15,13,8,0,21,48,5,8,0,20,0,20,34,14,14,4,31,10,20,6,3,23,33,12,14,8,11,27,1,0,13,35,5,0,21,0,0,0,0,0,0,0,0,0,0,0,0,0,0,0,0,0,0,0,0,0,0,0,0,0,0,0,0,0,0,0,0,0,0,0,0,0,0,0,0,0,0,0,0,0,0,0,0,0,0,0,0,0,0],"split_type":[0,0,0,0,0,0,0,0,0,0,0,0,0,0,0,0,0,0,0,0,0,0,0,0,0,0,0,0,0,0,0,0,0,0,0,0,0,0,0,0,0,0,0,0,0,0,0,0,0,0,0,0,0,0,0,0,0,0,0,0,0,0,0,0,0,0,0,0,0,0,0,0,0,0,0,0,0,0,0,0,0,0,0,0,0,0,0,0,0,0,0,0,0,0,0,0,0,0,0,0,0,0,0,0,0,0,0,0,0,0,0,0,0,0,0,0,0],"sum_hessian":[2.9866665E3,1.1479999E3,1.8386665E3,1.00888885E2,1.0471111E3,1.2182222E3,6.204444E2,5.6888885E1,4.3999996E1,5.7555554E2,4.7155554E2,6.2088885E2,5.973333E2,5.764444E2,4.3999996E1,3.1999998E1,2.4888887E1,1.0666666E1,3.3333332E1,4.9199997E2,8.355555E1,3.3911108E2,1.3244444E2,4.7866663E2,1.4222221E2,2.0933333E2,3.8799997E2,5.546666E2,2.1777777E1,3.0222221E1,1.3777777E1,3.9999998E0,2.7999998E1,5.7777777E0,1.911111E1,8.444444E0,2.222222E0,2.0444443E1,1.2888888E1,4.702222E2,2.1777777E1,1.0222221E1,7.333333E1,2.968889E2,4.222222E1,3.2444443E1,9.999999E1,4.422222E2,3.6444443E1,1.2711111E2,1.5111111E1,1.20444435E2,8.8888885E1,2.1155554E2,1.7644443E2,5.1999994E2,3.4666664E1,5.7777777E0,1.5999999E1,2.1333332E1,8.888888E0,2.6666665E0,1.1111111E1,7.1111107E0,2.0888887E1,2.222222E0,3.5555553E0,1.7777777E1,1.3333333E0,7.1111107E0,1.3333333E0,2.6666665E0,1.7777777E1,4.0799997E2,6.2222218E1,4.444444E0,1.7333332E1,3.9999998E0,6.222222E0,4.8888884E0,6.844444E1,1.1066666E2,1.8622221E2,2.311111E1,1.911111E1,2.7999998E1,4.444444E0,9.599999E1,3.9999998E0,1.9955554E2,2.4266666E2,6.666666E0,2.9777777E1,1.1555555E2,1.1555555E1,7.9999995E0,7.1111107E0,1.00444435E2,1.9999998E1,8.0888885E1,7.9999995E0,4.0444443E1,1.711111E2,2.7555553E1,1.4888889E2,2.6311108E2,2.568889E2,2.3999998E1,1.0666666E1,9.777777E0,6.222222E0,2.6666665E0,1.8666666E1,3.5555553E0,5.333333E0,9.777777E0,1.3333333E0],"tree_param":{"num_deleted":"0","num_feature":"50","num_nodes":"117","size_leaf_vector":"1"}},{"base_weights":[-6.1562598E-2,1.8317778E-1,-1.9372462E-1,3.0826557E-1,-1.4017949E-1,-2.4658412E-1,6.0112614E-2,1.9870825E-1,4.6190566E-1,-2.6955748E-1,1.4686455E-1,-7.929044E-2,-3.2317984E-1,3.4402126E-1,-2.3856081E-2,-8.28183E-3,3.2640022E-1,3.5201812E-1,7.347764E-1,-5.437947E-2,-4.7018597E-1,5.3918374E-1,-1.4097199E-2,1.9643344E-1,-1.7936999E-1,-2.3820867E-1,-4.5407054E-1,1.1516951E0,2.4106267E-1,2.9741928E-1,-1.1432061E-1,3.3061585E-1,-1.3571714E-1,2.0522955E-1,5.754172E-1,4.3861416E-1,-5.6318473E-3,8.2523113E-1,1.2231527E-1,-1.2678158E-1,3.4794018E-1,-5.0324917E-1,2.0535907E-1,7.496725E-1,-9.109624E-2,-1.8156768E-1,5.1601607E-1,3.8001594E-1,-1.797883E-1,2.2165084E-1,-2.2109854E-1,-4.5510542E-1,-1.704031E-1,-4.68827E-1,3.5677192E-1,3.7238455E-1,1.2098422E-1,-1.782158E-1,4.449798E-1,1.5568379E-1,9.6608377E-1,-1.9849323E-1,2.654563E-1,2.2451246E-1,1.0542324E-2,-5.2297615E-2,2.398321E-1,3.1105975E-2,1.8230845E-1,2.0896016E-1,-4.2079538E-2,1.5604162E-1,-4.624639E-2,1.3345398E-1,-6.785398E-2,2.8504226E-1,1.2959579E-1,-1.0026466E-1,2.3477936E-1,-6.587357E-2,1.521153E-1,-1.6484979E-1,2.9703682E-2,-3.1326827E-2,3.0945492E-1,-1.6126561E-1,9.768946E-2,-7.8273185E-2,1.7231794E-1,2.551384E-1,-1.655711E-1,9.0441824E-4,1.9375825E-1,7.2301336E-2,-1.2908332E-1,2.3498952E-1,-6.9996685E-2,-1.1346101E-1,-2.3402367E-2,-1.5771633E-1,3.3753186E-3,-5.4510307E-2,3.134231E-1,-1.6346593E-1,-1.10382326E-1,2.079161E-1,-1.3695332E-1,-1.9296333E-1,1.3889371E-1,-9.787785E-2,2.06783E-1,-2.4716536E-2,1.8369363E-1,3.677608E-1,-3.640692E-2,1.92563E-1,-7.145688E-2,-9.2774615E-2,1.6723198E-1],"categories":[],"categories_nodes":[],"categories_segments":[],"categories_sizes":[],"default_left":[0,0,0,0,0,0,0,0,0,0,0,0,0,0,0,0,0,0,0,0,0,0,0,0,0,0,0,0,0,0,0,0,0,0,0,0,0,0,0,0,0,0,0,0,0,0,0,0,0,0,0,0,0,0,0,0,0,0,0,0,0,0,0,0,0,0,0,0,0,0,0,0,0,0,0,0,0,0,0,0,0,0,0,0,0,0,0,0,0,0,0,0,0,0,0,0,0,0,0,0,0,0,0,0,0,0,0,0,0,0,0,0,0,0,0,0,0,0,0],"id":3,"left_children":[1,3,5,7,9,11,13,15,17,19,21,23,25,27,29,31,33,35,37,39,41,43,45,47,49,51,53,55,57,59,61,63,65,67,69,71,73,75,77,79,-1,81,-1,83,85,87,89,91,93,95,97,99,101,103,105,-1,-1,107,109,111,113,115,117,-1,-1,-1,-1,-1,-1,-1,-1,-1,-1,-1,-1,-1,-1,-1,-1,-1,-1,-1,-1,-1,-1,-1,-1,-1,-1,-1,-1,-1,-1,-1,-1,-1,-1,-1,-1,-1,-1,-1,-1,-1,-1,-1,-1,-1,-1,-1,-1,-1,-1,-1,-1,-1,-1,-1,-1],"loss_changes":[9.444538E1,4.146211E1,2.5452156E1,1.2342026E1,1.0672682E1,2.0082787E1,7.8167586E0,1.1446186E1,8.938545E0,8.509978E0,5.665934E0,1.3671366E1,1.1860062E1,5.9448557E0,7.4081097E0,7.221014E0,7.9622326E0,6.8342705E0,4.7265816E0,8.632864E0,4.2458153E0,3.5299954E0,5.820831E0,9.190605E0,6.1249113E0,9.549606E0,5.222389E0,4.8909187E-2,5.8617625E0,5.159098E0,6.404381E0,5.6145854E0,4.5247936E0,7.362377E0,7.647688E0,8.662773E0,4.470701E0,3.3104973E0,3.995652E0,5.5224943E0,0E0,2.8375893E0,0E0,4.842475E0,1.5563118E0,3.1346612E0,6.0937486E0,8.92649E0,4.740674E0,9.054885E0,7.37475E0,5.1204033E0,7.058282E0,2.9867477E0,2.5369344E0,0E0,0E0,7.108864E0,8.851939E0,5.2051706E0,2.8624973E0,5.5978394E0,6.293317E0,0E0,0E0,0E0,0E0,0E0,0E0,0E0,0E0,0E0,0E0,0E0,0E0,0E0,0E0,0E0,0E0,0E0,0E0,0E0,0E0,0E0,0E0,0E0,0E0,0E0,0E0,0E0,0E0,0E0,0E0,0E0,0E0,0E0,0E0,0E0,0E0,0E0,0E0,0E0,0E0,0E0,0E0,0E0,0E0,0E0,0E0,0E0,0E0,0E0,0E0,0E0,0E0,0E0,0E0,0E0,0E0],"parents":[2147483647,0,0,1,1,2,2,3,3,4,4,5,5,6,6,7,7,8,8,9,9,10,10,11,11,12,12,13,13,14,14,15,15,16,16,17,17,18,18,19,19,20,20,21,21,22,22,23,23,24,24,25,25,26,26,27,27,28,28,29,29,30,30,31,31,32,32,33,33,34,34,35,35,36,36,37,37,38,38,39,39,41,41,43,43,44,44,45,45,46,46,47,47,48,48,49,49,50,50,51,51,52,52,53,53,54,54,57,57,58,58,59,59,60,60,61,61,62,62],"right_children":[2,4,6,8,10,12,14,16,18,20,22,24,26,28,30,32,34,36,38,40,42,44,46,48,50,52,54,56,58,60,62,64,66,68,70,72,74,76,78,80,-1,82,-1,84,86,88,90,92,94,96,98,100,102,104,106,-1,-1,108,110,112,114,116,118,-1,-1,-1,-1,-1,-1,-1,-1,-1,-1,-1,-1,-1,-1,-1,-1,-1,-1,-1,-1,-1,-1,-1,-1,-1,-1,-1,-1,-1,-1,-1,-1,-1,-1,-1,-1,-1,-1,-1,-1,-1,-1,-1,-1,-1,-1,-1,-1,-1,-1,-1,-1,-1,-1,-1,-1],"split_conditions":[-4.089456E-1,4.2069998E-1,6.4587295E-1,-7.254021E-2,-3.274608E-1,-6.416608E-1,-8.72233E-1,-2.6433656E-1,1.0604709E0,-6.296202E-1,-7.209699E-1,-7.6239616E-2,5.3326096E-2,-7.2220784E-1,-4.559165E-1,-7.549806E-1,-1.6981073E-1,1.0183638E0,4.0299958E-1,-4.1940448E-1,1.5543538E0,-1.2764826E-1,2.350324E-1,-7.209699E-1,-9.570887E-1,-4.6612442E-1,1.3517746E0,-2.9929759E-2,-1.5731415E0,1.0411913E0,8.209014E-1,-7.596738E-1,1.3955828E0,7.605636E-1,9.628848E-1,6.912485E-1,2.0086421E-1,2.0613456E0,1.0849417E0,4.8811626E-1,3.4794018E-1,4.9616498E-1,2.0535907E-1,-2.4106346E-1,-1.8283995E-2,2.0043917E0,1.9844921E-1,-1.0964948E-1,-2.784211E-1,3.0304185E-1,-5.913542E-1,3.2151848E-1,2.8008823E0,-4.8477184E-2,1.0462164E0,3.7238455E-1,1.2098422E-1,3.0203128E-1,-4.3317595E-1,6.089199E-1,2.6824096E-1,-9.1621786E-1,1.8102023E-1,2.2451246E-1,1.0542324E-2,-5.2297615E-2,2.398321E-1,3.1105975E-2,1.8230845E-1,2.0896016E-1,-4.2079538E-2,1.5604162E-1,-4.624639E-2,1.3345398E-1,-6.785398E-2,2.8504226E-1,1.2959579E-1,-1.0026466E-1,2.3477936E-1,-6.587357E-2,1.521153E-1,-1.6484979E-1,2.9703682E-2,-3.1326827E-2,3.0945492E-1,-1.6126561E-1,9.768946E-2,-7.8273185E-2,1.7231794E-1,2.551384E-1,-1.655711E-1,9.0441824E-4,1.9375825E-1,7.2301336E-2,-1.2908332E-1,2.3498952E-1,-6.9996685E-2,-1.1346101E-1,-2.3402367E-2,-1.5771633E-1,3.3753186E-3,-5.4510307E-2,3.134231E-1,-1.6346593E-1,-1.10382326E-1,2.079161E-1,-1.3695332E-1,-1.9296333E-1,1.3889371E-1,-9.787785E-2,2.06783E-1,-2.4716536E-2,1.8369363E-1,3.677608E-1,-3.640692E-2,1.92563E-1,-7.145688E-2,-9.2774615E-2,1.6723198E-1],"split_indices":[20,1,47,41,5,21,8,17,37,22,48,7,9,38,23,2,30,3,5,49,49,16,27,48,38,21,4,11,10,5,4,20,5,13,12,36,6,24,5,41,0,42,0,19,17,30,44,13,41,5,44,48,37,4,14,0,0,25,4,39,19,36,18,0,0,0,0,0,0,0,0,0,0,0,0,0,0,0,0,0,0,0,0,0,0,0,0,0,0,0,0,0,0,0,0,0,0,0,0,0,0,0,0,0,0,0,0,0,0,0,0,0,0,0,0,0,0,0,0],"split_type":[0,0,0,0,0,0,0,0,0,0,0,0,0,0,0,0,0,0,0,0,0,0,0,0,0,0,0,0,0,0,0,0,0,0,0,0,0,0,0,0,0,0,0,0,0,0,0,0,0,0,0,0,0,0,0,0,0,0,0,0,0,0,0,0,0,0,0,0,0,0,0,0,0,0,0,0,0,0,0,0,0,0,0,0,0,0,0,0,0,0,0,0,0,0,0,0,0,0,0,0,0,0,0,0,0,0,0,0,0,0,0,0,0,0,0,0,0,0,0],"sum_hessian":[2.9178057E3,1.0230025E3,1.8948032E3,7.3768317E2,2.853193E2,1.5682556E3,3.2654764E2,4.3195734E2,3.0572583E2,1.9671556E2,8.860376E1,4.9316443E2,1.0750912E3,7.382821E1,2.5271942E2,1.651624E2,2.6679492E2,2.1958643E2,8.613941E1,9.552942E1,1.0118614E2,2.5093206E1,6.351055E1,1.3107735E2,3.6208707E2,6.536056E2,4.2148563E2,7.19556E0,6.663265E1,5.502306E1,1.9769635E2,4.4698406E1,1.2046399E2,1.8069409E2,8.610084E1,1.766006E2,4.2985825E1,7.475186E1,1.1387554E1,9.09987E1,4.5307117E0,9.8917984E1,2.268157E0,1.866905E1,6.424156E0,4.876308E1,1.4747473E1,8.8085E1,4.299235E1,3.371986E1,3.2836722E2,1.5430432E2,4.9930127E2,4.143664E2,7.119237E0,5.838172E0,1.3573881E0,2.1844248E1,4.4788403E1,4.6416973E1,8.606087E0,1.6221979E2,3.5476562E1,1.788243E1,2.6815975E1,1.1646912E2,3.9948733E0,1.4529375E2,3.5400345E1,7.366166E1,1.2439182E1,1.5535664E2,2.124396E1,1.3794004E1,2.919182E1,5.5656948E1,1.9094913E1,7.0245132E0,4.363041E0,7.994747E1,1.1051231E1,9.194478E1,6.9732065E0,4.788265E0,1.3880786E1,2.961479E0,3.4626772E0,4.4723885E1,4.0391955E0,1.1385465E1,3.3620086E0,3.684522E1,5.123978E1,1.6056755E1,2.6935596E1,1.4767853E1,1.8952007E1,1.5573575E2,1.7263147E2,1.3390166E2,2.0402664E1,4.9554437E2,3.756892E0,2.3374304E2,1.8062335E2,5.1412363E0,1.9780006E0,1.2660032E1,9.184216E0,1.0693566E1,3.4094833E1,3.1048693E1,1.5368281E1,6.843824E0,1.7622628E0,6.6328583E0,1.5558693E2,1.1931979E1,2.3544584E1],"tree_param":{"num_deleted":"0","num_feature":"50","num_nodes":"119","size_leaf_vector":"1"}},{"base_weights":[-6.2021475E-2,1.706938E-1,-2.1766289E-1,-1.5515122E-1,2.5874636E-1,-2.7106106E-1,1.378933E-1,-2.949819E-1,1.5158616E-1,4.5555758E-1,1.5772049E-1,-3.3192885E-1,4.3637525E-2,-5.747111E-3,4.257577E-1,-1.5866482E-1,-4.7795507E-1,3.9049482E-1,-1.0256116E-1,1.288075E-1,5.4116774E-1,2.8310704E-1,-5.394868E-2,-2.0995718E-1,-4.1992107E-1,2.96707E-1,-1.7299415E-1,-1.9838858E-1,3.4395292E-1,1.113049E0,3.1381592E-1,-2.5096995E-1,3.8723218E-1,-5.294547E-1,1.5000959E-1,5.107991E-1,-1.6836664E-1,5.21442E-1,-2.8792349E-1,4.1712368E-1,-1.7703325E-1,-3.3732433E-2,5.9755355E-1,-4.876868E-1,3.2830194E-1,5.819324E-1,-1.2853345E-1,-3.9727527E-1,-6.923504E-2,-4.3878436E-1,4.908426E-1,-2.124535E-1,6.546344E-1,-2.9837906E-1,4.9264807E-1,-2.9007298E-1,8.393463E-1,-4.5810346E-2,7.22154E-1,1.1099406E-1,3.5644028E-1,4.0543124E-1,-5.390319E-1,6.634209E-2,-1.2503974E-1,-1.2932119E-1,2.4380505E-1,-1.7000279E-1,8.280788E-2,2.4148838E-1,-9.714257E-2,-5.821789E-2,1.9202815E-1,-6.7087896E-2,3.6395282E-1,-1.2822048E-1,1.10527694E-1,-1.2866329E-1,1.9296272E-1,-8.8373266E-2,2.8756186E-1,1.7227063E-1,-1.0988234E-1,2.5598654E-1,1.4472471E-1,7.066134E-2,-1.8118012E-1,1.6827029E-1,5.367579E-2,-6.355146E-2,2.8281757E-1,-6.910742E-2,5.0316673E-2,-1.2614347E-1,1.6904902E-1,-5.8791235E-2,3.9565846E-2,-1.357347E-1,5.2094497E-2,-1.678809E-1,2.4953505E-1,2.1459462E-1,-1.167426E-1,2.8092864E-1,4.3922232E-4,8.702348E-2,-1.1582425E-1,-1.1676406E-1,2.7993762E-1,2.0435025E-1,-1.0936139E-1,-1.2894236E-2,3.1653926E-1,2.3621683E-1,-5.6106042E-2,3.3129764E-1,5.7768676E-2,6.287504E-2,2.7605566E-1,-1.9963758E-1,1.3097026E-3],"categories":[],"categories_nodes":[],"categories_segments":[],"categories_sizes":[],"default_left":[0,0,0,0,0,0,0,0,0,0,0,0,0,0,0,0,0,0,0,0,0,0,0,0,0,0,0,0,0,0,0,0,0,0,0,0,0,0,0,0,0,0,0,0,0,0,0,0,0,0,0,0,0,0,0,0,0,0,0,0,0,0,0,0,0,0,0,0,0,0,0,0,0,0,0,0,0,0,0,0,0,0,0,0,0,0,0,0,0,0,0,0,0,0,0,0,0,0,0,0,0,0,0,0,0,0,0,0,0,0,0,0,0,0,0,0,0,0,0,0,0],"id":4,"left_children":[1,3,5,7,9,11,13,15,17,19,21,23,25,27,29,31,33,35,37,39,41,43,45,47,49,51,53,55,57,59,61,63,65,67,69,71,-1,73,75,77,79,81,83,85,87,89,91,93,95,97,99,101,103,105,107,109,111,113,115,-1,-1,117,119,-1,-1,-1,-1,-1,-1,-1,-1,-1,-1,-1,-1,-1,-1,-1,-1,-1,-1,-1,-1,-1,-1,-1,-1,-1,-1,-1,-1,-1,-1,-1,-1,-1,-1,-1,-1,-1,-1,-1,-1,-1,-1,-1,-1,-1,-1,-1,-1,-1,-1,-1,-1,-1,-1,-1,-1,-1,-1],"loss_changes":[1.05724884E2,3.3608494E1,3.3243073E1,1.07472E1,1.8249367E1,2.9147797E1,9.472507E0,4.207595E0,4.82419E0,8.6586075E0,1.621625E1,1.3590958E1,1.3613348E1,1.0427562E1,5.51733E0,5.13159E0,2.434496E0,4.9606147E0,4.657756E0,5.9017496E0,8.024796E0,1.3519829E1,1.0884441E1,1.4105022E1,1.291835E1,2.0998981E1,1.132387E1,9.737703E0,8.138687E0,1.343832E-1,5.4507976E0,6.830327E0,5.518102E0,2.1808472E0,2.2153344E0,3.474722E0,0E0,5.05457E0,2.9670124E0,6.8399224E0,4.656947E0,4.860828E0,6.2113953E0,1.9618607E0,1.2507683E1,7.1039543E0,6.2170606E0,5.3594017E0,7.860178E0,6.1452637E0,6.0078397E0,8.147496E0,1.2414959E1,5.9599E0,8.755113E0,6.9331927E0,1.6365471E0,3.4439812E0,5.4477644E0,0E0,0E0,5.9608154E0,4.78657E-1,0E0,0E0,0E0,0E0,0E0,0E0,0E0,0E0,0E0,0E0,0E0,0E0,0E0,0E0,0E0,0E0,0E0,0E0,0E0,0E0,0E0,0E0,0E0,0E0,0E0,0E0,0E0,0E0,0E0,0E0,0E0,0E0,0E0,0E0,0E0,0E0,0E0,0E0,0E0,0E0,0E0,0E0,0E0,0E0,0E0,0E0,0E0,0E0,0E0,0E0,0E0,0E0,0E0,0E0,0E0,0E0,0E0,0E0],"parents":[2147483647,0,0,1,1,2,2,3,3,4,4,5,5,6,6,7,7,8,8,9,9,10,10,11,11,12,12,13,13,14,14,15,15,16,16,17,17,18,18,19,19,20,20,21,21,22,22,23,23,24,24,25,25,26,26,27,27,28,28,29,29,30,30,31,31,32,32,33,33,34,34,35,35,37,37,38,38,39,39,40,40,41,41,42,42,43,43,44,44,45,45,46,46,47,47,48,48,49,49,50,50,51,51,52,52,53,53,54,54,55,55,56,56,57,57,58,58,61,61,62,62],"right_children":[2,4,6,8,10,12,14,16,18,20,22,24,26,28,30,32,34,36,38,40,42,44,46,48,50,52,54,56,58,60,62,64,66,68,70,72,-1,74,76,78,80,82,84,86,88,90,92,94,96,98,100,102,104,106,108,110,112,114,116,-1,-1,118,120,-1,-1,-1,-1,-1,-1,-1,-1,-1,-1,-1,-1,-1,-1,-1,-1,-1,-1,-1,-1,-1,-1,-1,-1,-1,-1,-1,-1,-1,-1,-1,-1,-1,-1,-1,-1,-1,-1,-1,-1,-1,-1,-1,-1,-1,-1,-1,-1,-1,-1,-1,-1,-1,-1,-1,-1,-1,-1],"split_conditions":[-3.5515842E-1,-7.1941715E-1,9.337038E-1,7.134687E-1,-4.2654157E-1,5.398871E-1,9.901079E-2,3.7303638E-1,-6.7742085E-1,-5.613264E-1,5.0642226E-2,-8.141098E-2,-1.4449596E-1,3.6953336E-1,-2.9931477E-1,2.7015826E-1,2.4920566E0,3.0221794E0,-7.984763E-1,-4.4045404E-1,-8.3384615E-1,-1.2899239E0,-1.0696782E0,-9.908581E-2,2.0592415E0,-1.562423E-1,1.5170674E0,1.267472E0,-3.9551035E-1,-5.777906E-1,1.7391282E0,-4.1985062E-1,-7.069113E-1,1.3575091E0,-2.551394E-1,-6.6928786E-1,-1.6836664E-1,6.725225E-1,3.614435E-1,-9.7160655E-1,1.6130958E0,-1.0554458E0,-3.8041085E-1,-2.458027E-1,-5.658784E-1,1.5381429E-1,6.7333233E-1,1.5357174E0,1.4177222E-2,2.4613218E0,-1.7391416E0,-7.087077E-1,6.490494E-1,-1.0133884E0,-3.294638E-1,-1.0856584E0,-3.6191425E-1,-9.5895797E-1,-8.9011E-2,1.1099406E-1,3.5644028E-1,7.9088795E-1,-4.7188312E-1,6.634209E-2,-1.2503974E-1,-1.2932119E-1,2.4380505E-1,-1.7000279E-1,8.280788E-2,2.4148838E-1,-9.714257E-2,-5.821789E-2,1.9202815E-1,-6.7087896E-2,3.6395282E-1,-1.2822048E-1,1.10527694E-1,-1.2866329E-1,1.9296272E-1,-8.8373266E-2,2.8756186E-1,1.7227063E-1,-1.0988234E-1,2.5598654E-1,1.4472471E-1,7.066134E-2,-1.8118012E-1,1.6827029E-1,5.367579E-2,-6.355146E-2,2.8281757E-1,-6.910742E-2,5.0316673E-2,-1.2614347E-1,1.6904902E-1,-5.8791235E-2,3.9565846E-2,-1.357347E-1,5.2094497E-2,-1.678809E-1,2.4953505E-1,2.1459462E-1,-1.167426E-1,2.8092864E-1,4.3922232E-4,8.702348E-2,-1.1582425E-1,-1.1676406E-1,2.7993762E-1,2.0435025E-1,-1.0936139E-1,-1.2894236E-2,3.1653926E-1,2.3621683E-1,-5.6106042E-2,3.3129764E-1,5.7768676E-2,6.287504E-2,2.7605566E-1,-1.9963758E-1,1.3097026E-3],"split_indices":[7,2,14,6,15,48,11,31,18,3,28,5,17,1,3,48,28,37,13,42,31,34,17,8,11,4,21,32,43,22,15,25,32,12,19,14,0,11,48,29,17,46,28,10,30,16,2,19,19,1,10,36,5,31,3,15,25,36,4,0,0,15,49,0,0,0,0,0,0,0,0,0,0,0,0,0,0,0,0,0,0,0,0,0,0,0,0,0,0,0,0,0,0,0,0,0,0,0,0,0,0,0,0,0,0,0,0,0,0,0,0,0,0,0,0,0,0,0,0,0,0],"split_type":[0,0,0,0,0,0,0,0,0,0,0,0,0,0,0,0,0,0,0,0,0,0,0,0,0,0,0,0,0,0,0,0,0,0,0,0,0,0,0,0,0,0,0,0,0,0,0,0,0,0,0,0,0,0,0,0,0,0,0,0,0,0,0,0,0,0,0,0,0,0,0,0,0,0,0,0,0,0,0,0,0,0,0,0,0,0,0,0,0,0,0,0,0,0,0,0,0,0,0,0,0,0,0,0,0,0,0,0,0,0,0,0,0,0,0,0,0,0,0,0,0],"sum_hessian":[2.9169277E3,1.1689761E3,1.7479515E3,2.485258E2,9.204503E2,1.5199238E3,2.2802777E2,1.70733E2,7.779279E1,3.110249E2,6.094254E2,1.2735449E3,2.4637888E2,1.5277512E2,7.5252655E1,9.891063E1,7.182238E1,3.9822014E1,3.7970776E1,6.509188E1,2.4593303E2,3.825039E2,2.269215E2,5.351396E2,7.3840533E2,1.1346234E2,1.3291653E2,9.878789E1,5.398722E1,9.2874155E0,6.596524E1,8.5067E1,1.3843626E1,6.652362E1,5.298758E0,3.576441E1,4.057608E0,8.280896E0,2.968988E1,3.3318584E1,3.1773298E1,2.2002373E1,2.2393065E2,2.064333E1,3.6186057E2,2.3108133E1,2.0381337E2,2.287812E2,3.063584E2,7.239299E2,1.4475441E1,4.700418E1,6.645817E1,1.1231235E2,2.060418E1,9.1430435E1,7.3574514E0,2.7020025E1,2.6967194E1,1.39633E0,7.8910856E0,6.004017E1,5.925069E0,2.2026037E1,6.3040962E1,4.730974E0,9.112652E0,6.3868725E1,2.654899E0,1.9308672E0,3.367891E0,5.465879E0,3.0298527E1,4.312552E0,3.9683437E0,2.4774063E1,4.915817E0,6.837183E0,2.6481401E1,2.9464039E1,2.3092608E0,7.5225368E0,1.44798355E1,6.7529205E1,1.5640144E2,2.7165098E0,1.792682E1,1.4043651E2,2.2142406E2,7.3501406E0,1.5757994E1,1.5184566E2,5.1967705E1,2.2393544E2,4.8457646E0,1.879488E2,1.184096E2,7.0838556E2,1.55443535E1,3.3898613E0,1.108558E1,7.031934E0,3.9972244E1,4.6125E1,2.0333166E1,1.4268261E1,9.804409E1,6.9021163E0,1.3702063E1,5.930601E0,8.549984E1,1.6031417E0,5.75431E0,3.2525468E0,2.3767479E1,1.5033368E1,1.19338255E1,4.4511936E1,1.5528236E1,4.624508E0,1.3005611E0],"tree_param":{"num_deleted":"0","num_feature":"50","num_nodes":"121","size_leaf_vector":"1"}},{"base_weights":[1.1975874E-1,-4.3308702E-1,3.4486124E-1,3.186761E-1,-4.9941832E-1,1.8668246E-1,5.040749E-1,-4.565597E-1,4.4095066E-1,-5.7686836E-1,-2.4500799E-1,2.7929318E-1,-4.985609E-2,5.4451364E-1,1.841002E-1,6.358098E-2,-1.8733206E-1,6.3879526E-1,-5.4458216E-2,-6.5686744E-1,-4.5148766E-1,1.10038206E-1,-4.4985777E-1,3.9620572E-1,8.0055974E-2,-1.21442236E-1,3.3677015E-1,5.6164455E-1,-9.239084E-2,4.161743E-1,-1.7559625E-1,-3.246525E-1,7.1870387E-1,-3.799219E-1,7.717543E-1,1.06402285E-1,-6.640151E-1,-5.897343E-2,-5.0729275E-1,4.6119395E-1,-2.4487764E-1,-5.126138E-1,4.7297087E-1,6.307305E-1,2.1815424E-1,-7.71216E-2,3.772793E-1,-2.0035797E-1,2.87186E-1,5.7991713E-1,-4.3653432E-1,7.467808E-1,5.060762E-1,-6.5017605E-1,3.2394356E-1,6.321321E-1,-1.4157052E-1,-2.7274758E-1,3.270926E-1,-1.3989379E-1,-7.2158426E-3,7.2679065E-2,2.61373E-1,-1.5117699E-1,1.481548E-1,2.992494E-1,9.667236E-2,-8.2267776E-2,-2.012047E-1,1.9607E-1,-1.2100599E-1,-1.6307825E-1,-6.5353036E-2,2.4891222E-2,2.924299E-1,-1.2734783E-1,2.030969E-1,9.511719E-2,-1.7143603E-1,-7.770628E-2,2.7449247E-1,-2.894563E-2,2.0543006E-1,4.3237608E-2,2.5258845E-1,-3.829394E-2,1.6671687E-1,1.4866482E-1,-1.2762043E-1,-2.4010746E-2,-1.6321857E-1,-1.1756895E-1,1.6865917E-1,2.2356884E-1,-9.8264575E-2,2.2535731E-1,-2.0047325E-1,1.8249419E-2,2.3930858E-1,1.8114766E-1,1.1512657E-1,-2.2052495E-1,-2.5996158E-3,1.9763176E-1,-1.3721018E-1,2.0889291E-1,-1.674098E-1,-1.7228703E-1,5.5236906E-2,2.4411557E-2,-1.5298416E-1],"categories":[],"categories_nodes":[],"categories_segments":[],"categories_sizes":[],"default_left":[0,0,0,0,0,0,0,0,0,0,0,0,0,0,0,0,0,0,0,0,0,0,0,0,0,0,0,0,0,0,0,0,0,0,0,0,0,0,0,0,0,0,0,0,0,0,0,0,0,0,0,0,0,0,0,0,0,0,0,0,0,0,0,0,0,0,0,0,0,0,0,0,0,0,0,0,0,0,0,0,0,0,0,0,0,0,0,0,0,0,0,0,0,0,0,0,0,0,0,0,0,0,0,0,0,0,0,0,0,0,0],"id":5,"left_children":[1,3,5,7,9,11,13,15,17,19,21,23,25,27,29,-1,-1,31,33,35,37,39,41,43,45,47,49,51,53,55,57,59,61,63,65,-1,67,69,71,73,75,77,79,81,83,85,87,89,91,93,95,97,99,101,103,105,107,109,-1,-1,-1,-1,-1,-1,-1,-1,-1,-1,-1,-1,-1,-1,-1,-1,-1,-1,-1,-1,-1,-1,-1,-1,-1,-1,-1,-1,-1,-1,-1,-1,-1,-1,-1,-1,-1,-1,-1,-1,-1,-1,-1,-1,-1,-1,-1,-1,-1,-1,-1,-1,-1],"loss_changes":[3.749318E2,4.363469E1,5.3818405E1,6.960046E0,1.5652603E1,2.357254E1,1.3696808E1,1.2776408E0,6.1210356E0,5.859558E0,1.3781626E1,1.7974083E1,8.439201E0,1.0374939E1,1.01861515E1,0E0,0E0,3.6556683E0,5.306262E0,2.9286346E0,5.276722E0,8.822428E0,7.1876354E0,2.0193794E1,1.344199E1,8.337582E0,9.216578E0,9.102173E0,6.1649933E0,8.994906E0,6.2269716E0,1.6309348E-1,2.7947807E0,1.7705531E0,2.4665165E-1,0E0,7.782135E-1,7.9411426E0,2.1089134E0,6.809786E0,6.1503286E0,5.686245E0,2.8758688E0,8.302315E0,1.2730364E1,6.102233E0,9.654888E0,8.880718E0,8.058887E0,5.749215E0,3.797313E0,7.3076935E0,8.279907E0,6.086483E-1,4.3167686E0,4.473545E0,3.1293268E0,3.8698814E0,0E0,0E0,0E0,0E0,0E0,0E0,0E0,0E0,0E0,0E0,0E0,0E0,0E0,0E0,0E0,0E0,0E0,0E0,0E0,0E0,0E0,0E0,0E0,0E0,0E0,0E0,0E0,0E0,0E0,0E0,0E0,0E0,0E0,0E0,0E0,0E0,0E0,0E0,0E0,0E0,0E0,0E0,0E0,0E0,0E0,0E0,0E0,0E0,0E0,0E0,0E0,0E0,0E0],"parents":[2147483647,0,0,1,1,2,2,3,3,4,4,5,5,6,6,7,7,8,8,9,9,10,10,11,11,12,12,13,13,14,14,17,17,18,18,19,19,20,20,21,21,22,22,23,23,24,24,25,25,26,26,27,27,28,28,29,29,30,30,31,31,32,32,33,33,34,34,36,36,37,37,38,38,39,39,40,40,41,41,42,42,43,43,44,44,45,45,46,46,47,47,48,48,49,49,50,50,51,51,52,52,53,53,54,54,55,55,56,56,57,57],"right_children":[2,4,6,8,10,12,14,16,18,20,22,24,26,28,30,-1,-1,32,34,36,38,40,42,44,46,48,50,52,54,56,58,60,62,64,66,-1,68,70,72,74,76,78,80,82,84,86,88,90,92,94,96,98,100,102,104,106,108,110,-1,-1,-1,-1,-1,-1,-1,-1,-1,-1,-1,-1,-1,-1,-1,-1,-1,-1,-1,-1,-1,-1,-1,-1,-1,-1,-1,-1,-1,-1,-1,-1,-1,-1,-1,-1,-1,-1,-1,-1,-1,-1,-1,-1,-1,-1,-1,-1,-1,-1,-1,-1,-1],"split_conditions":[-5.070595E-1,-1.4487289E0,2.0489672E-1,-5.777906E-1,-4.1523725E-2,3.4149227E-1,8.8544124E-1,-1.1538852E0,-2.5191492E-1,-7.8899103E-1,-1.2162939E-1,2.2616256E-2,9.6944845E-1,1.23087E0,-1.1467464E-1,6.358098E-2,-1.8733206E-1,2.0823982E-2,-4.3627188E-1,-1.4977243E0,-1.1395259E0,2.5203103E-1,1.3376309E0,-1.998894E-1,3.279522E-1,4.3077683E-1,-2.9929759E-2,-9.2129946E-1,-3.567147E-1,3.680782E-1,2.1868608E0,-2.0057905E0,-9.58668E-1,-8.591124E-1,6.344248E-1,1.06402285E-1,-1.4040275E0,-2.8971782E-1,-1.4064409E-1,2.912612E-1,1.0977558E0,-1.8079342E0,-6.150413E-1,-8.4365124E-1,-2.9782653E-1,8.2844585E-2,1.0700558E0,4.773178E-2,-4.9582845E-1,6.377098E-2,-4.3317595E-1,-5.735106E-1,-1.864629E-1,7.1493715E-1,1.1817169E0,1.2336816E0,-3.7919155E-1,-3.8296837E-1,3.270926E-1,-1.3989379E-1,-7.2158426E-3,7.2679065E-2,2.61373E-1,-1.5117699E-1,1.481548E-1,2.992494E-1,9.667236E-2,-8.2267776E-2,-2.012047E-1,1.9607E-1,-1.2100599E-1,-1.6307825E-1,-6.5353036E-2,2.4891222E-2,2.924299E-1,-1.2734783E-1,2.030969E-1,9.511719E-2,-1.7143603E-1,-7.770628E-2,2.7449247E-1,-2.894563E-2,2.0543006E-1,4.3237608E-2,2.5258845E-1,-3.829394E-2,1.6671687E-1,1.4866482E-1,-1.2762043E-1,-2.4010746E-2,-1.6321857E-1,-1.1756895E-1,1.6865917E-1,2.2356884E-1,-9.8264575E-2,2.2535731E-1,-2.0047325E-1,1.8249419E-2,2.3930858E-1,1.8114766E-1,1.1512657E-1,-2.2052495E-1,-2.5996158E-3,1.9763176E-1,-1.3721018E-1,2.0889291E-1,-1.674098E-1,-1.7228703E-1,5.5236906E-2,2.4411557E-2,-1.5298416E-1],"split_indices":[7,4,7,22,15,48,14,40,20,7,11,9,1,13,11,0,0,1,48,24,9,13,19,11,15,15,11,14,8,4,5,13,35,11,0,0,16,38,15,28,16,14,32,30,9,48,13,7,18,7,4,5,27,3,22,32,13,37,0,0,0,0,0,0,0,0,0,0,0,0,0,0,0,0,0,0,0,0,0,0,0,0,0,0,0,0,0,0,0,0,0,0,0,0,0,0,0,0,0,0,0,0,0,0,0,0,0,0,0,0,0],"split_type":[0,0,0,0,0,0,0,0,0,0,0,0,0,0,0,0,0,0,0,0,0,0,0,0,0,0,0,0,0,0,0,0,0,0,0,0,0,0,0,0,0,0,0,0,0,0,0,0,0,0,0,0,0,0,0,0,0,0,0,0,0,0,0,0,0,0,0,0,0,0,0,0,0,0,0,0,0,0,0,0,0,0,0,0,0,0,0,0,0,0,0,0,0,0,0,0,0,0,0,0,0,0,0,0,0,0,0,0,0,0,0],"sum_hessian":[3.0105835E3,8.7085724E2,2.1397263E3,7.030088E1,8.005564E2,1.0744413E3,1.065285E3,9.205155E0,6.1095722E1,6.127497E2,1.8780669E2,7.7200244E2,3.0243884E2,9.4513586E2,1.2014914E2,1.7950165E0,7.410139E0,4.345305E1,1.7642673E1,3.7148495E2,2.4126472E2,6.888238E1,1.1892431E2,4.8589197E2,2.8611044E2,2.557678E2,4.6671036E1,9.2049536E2,2.4640516E1,7.293493E1,4.7214214E1,3.0934095E0,4.0359642E1,1.3044368E1,4.598305E0,2.2653866E0,3.6921957E2,3.0287737E1,2.1097699E2,3.4474083E1,3.44083E1,1.1176814E2,7.1561604E0,2.0859442E2,2.7729755E2,1.8762903E2,9.848142E1,2.1479543E2,4.0972374E1,3.569704E1,1.0973995E1,2.0963109E2,7.1086426E2,1.0291193E1,1.4349323E1,5.2481003E1,2.0453922E1,4.4577663E1,2.6365504E0,1.7278647E0,1.3655448E0,1.041566E1,2.994398E1,1.1793911E1,1.2504572E0,2.2495346E0,2.3487706E0,6.9176636E0,3.623019E2,9.576221E0,2.0711515E1,1.8668571E2,2.4291267E1,2.0522057E1,1.3952026E1,2.9249E1,5.159297E0,7.1109743E0,1.0465717E2,2.8501246E0,4.3060355E0,1.4373378E1,1.9422105E2,2.489813E2,2.831624E1,1.7449597E2,1.3133064E1,8.616776E1,1.231366E1,1.6001207E2,5.4783363E1,1.1687507E1,2.9284866E1,3.034745E1,5.3495913E0,1.4254267E0,9.548569E0,1.4636328E1,1.9499477E2,3.9292953E2,3.179347E2,8.959496E0,1.3316967E0,1.015448E1,4.1948433E0,5.0189564E1,2.2914398E0,8.455964E0,1.1997959E1,1.814525E1,2.6432415E1],"tree_param":{"num_deleted":"0","num_feature":"50","num_nodes":"111","size_leaf_vector":"1"}},{"base_weights":[-4.5564324E-2,8.632191E-2,-2.0983042E-1,-3.2256523E-1,1.3961503E-1,2.5738962E-2,-2.6437795E-1,-3.4881637E-1,6.992793E-1,2.0556307E-1,-8.58083E-2,-1.1267307E-1,3.385348E-1,-5.518629E-1,-2.3688847E-1,-3.6664382E-1,2.6125333E-1,2.4900293E-1,7.021998E-2,1.4960462E-1,4.403438E-1,2.2796953E-1,-1.6727202E-1,-2.3882881E-1,2.8078035E-1,1.5836388E-1,8.005465E-1,-5.721859E-1,1.0435117E-1,-5.840495E-1,-2.1233016E-1,-1.22136384E-1,-4.7064903E-1,2.5775728E-1,3.659715E-2,2.699444E-1,6.5686136E-1,6.7281E-2,7.1885693E-1,-2.2343786E-2,-3.4128457E-1,-3.5588437E-1,1.9097176E-1,3.2883567E-1,1.2651835E-1,-1.522707E-1,5.23898E-1,-1.2983835E-1,9.1038555E-1,-6.122995E-1,-3.056087E-1,-6.135007E-1,1.2656885E-1,-3.3217767E-1,-1.1594913E-1,-5.160276E-2,2.1464685E-1,-1.5047379E-1,6.379202E-2,1.3492444E-1,5.1554617E-2,-1.1434893E-2,9.283746E-2,6.055881E-3,1.7139034E-1,2.1725483E-1,-2.0115322E-2,-4.1047517E-2,1.17052756E-1,-1.24828145E-1,2.6096082E-1,-2.0221347E-2,2.4918224E-1,-1.1922384E-1,1.3385834E-1,-1.165083E-1,2.2494715E-1,-1.03871174E-1,1.8266377E-1,1.848234E-1,-4.7692623E-2,-1.2267372E-1,1.3919963E-1,2.3447736E-1,-1.6888583E-1,2.959338E-1,-1.2269314E-2,-8.4916934E-2,-1.9449238E-1,7.074503E-2,-1.7213368E-1,-1.8870005E-1,2.6657153E-2,4.0654343E-2,-1.1075523E-1,8.5310355E-2,-4.8400078E-2],"categories":[],"categories_nodes":[],"categories_segments":[],"categories_sizes":[],"default_left":[0,0,0,0,0,0,0,0,0,0,0,0,0,0,0,0,0,0,0,0,0,0,0,0,0,0,0,0,0,0,0,0,0,0,0,0,0,0,0,0,0,0,0,0,0,0,0,0,0,0,0,0,0,0,0,0,0,0,0,0,0,0,0,0,0,0,0,0,0,0,0,0,0,0,0,0,0,0,0,0,0,0,0,0,0,0,0,0,0,0,0,0,0,0,0,0,0],"id":6,"left_children":[1,3,5,7,9,11,13,15,17,19,21,23,25,27,29,31,-1,-1,-1,33,35,37,39,41,43,45,47,49,-1,51,53,55,57,59,61,63,65,67,69,71,73,75,77,-1,79,81,83,-1,85,87,89,91,-1,93,95,-1,-1,-1,-1,-1,-1,-1,-1,-1,-1,-1,-1,-1,-1,-1,-1,-1,-1,-1,-1,-1,-1,-1,-1,-1,-1,-1,-1,-1,-1,-1,-1,-1,-1,-1,-1,-1,-1,-1,-1,-1,-1],"loss_changes":[6.1378754E1,3.4293854E1,1.6218224E1,5.113451E0,2.069913E1,1.0347444E1,7.9656754E0,4.1820717E0,1.0248542E-1,1.4078373E1,8.104809E0,8.29798E0,5.974368E0,1.8201561E0,7.8631554E0,4.413048E0,0E0,0E0,0E0,1.0634718E1,7.448662E0,5.1157155E0,6.325236E0,6.412337E0,4.982917E0,6.208828E0,3.1463375E0,7.440624E-1,0E0,2.0755978E0,1.0086113E1,2.371091E0,2.7058449E0,7.259779E0,8.71791E0,8.822072E0,4.450878E0,3.3766713E0,3.1114206E0,5.36285E0,5.217696E0,3.8627977E0,6.4169116E0,0E0,5.041758E0,4.9274344E0,7.448246E0,0E0,1.4134865E0,7.020359E-1,2.0789065E0,7.0890427E-1,0E0,6.802723E0,8.900228E0,0E0,0E0,0E0,0E0,0E0,0E0,0E0,0E0,0E0,0E0,0E0,0E0,0E0,0E0,0E0,0E0,0E0,0E0,0E0,0E0,0E0,0E0,0E0,0E0,0E0,0E0,0E0,0E0,0E0,0E0,0E0,0E0,0E0,0E0,0E0,0E0,0E0,0E0,0E0,0E0,0E0,0E0],"parents":[2147483647,0,0,1,1,2,2,3,3,4,4,5,5,6,6,7,7,8,8,9,9,10,10,11,11,12,12,13,13,14,14,15,15,19,19,20,20,21,21,22,22,23,23,24,24,25,25,26,26,27,27,29,29,30,30,31,31,32,32,33,33,34,34,35,35,36,36,37,37,38,38,39,39,40,40,41,41,42,42,44,44,45,45,46,46,48,48,49,49,50,50,51,51,53,53,54,54],"right_children":[2,4,6,8,10,12,14,16,18,20,22,24,26,28,30,32,-1,-1,-1,34,36,38,40,42,44,46,48,50,-1,52,54,56,58,60,62,64,66,68,70,72,74,76,78,-1,80,82,84,-1,86,88,90,92,-1,94,96,-1,-1,-1,-1,-1,-1,-1,-1,-1,-1,-1,-1,-1,-1,-1,-1,-1,-1,-1,-1,-1,-1,-1,-1,-1,-1,-1,-1,-1,-1,-1,-1,-1,-1,-1,-1,-1,-1,-1,-1,-1,-1],"split_conditions":[-7.6239616E-2,-1.3421568E0,-9.568349E-1,6.355032E-1,4.2069998E-1,1.4675988E-1,-1.7815748E0,1.4930199E0,1.4069463E-1,1.0604709E0,-6.3358533E-1,-4.1201448E-1,1.0167218E0,1.474656E0,5.5892784E-2,-6.2132907E-1,2.6125333E-1,2.4900293E-1,7.021998E-2,-4.9571124E-1,2.9559582E-1,1.3826938E0,-6.0934633E-1,7.162442E-1,-1.1377143E0,-1.0404036E0,-4.7504377E-1,1.3342464E0,1.0435117E-1,1.1400552E0,-5.632346E-1,2.1409636E0,1.2026615E0,-5.8352137E-1,-2.9579997E-2,1.6140646E0,5.4483986E-1,2.5995153E-1,-7.386154E-1,1.5360527E0,2.158934E0,1.6843444E0,2.808606E-1,3.2883567E-1,5.6201243E-1,7.710707E-1,7.952035E-1,-1.2983835E-1,1.0448985E0,-1.0040978E0,3.761979E-1,1.4759462E0,1.2656885E-1,-9.5803404E-1,-6.7579186E-1,-5.160276E-2,2.1464685E-1,-1.5047379E-1,6.379202E-2,1.3492444E-1,5.1554617E-2,-1.1434893E-2,9.283746E-2,6.055881E-3,1.7139034E-1,2.1725483E-1,-2.0115322E-2,-4.1047517E-2,1.17052756E-1,-1.24828145E-1,2.6096082E-1,-2.0221347E-2,2.4918224E-1,-1.1922384E-1,1.3385834E-1,-1.165083E-1,2.2494715E-1,-1.03871174E-1,1.8266377E-1,1.848234E-1,-4.7692623E-2,-1.2267372E-1,1.3919963E-1,2.3447736E-1,-1.6888583E-1,2.959338E-1,-1.2269314E-2,-8.4916934E-2,-1.9449238E-1,7.074503E-2,-1.7213368E-1,-1.8870005E-1,2.6657153E-2,4.0654343E-2,-1.1075523E-1,8.5310355E-2,-4.8400078E-2],"split_indices":[7,13,8,41,1,47,13,22,37,37,21,0,30,44,7,22,0,0,0,20,12,10,20,12,28,10,23,1,0,4,42,45,5,21,23,44,10,32,29,6,49,19,13,0,20,29,7,0,45,5,14,23,0,39,39,0,0,0,0,0,0,0,0,0,0,0,0,0,0,0,0,0,0,0,0,0,0,0,0,0,0,0,0,0,0,0,0,0,0,0,0,0,0,0,0,0,0],"split_type":[0,0,0,0,0,0,0,0,0,0,0,0,0,0,0,0,0,0,0,0,0,0,0,0,0,0,0,0,0,0,0,0,0,0,0,0,0,0,0,0,0,0,0,0,0,0,0,0,0,0,0,0,0,0,0,0,0,0,0,0,0,0,0,0,0,0,0,0,0,0,0,0,0,0,0,0,0,0,0,0,0,0,0,0,0,0,0,0,0,0,0,0,0,0,0,0,0],"sum_hessian":[2.8313208E3,1.5707051E3,1.2606158E3,1.8053235E2,1.3901727E3,2.371192E2,1.02349664E3,1.7665279E2,3.8795626E0,1.0755938E3,3.14579E2,1.648243E2,7.22949E1,8.766114E1,9.3583545E2,1.7479721E2,1.8555744E0,2.4163797E0,1.4631829E0,8.698967E2,2.0569702E2,6.446759E1,2.501114E2,1.2510423E2,3.9720062E1,5.2977863E1,1.9317032E1,8.608073E1,1.580414E0,6.032253E1,8.7551294E2,5.28129E1,1.21984314E2,4.438416E2,4.2605508E2,1.1636472E2,8.93323E1,4.942555E1,1.5042044E1,1.3707523E2,1.1303618E2,9.846061E1,2.6643625E1,5.3480153E0,3.4372047E1,2.8955025E1,2.402284E1,1.339216E0,1.7977816E1,7.369452E1,1.2386207E1,5.8985718E1,1.3368082E0,3.8915787E2,4.8635507E2,5.059508E1,2.2178178E0,1.1695603E2,5.028279E0,1.3589795E2,3.0794366E2,3.351471E2,9.0908005E1,6.4213165E1,5.2151554E1,8.173121E1,7.6010947E0,3.0636236E1,1.8789312E1,1.560274E0,1.34817705E1,1.310718E2,6.003439E0,1.0597786E2,7.05832E0,9.6281425E1,2.1791885E0,1.1732851E1,1.4910773E1,1.223454E1,2.2137508E1,2.0679602E1,8.275423E0,1.9645697E1,4.377144E0,1.6612581E1,1.3652338E0,8.138737E0,6.5555786E1,4.142766E0,8.243441E0,5.7814335E1,1.1713836E0,2.8339338E1,3.6081854E2,4.89879E1,4.373672E2],"tree_param":{"num_deleted":"0","num_feature":"50","num_nodes":"97","size_leaf_vector":"1"}},{"base_weights":[-4.7839146E-2,1.604792E-1,-1.6306102E-1,-1.5078111E-1,2.205792E-1,-2.1319708E-1,1.3523895E-1,5.3539276E-2,-2.7459458E-1,3.259256E-1,9.936498E-2,-3.0312574E-1,-6.0440797E-2,4.518902E-2,4.7383255E-1,-5.3154016E-1,2.4669829E-1,2.1691427E-2,-4.202807E-1,4.863317E-1,2.1536732E-1,1.831757E-1,-1.7867205E-1,-3.1489116E-1,9.8474836E-1,-1.4740354E-1,1.9674955E-1,-6.4437315E-2,4.1014668E-1,5.966642E-1,-2.5677517E-1,1.2882183E-1,-1.944964E-1,1.41021E-1,3.263633E-1,3.9516297E-1,-3.5090342E-1,-5.0455785E-1,6.6246785E-2,-2.0072013E-1,5.4424137E-1,2.598584E-1,-4.8132867E-1,1.0910698E-1,5.87101E-1,2.388118E-1,-3.9705518E-1,-2.2124502E-1,-4.1192123E-1,3.8201222E-1,2.0732189E-2,9.660892E-1,-1.6468239E-1,-4.8617724E-2,4.799469E-1,4.5504883E-1,-1.4794688E-1,5.0064707E-1,-4.155973E-1,1.3278684E-1,7.877608E-1,3.530183E-1,-1.8598688E-1,1.3622276E-1,-4.5475006E-2,-1.6796626E-1,1.9459191E-1,2.0189814E-1,-1.6190246E-1,-1.7717254E-1,1.5605021E-2,-1.3996008E-1,2.2552414E-1,-1.7885385E-1,1.0564509E-1,1.9616994E-1,7.013719E-2,-6.5131034E-3,1.0204564E-1,-1.9326864E-1,1.616782E-1,-7.814491E-2,5.1970396E-2,2.2026975E-1,-7.338337E-2,-8.953643E-2,1.5604018E-1,1.3237175E-2,-1.6712974E-1,-1.3079554E-1,-4.993656E-2,4.737773E-2,-1.3272732E-1,1.17419865E-2,3.510176E-1,-2.6939163E-2,-1.100464E-1,-6.11267E-2,2.3557906E-1,2.2181995E-1,-1.1274753E-2,2.0480466E-1,-1.6903752E-1,8.123628E-3,-9.994761E-2,1.6930495E-1,-1.5270324E-1,1.5038617E-2,-1.7089659E-1,-1.503835E-1,1.641258E-1,2.796177E-1,3.294891E-2,-2.5224056E-2,1.888489E-1],"categories":[],"categories_nodes":[],"categories_segments":[],"categories_sizes":[],"default_left":[0,0,0,0,0,0,0,0,0,0,0,0,0,0,0,0,0,0,0,0,0,0,0,0,0,0,0,0,0,0,0,0,0,0,0,0,0,0,0,0,0,0,0,0,0,0,0,0,0,0,0,0,0,0,0,0,0,0,0,0,0,0,0,0,0,0,0,0,0,0,0,0,0,0,0,0,0,0,0,0,0,0,0,0,0,0,0,0,0,0,0,0,0,0,0,0,0,0,0,0,0,0,0,0,0,0,0,0,0,0,0,0,0,0,0],"id":7,"left_children":[1,3,5,7,9,11,13,15,17,19,21,23,25,27,29,31,33,35,37,39,41,43,45,47,49,51,53,55,57,59,61,-1,-1,63,-1,65,67,69,71,73,75,77,79,81,83,85,87,89,91,-1,-1,93,95,97,99,101,103,105,107,109,111,113,-1,-1,-1,-1,-1,-1,-1,-1,-1,-1,-1,-1,-1,-1,-1,-1,-1,-1,-1,-1,-1,-1,-1,-1,-1,-1,-1,-1,-1,-1,-1,-1,-1,-1,-1,-1,-1,-1,-1,-1,-1,-1,-1,-1,-1,-1,-1,-1,-1,-1,-1,-1,-1],"loss_changes":[6.786475E1,1.8871336E1,2.7251797E1,4.1525726E0,1.0750843E1,2.139418E1,7.983097E0,7.2007E0,4.412459E0,7.8997765E0,9.216079E0,1.5172768E1,1.2975474E1,8.36749E0,5.0931664E0,2.0563235E0,4.0878725E0,4.950179E0,2.8394938E0,7.4048843E0,8.46295E0,9.010371E0,8.463047E0,8.747833E0,2.322752E0,8.492891E0,1.0216778E1,7.0599174E0,3.8170462E0,4.099373E0,2.1282654E0,0E0,0E0,4.0567656E0,0E0,4.657363E0,3.8110652E0,2.8288822E0,4.3638296E0,3.4861648E0,5.613537E0,5.7384396E0,3.089042E0,6.1489744E0,5.903082E0,5.0141573E0,4.306123E0,5.7769356E0,8.353973E0,0E0,0E0,1.2331548E0,6.436514E0,1.0445301E1,9.183946E0,5.6170206E0,4.534994E0,3.1157703E0,4.100098E-1,4.224998E0,3.163515E0,5.188447E-1,0E0,0E0,0E0,0E0,0E0,0E0,0E0,0E0,0E0,0E0,0E0,0E0,0E0,0E0,0E0,0E0,0E0,0E0,0E0,0E0,0E0,0E0,0E0,0E0,0E0,0E0,0E0,0E0,0E0,0E0,0E0,0E0,0E0,0E0,0E0,0E0,0E0,0E0,0E0,0E0,0E0,0E0,0E0,0E0,0E0,0E0,0E0,0E0,0E0,0E0,0E0,0E0,0E0],"parents":[2147483647,0,0,1,1,2,2,3,3,4,4,5,5,6,6,7,7,8,8,9,9,10,10,11,11,12,12,13,13,14,14,15,15,16,16,17,17,18,18,19,19,20,20,21,21,22,22,23,23,24,24,25,25,26,26,27,27,28,28,29,29,30,30,33,33,35,35,36,36,37,37,38,38,39,39,40,40,41,41,42,42,43,43,44,44,45,45,46,46,47,47,48,48,51,51,52,52,53,53,54,54,55,55,56,56,57,57,58,58,59,59,60,60,61,61],"right_children":[2,4,6,8,10,12,14,16,18,20,22,24,26,28,30,32,34,36,38,40,42,44,46,48,50,52,54,56,58,60,62,-1,-1,64,-1,66,68,70,72,74,76,78,80,82,84,86,88,90,92,-1,-1,94,96,98,100,102,104,106,108,110,112,114,-1,-1,-1,-1,-1,-1,-1,-1,-1,-1,-1,-1,-1,-1,-1,-1,-1,-1,-1,-1,-1,-1,-1,-1,-1,-1,-1,-1,-1,-1,-1,-1,-1,-1,-1,-1,-1,-1,-1,-1,-1,-1,-1,-1,-1,-1,-1,-1,-1,-1,-1,-1,-1],"split_conditions":[-4.504408E-1,-9.7126955E-1,9.194519E-1,6.417397E-3,1.5102484E-3,3.8440192E-1,7.632143E-1,-5.929442E-1,-8.682098E-1,-2.1183707E-1,-1.2023422E-1,1.217875E0,4.356282E-1,5.215969E-1,2.177127E-1,-6.7362684E-1,6.90393E-1,4.866449E-1,-9.0828335E-1,-8.458463E-1,1.6105937E0,1.3738604E0,-6.388348E-1,1.3388261E-1,-7.350729E-1,-1.0344958E0,5.1540796E-2,-7.077574E-1,1.3564426E0,-4.8971102E-1,-4.7963044E-1,1.2882183E-1,-1.944964E-1,-8.726635E-2,3.263633E-1,8.3334756E-1,6.7793393E-1,2.0770931E0,-3.4785546E-2,1.0212157E0,-1.06650695E-1,-6.308415E-1,2.2718894E0,-7.733978E-1,6.38724E-1,-8.209361E-1,-3.9612672E-1,-1.0171759E0,-1.179818E0,3.8201222E-1,2.0732189E-2,-1.8466452E-1,5.1687217E-1,9.528603E-1,-8.5011736E-2,1.5762025E0,2.0086421E-1,9.7565645E-1,9.924891E-1,5.2758986E-1,4.1302323E-2,1.3342464E0,-1.8598688E-1,1.3622276E-1,-4.5475006E-2,-1.6796626E-1,1.9459191E-1,2.0189814E-1,-1.6190246E-1,-1.7717254E-1,1.5605021E-2,-1.3996008E-1,2.2552414E-1,-1.7885385E-1,1.0564509E-1,1.9616994E-1,7.013719E-2,-6.5131034E-3,1.0204564E-1,-1.9326864E-1,1.616782E-1,-7.814491E-2,5.1970396E-2,2.2026975E-1,-7.338337E-2,-8.953643E-2,1.5604018E-1,1.3237175E-2,-1.6712974E-1,-1.3079554E-1,-4.993656E-2,4.737773E-2,-1.3272732E-1,1.17419865E-2,3.510176E-1,-2.6939163E-2,-1.100464E-1,-6.11267E-2,2.3557906E-1,2.2181995E-1,-1.1274753E-2,2.0480466E-1,-1.6903752E-1,8.123628E-3,-9.994761E-2,1.6930495E-1,-1.5270324E-1,1.5038617E-2,-1.7089659E-1,-1.503835E-1,1.641258E-1,2.796177E-1,3.294891E-2,-2.5224056E-2,1.888489E-1],"split_indices":[7,2,14,16,17,2,1,16,18,33,32,0,21,11,44,35,14,11,0,38,47,9,37,5,41,18,4,39,5,19,30,0,0,46,0,3,3,16,36,8,30,21,33,16,12,11,39,2,15,0,0,11,18,13,38,22,6,35,14,15,17,1,0,0,0,0,0,0,0,0,0,0,0,0,0,0,0,0,0,0,0,0,0,0,0,0,0,0,0,0,0,0,0,0,0,0,0,0,0,0,0,0,0,0,0,0,0,0,0,0,0,0,0,0,0],"split_type":[0,0,0,0,0,0,0,0,0,0,0,0,0,0,0,0,0,0,0,0,0,0,0,0,0,0,0,0,0,0,0,0,0,0,0,0,0,0,0,0,0,0,0,0,0,0,0,0,0,0,0,0,0,0,0,0,0,0,0,0,0,0,0,0,0,0,0,0,0,0,0,0,0,0,0,0,0,0,0,0,0,0,0,0,0,0,0,0,0,0,0,0,0,0,0,0,0,0,0,0,0,0,0,0,0,0,0,0,0,0,0,0,0,0,0],"sum_hessian":[2.8252744E3,1.0060207E3,1.8192538E3,1.6256761E2,8.4345306E2,1.5577277E3,2.6152615E2,6.1555164E1,1.0101244E2,4.503598E2,3.9309326E2,9.7988086E2,5.778468E2,2.0747978E2,5.4046375E1,1.4843206E1,4.671196E1,3.357702E1,6.7435425E1,1.82368E2,2.679918E2,3.0230765E2,9.078561E1,9.717588E2,8.122042E0,4.321519E2,1.4569492E2,1.601863E2,4.729348E1,4.642467E1,7.6217027E0,1.3183123E0,1.3524894E1,4.253583E1,4.1761265E0,1.6738531E1,1.6838486E1,5.744725E1,9.988177E0,1.3984693E1,1.6838332E2,2.5249449E2,1.5497311E1,2.5653613E2,4.577151E1,3.1147423E1,5.9638184E1,4.961715E2,4.7558728E2,5.8783836E0,2.243658E0,5.7644544E0,4.2638745E2,7.850505E1,6.718986E1,2.1568228E1,1.3861807E2,4.2976963E1,4.3165145E0,1.403946E1,3.2385212E1,2.855389E0,4.7663136E0,2.0283184E1,2.225265E1,3.2572017E0,1.348133E1,2.2218785E0,1.4616608E1,4.970446E1,7.742793E0,5.7998667E0,4.1883106E0,8.107321E0,5.8773713E0,1.2361375E2,4.476956E1,5.618794E1,1.9630655E2,1.36814165E1,1.8158938E0,3.747762E1,2.1905852E2,3.899111E1,6.7804003E0,1.0683418E1,2.0464005E1,1.6068325E1,4.356986E1,9.9447044E1,3.967245E2,2.3951857E1,4.5163544E2,1.2546276E0,4.5098267E0,3.1218018E2,1.1420726E2,6.682784E1,1.1677212E1,4.4468014E1,2.2721844E1,1.7897837E1,3.6703906E0,7.17078E1,6.691027E1,4.08412E1,2.1357617E0,1.2406306E0,3.0758839E0,5.4652348E0,8.574225E0,2.6392656E1,5.992555E0,1.3759563E0,1.4794328E0],"tree_param":{"num_deleted":"0","num_feature":"50","num_nodes":"115","size_leaf_vector":"1"}},{"base_weights":[8.908765E-2,-3.8216993E-1,2.598837E-1,2.511139E-1,-4.443369E-1,1.4019597E-1,3.78725E-1,-4.23426E-1,3.498554E-1,-5.885819E-1,-2.991449E-1,2.6645544E-1,1.3683712E-2,4.2600486E-1,1.7450856E-1,4.5847263E-2,-1.7464694E-1,9.050646E-2,6.302687E-1,4.1902366E-1,-5.974308E-1,-4.237433E-1,-1.5663257E-1,1.5974392E-1,5.9107447E-1,-3.7057057E-1,5.436265E-2,5.5087185E-1,3.5377005E-1,-5.044234E-3,3.9542925E-1,3.595485E-1,-4.0199393E-1,1.5187542E-1,8.0500174E-1,1.8549153E-1,1.9679961E-3,-6.0452974E-1,1.5144244E-1,-7.2497097E-3,-4.8266998E-1,1.0889722E-1,-3.2880452E-1,2.1819264E-1,-4.1356736E-1,6.695301E-1,4.463631E-2,1.3699912E-1,-5.254855E-1,-2.2984284E-1,1.1054961E-1,5.707378E-1,-4.5548317E-1,3.2726914E-1,7.715708E-1,-1.9057176E-1,3.2621711E-1,-9.42819E-2,5.612614E-1,-1.0400832E-1,1.6975294E-1,-1.6185142E-1,1.24583386E-1,1.9891088E-1,-1.7159897E-1,2.735147E-1,-1.3776878E-1,-6.512875E-3,-1.8280645E-1,-1.1998322E-1,2.0646806E-1,1.3257502E-1,-1.425282E-1,-1.527159E-1,-1.6520146E-2,1.2683788E-1,-6.7421004E-2,-1.20705016E-1,1.9425893E-1,1.0467228E-1,1.592192E-3,-1.9176058E-1,2.6535166E-2,2.128506E-1,-9.227975E-2,-1.4478788E-1,1.8333904E-1,2.5074196E-1,-9.788437E-2,-1.8177226E-1,1.4730444E-2,2.0228615E-1,-1.0986496E-1,1.5023306E-2,1.3994151E-1,1.2570855E-1,2.0462164E-1,9.83394E-2,-2.1758617E-1,-1.7246456E-3,1.08067535E-1,2.5909123E-1,-1.5190446E-1,1.5726882E-1,-8.5936494E-2,1.8004702E-1,-5.3488348E-2,1.3042213E-1,-2.0586832E-1,-2.0503627E-1,1.906672E-1],"categories":[],"categories_nodes":[],"categories_segments":[],"categories_sizes":[],"default_left":[0,0,0,0,0,0,0,0,0,0,0,0,0,0,0,0,0,0,0,0,0,0,0,0,0,0,0,0,0,0,0,0,0,0,0,0,0,0,0,0,0,0,0,0,0,0,0,0,0,0,0,0,0,0,0,0,0,0,0,0,0,0,0,0,0,0,0,0,0,0,0,0,0,0,0,0,0,0,0,0,0,0,0,0,0,0,0,0,0,0,0,0,0,0,0,0,0,0,0,0,0,0,0,0,0,0,0,0,0,0,0],"id":8,"left_children":[1,3,5,7,9,11,13,15,17,19,21,23,25,27,29,-1,-1,31,33,35,37,39,41,43,45,47,49,51,53,55,57,59,61,63,65,-1,-1,67,69,71,73,75,77,79,81,83,85,87,89,91,93,95,97,99,101,103,105,107,109,-1,-1,-1,-1,-1,-1,-1,-1,-1,-1,-1,-1,-1,-1,-1,-1,-1,-1,-1,-1,-1,-1,-1,-1,-1,-1,-1,-1,-1,-1,-1,-1,-1,-1,-1,-1,-1,-1,-1,-1,-1,-1,-1,-1,-1,-1,-1,-1,-1,-1,-1,-1],"loss_changes":[2.3885245E2,3.1192947E1,3.092363E1,4.891178E0,1.4887756E1,1.7353422E1,1.0470978E1,9.6208215E-1,4.5003247E0,3.4582062E0,6.33482E0,1.874319E1,8.5206785E0,7.798065E0,8.213722E0,0E0,0E0,4.612997E0,2.3806658E0,3.017046E-1,1.9897461E0,4.702484E0,7.795963E0,1.3850341E1,5.7219887E0,4.1755595E0,7.8921227E0,6.716858E0,5.9942703E0,7.1414075E0,7.5915422E0,3.450582E0,1.6160419E0,3.799358E0,3.3461647E0,0E0,0E0,9.819946E-1,1.5043226E0,5.4175835E0,1.8668709E0,7.16622E0,7.6724854E0,1.0386047E1,4.398981E0,4.7977753E0,5.6463227E0,4.4803624E0,1.8869724E0,1.0313319E1,8.844096E0,5.0711823E0,1.6765677E0,5.843754E0,4.309904E0,5.253927E0,5.8731337E0,7.9201574E0,6.860609E0,0E0,0E0,0E0,0E0,0E0,0E0,0E0,0E0,0E0,0E0,0E0,0E0,0E0,0E0,0E0,0E0,0E0,0E0,0E0,0E0,0E0,0E0,0E0,0E0,0E0,0E0,0E0,0E0,0E0,0E0,0E0,0E0,0E0,0E0,0E0,0E0,0E0,0E0,0E0,0E0,0E0,0E0,0E0,0E0,0E0,0E0,0E0,0E0,0E0,0E0,0E0,0E0],"parents":[2147483647,0,0,1,1,2,2,3,3,4,4,5,5,6,6,7,7,8,8,9,9,10,10,11,11,12,12,13,13,14,14,17,17,18,18,19,19,20,20,21,21,22,22,23,23,24,24,25,25,26,26,27,27,28,28,29,29,30,30,31,31,32,32,33,33,34,34,37,37,38,38,39,39,40,40,41,41,42,42,43,43,44,44,45,45,46,46,47,47,48,48,49,49,50,50,51,51,52,52,53,53,54,54,55,55,56,56,57,57,58,58],"right_children":[2,4,6,8,10,12,14,16,18,20,22,24,26,28,30,-1,-1,32,34,36,38,40,42,44,46,48,50,52,54,56,58,60,62,64,66,-1,-1,68,70,72,74,76,78,80,82,84,86,88,90,92,94,96,98,100,102,104,106,108,110,-1,-1,-1,-1,-1,-1,-1,-1,-1,-1,-1,-1,-1,-1,-1,-1,-1,-1,-1,-1,-1,-1,-1,-1,-1,-1,-1,-1,-1,-1,-1,-1,-1,-1,-1,-1,-1,-1,-1,-1,-1,-1,-1,-1,-1,-1,-1,-1,-1,-1,-1,-1],"split_conditions":[-5.070595E-1,-1.4487289E0,2.0489672E-1,-5.777906E-1,-7.8899103E-1,-1.9779915E-1,2.177127E-1,-1.1538852E0,-7.209699E-1,-2.874657E0,-1.4064409E-1,-7.209699E-1,-1.2387452E0,-5.2286565E-1,7.589947E-1,4.5847263E-2,-1.7464694E-1,-2.2173035E-1,-5.77937E-1,-1.4711438E0,1.6781417E0,-1.1395259E0,-7.649835E-2,1.1324177E0,9.794257E-1,-5.398764E-1,-8.506284E-1,2.590085E0,7.85767E-1,3.3444616E-1,-4.4110715E-1,-4.536429E-1,-8.591124E-1,-1.2862619E0,1.412754E0,1.8549153E-1,1.9679961E-3,-2.4629877E0,1.927598E-2,-1.4462836E-1,1.3100964E0,3.2913828E-1,1.5357174E0,-3.8018567E-4,6.459822E-2,1.1001104E0,-1.6981073E-1,-4.1273174E-1,9.8569447E-1,-1.248693E0,1.0859956E0,-3.8725525E-1,-7.180123E-1,-4.7647282E-1,1.7202398E0,3.059756E-1,1.1936886E-1,-4.0748712E-1,-1.0787854E0,-1.0400832E-1,1.6975294E-1,-1.6185142E-1,1.24583386E-1,1.9891088E-1,-1.7159897E-1,2.735147E-1,-1.3776878E-1,-6.512875E-3,-1.8280645E-1,-1.1998322E-1,2.0646806E-1,1.3257502E-1,-1.425282E-1,-1.527159E-1,-1.6520146E-2,1.2683788E-1,-6.7421004E-2,-1.20705016E-1,1.9425893E-1,1.0467228E-1,1.592192E-3,-1.9176058E-1,2.6535166E-2,2.128506E-1,-9.227975E-2,-1.4478788E-1,1.8333904E-1,2.5074196E-1,-9.788437E-2,-1.8177226E-1,1.4730444E-2,2.0228615E-1,-1.0986496E-1,1.5023306E-2,1.3994151E-1,1.2570855E-1,2.0462164E-1,9.83394E-2,-2.1758617E-1,-1.7246456E-3,1.08067535E-1,2.5909123E-1,-1.5190446E-1,1.5726882E-1,-8.5936494E-2,1.8004702E-1,-5.3488348E-2,1.3042213E-1,-2.0586832E-1,-2.0503627E-1,1.906672E-1],"split_indices":[7,4,7,22,7,48,44,40,48,17,15,48,8,14,20,0,0,16,21,26,12,9,11,11,14,11,31,33,39,17,14,25,11,42,8,0,0,14,3,41,17,13,19,1,40,23,30,15,18,4,33,1,19,23,24,7,19,4,45,0,0,0,0,0,0,0,0,0,0,0,0,0,0,0,0,0,0,0,0,0,0,0,0,0,0,0,0,0,0,0,0,0,0,0,0,0,0,0,0,0,0,0,0,0,0,0,0,0,0,0,0],"split_type":[0,0,0,0,0,0,0,0,0,0,0,0,0,0,0,0,0,0,0,0,0,0,0,0,0,0,0,0,0,0,0,0,0,0,0,0,0,0,0,0,0,0,0,0,0,0,0,0,0,0,0,0,0,0,0,0,0,0,0,0,0,0,0,0,0,0,0,0,0,0,0,0,0,0,0,0,0,0,0,0,0,0,0,0,0,0,0,0,0,0,0,0,0,0,0,0,0,0,0,0,0,0,0,0,0,0,0,0,0,0,0],"sum_hessian":[2.965285E3,7.8848175E2,2.176803E3,7.0211395E1,7.182704E2,1.0856251E3,1.0911779E3,8.545523E0,6.166587E1,3.5877832E2,3.5949207E2,5.428018E2,5.4282336E2,8.851608E2,2.0601701E2,1.8535743E0,6.691948E0,3.272339E1,2.8942482E1,2.719881E0,3.5605844E2,1.907479E2,1.6874416E2,4.096352E2,1.3316663E2,5.1188248E1,4.916351E2,3.219696E2,5.631912E2,1.1418808E2,9.182894E1,2.1337267E1,1.1386123E1,8.243149E0,2.0699333E1,1.4973732E0,1.222508E0,3.5290582E2,3.1526067E0,2.3781734E1,1.6696617E2,6.6520836E1,1.0222332E2,3.7229895E2,3.733622E1,1.1625053E2,1.6916092E1,1.1996869E1,3.919138E1,8.06417E1,4.109934E2,3.1616125E2,5.8083253E0,5.3127594E2,3.1915283E1,7.346673E1,4.072135E1,2.3339024E1,6.8489914E1,4.669795E0,1.666747E1,1.003718E1,1.3489428E0,4.8806963E0,3.362452E0,1.9345238E1,1.3540962E0,2.942792E0,3.4996304E2,1.6809038E0,1.471703E0,1.2161337E1,1.1620398E1,1.5708365E2,9.882513E0,3.413658E1,3.2384254E1,9.560915E1,6.614169E0,2.3027037E2,1.420286E2,2.5570267E1,1.1765954E1,1.1194504E2,4.305495E0,8.838101E0,8.0779915E0,4.462131E0,7.534738E0,3.4331646E1,4.859731E0,1.0052335E1,7.058936E1,3.5228085E2,5.8712566E1,1.3583282E2,1.8032845E2,1.4330423E0,4.375283E0,4.7915752E1,4.8336023E2,3.0072891E1,1.8423918E0,8.160858E0,6.530587E1,2.6268503E1,1.44528475E1,1.24648E1,1.0874225E1,3.3959987E0,6.509392E1],"tree_param":{"num_deleted":"0","num_feature":"50","num_nodes":"111","size_leaf_vector":"1"}},{"base_weights":[-3.3448014E-2,1.415599E-1,-1.21515304E-1,-1.7623976E-2,2.4672338E-1,-1.66008E-1,1.6508244E-1,-2.3639756E-1,7.911169E-2,-2.4893007E-1,2.750188E-1,5.0906908E-2,-2.1513692E-1,-6.954992E-2,3.408778E-1,6.747161E-1,-2.8659093E-1,2.4712394E-1,-8.656827E-2,-3.4939826E-1,4.4468918E-1,3.3161563E-1,9.58161E-2,-1.18769735E-1,2.4373622E-1,-4.7893417E-1,-1.8132345E-1,-1.3093494E-1,8.056134E-1,-4.6746737E-1,4.2634782E-1,9.596114E-1,-1.040887E-1,-3.4218073E-1,3.4002614E-1,9.229675E-2,6.188506E-1,-1.5221769E-1,4.3415707E-1,-8.233897E-2,-2.036085E-1,2.1354063E-1,-2.5970848E-2,3.8548267E-1,1.1193504E-1,1.4372149E-2,5.908963E-1,-2.4689202E-1,3.351009E-1,9.7953156E-2,5.9958637E-1,-1.7390096E-1,-5.1192355E-1,-2.67857E-1,-9.595589E-2,-1.9272722E-1,4.52136E-1,-1.7187301E-2,3.0654645E-1,9.3316525E-2,-5.9756815E-1,8.6690915E-1,2.9163504E-1,3.443348E-1,3.9280187E-2,-1.2510617E-1,3.2850664E-2,2.3702578E-1,-8.8818446E-2,-5.1642947E-2,1.0468929E-1,2.6379257E-1,1.9900745E-2,-9.259351E-2,4.5840133E-2,2.6882043E-1,-2.5578298E-2,1.2966245E-1,-1.3482095E-1,8.702804E-2,1.6620907E-1,1.0021929E-1,-5.128809E-2,1.1721493E-1,-3.2173462E-2,2.439294E-1,-8.4045924E-2,-3.63101E-2,-1.55727E-1,1.9316968E-1,-9.223571E-2,-3.1398432E-3,1.7398807E-1,3.1487182E-1,8.02769E-2,-1.643126E-1,3.6592968E-2,-5.0601486E-2,-1.6523264E-1,-8.2391866E-2,2.4804492E-1,-2.2032807E-4,-7.478269E-2,1.2491206E-2,-9.8300695E-2,2.6942268E-1,2.9229848E-3,-3.4016066E-3,-1.997767E-1,-6.388961E-2,2.880892E-1,5.961964E-2,2.7033654E-1],"categories":[],"categories_nodes":[],"categories_segments":[],"categories_sizes":[],"default_left":[0,0,0,0,0,0,0,0,0,0,0,0,0,0,0,0,0,0,0,0,0,0,0,0,0,0,0,0,0,0,0,0,0,0,0,0,0,0,0,0,0,0,0,0,0,0,0,0,0,0,0,0,0,0,0,0,0,0,0,0,0,0,0,0,0,0,0,0,0,0,0,0,0,0,0,0,0,0,0,0,0,0,0,0,0,0,0,0,0,0,0,0,0,0,0,0,0,0,0,0,0,0,0,0,0,0,0,0,0,0,0,0,0],"id":9,"left_children":[1,3,5,7,9,11,13,15,17,19,21,23,25,27,29,31,33,35,37,39,41,43,45,47,49,51,53,55,57,59,61,63,-1,65,67,69,71,73,75,77,-1,-1,-1,79,81,83,85,87,89,91,93,95,97,99,101,103,105,-1,-1,-1,107,109,111,-1,-1,-1,-1,-1,-1,-1,-1,-1,-1,-1,-1,-1,-1,-1,-1,-1,-1,-1,-1,-1,-1,-1,-1,-1,-1,-1,-1,-1,-1,-1,-1,-1,-1,-1,-1,-1,-1,-1,-1,-1,-1,-1,-1,-1,-1,-1,-1,-1,-1],"loss_changes":[4.233427E1,1.5398657E1,2.3324959E1,7.780712E0,7.835705E0,1.6870224E1,1.0171516E1,5.3474755E0,7.121487E0,2.2762008E0,5.2867584E0,9.613939E0,1.1420429E1,5.811179E0,9.92816E0,2.132571E0,3.8616505E0,7.2464776E0,4.481636E0,2.3311431E0,6.704663E-1,4.6680183E0,5.1232476E0,9.183564E0,7.0716734E0,1.3797874E0,8.433365E0,3.6939192E0,1.3833704E0,1.5980456E0,7.3363667E0,6.450019E-1,0E0,3.400939E0,2.8856654E0,6.220417E0,5.286167E0,5.5553837E0,3.6082559E0,3.2399974E0,0E0,0E0,0E0,4.973072E0,5.072132E0,5.0910926E0,3.7028255E0,4.1381435E0,7.1183424E0,5.1639633E0,5.6574926E0,1.8098627E0,1.6568336E0,4.4451065E0,8.43814E0,2.898386E0,1.9426169E0,0E0,0E0,0E0,4.8485756E-1,3.173191E0,5.451293E0,0E0,0E0,0E0,0E0,0E0,0E0,0E0,0E0,0E0,0E0,0E0,0E0,0E0,0E0,0E0,0E0,0E0,0E0,0E0,0E0,0E0,0E0,0E0,0E0,0E0,0E0,0E0,0E0,0E0,0E0,0E0,0E0,0E0,0E0,0E0,0E0,0E0,0E0,0E0,0E0,0E0,0E0,0E0,0E0,0E0,0E0,0E0,0E0,0E0,0E0],"parents":[2147483647,0,0,1,1,2,2,3,3,4,4,5,5,6,6,7,7,8,8,9,9,10,10,11,11,12,12,13,13,14,14,15,15,16,16,17,17,18,18,19,19,20,20,21,21,22,22,23,23,24,24,25,25,26,26,27,27,28,28,29,29,30,30,31,31,33,33,34,34,35,35,36,36,37,37,38,38,39,39,43,43,44,44,45,45,46,46,47,47,48,48,49,49,50,50,51,51,52,52,53,53,54,54,55,55,56,56,60,60,61,61,62,62],"right_children":[2,4,6,8,10,12,14,16,18,20,22,24,26,28,30,32,34,36,38,40,42,44,46,48,50,52,54,56,58,60,62,64,-1,66,68,70,72,74,76,78,-1,-1,-1,80,82,84,86,88,90,92,94,96,98,100,102,104,106,-1,-1,-1,108,110,112,-1,-1,-1,-1,-1,-1,-1,-1,-1,-1,-1,-1,-1,-1,-1,-1,-1,-1,-1,-1,-1,-1,-1,-1,-1,-1,-1,-1,-1,-1,-1,-1,-1,-1,-1,-1,-1,-1,-1,-1,-1,-1,-1,-1,-1,-1,-1,-1,-1,-1],"split_conditions":[-4.7647282E-1,-3.0983698E-1,1.1237279E0,-2.8992403E-1,-1.5168066E0,-9.568349E-1,-1.7970891E-1,-1.4965917E0,-4.4359165E-1,-6.978492E-2,5.4483986E-1,1.08042225E-1,-1.7815748E0,1.1504629E0,-5.694777E-1,6.596225E-1,6.802804E-2,5.5816966E-1,9.6869016E-1,5.2074677E-1,3.680782E-1,9.5031214E-1,1.1729572E0,-9.5834553E-1,6.5434587E-1,-1.1202897E0,-1.8585992E-1,7.953337E-1,-4.1523725E-2,-8.0707085E-1,-3.6548987E-1,3.279522E-1,-1.040887E-1,5.550275E-1,-5.0253814E-1,-5.128972E-1,8.2844585E-2,2.4966638E-1,6.377098E-2,-7.209699E-1,-2.036085E-1,2.1354063E-1,-2.5970848E-2,3.943426E-1,-7.628806E-2,-3.6828795E-1,2.1567347E0,-5.589046E-1,1.2827285E-1,5.723101E-1,8.7713873E-1,-8.309612E-1,-6.812975E-1,5.6132774E0,4.3077683E-1,-8.414793E-3,5.658198E-1,-1.7187301E-2,3.0654645E-1,9.3316525E-2,-7.209699E-1,-7.168926E-1,8.2701695E-1,3.443348E-1,3.9280187E-2,-1.2510617E-1,3.2850664E-2,2.3702578E-1,-8.8818446E-2,-5.1642947E-2,1.0468929E-1,2.6379257E-1,1.9900745E-2,-9.259351E-2,4.5840133E-2,2.6882043E-1,-2.5578298E-2,1.2966245E-1,-1.3482095E-1,8.702804E-2,1.6620907E-1,1.0021929E-1,-5.128809E-2,1.1721493E-1,-3.2173462E-2,2.439294E-1,-8.4045924E-2,-3.63101E-2,-1.55727E-1,1.9316968E-1,-9.223571E-2,-3.1398432E-3,1.7398807E-1,3.1487182E-1,8.02769E-2,-1.643126E-1,3.6592968E-2,-5.0601486E-2,-1.6523264E-1,-8.2391866E-2,2.4804492E-1,-2.2032807E-4,-7.478269E-2,1.2491206E-2,-9.8300695E-2,2.6942268E-1,2.9229848E-3,-3.4016066E-3,-1.997767E-1,-6.388961E-2,2.880892E-1,5.961964E-2,2.7033654E-1],"split_indices":[23,47,47,12,13,8,31,46,20,27,10,49,13,13,12,6,49,13,0,39,4,19,33,8,13,37,27,17,15,30,39,15,0,26,32,38,48,20,7,48,0,0,0,11,30,16,29,49,20,35,13,29,15,23,15,33,4,0,0,0,48,32,6,0,0,0,0,0,0,0,0,0,0,0,0,0,0,0,0,0,0,0,0,0,0,0,0,0,0,0,0,0,0,0,0,0,0,0,0,0,0,0,0,0,0,0,0,0,0,0,0,0,0],"split_type":[0,0,0,0,0,0,0,0,0,0,0,0,0,0,0,0,0,0,0,0,0,0,0,0,0,0,0,0,0,0,0,0,0,0,0,0,0,0,0,0,0,0,0,0,0,0,0,0,0,0,0,0,0,0,0,0,0,0,0,0,0,0,0,0,0,0,0,0,0,0,0,0,0,0,0,0,0,0,0,0,0,0,0,0,0,0,0,0,0,0,0,0,0,0,0,0,0,0,0,0,0,0,0,0,0,0,0,0,0,0,0,0,0],"sum_hessian":[2.744638E3,9.185941E2,1.8260438E3,3.6576907E2,5.52825E2,1.58102E3,2.4502371E2,1.1170276E2,2.5406633E2,2.9433754E1,5.2339124E2,2.9195206E2,1.289068E3,1.0520799E2,1.3981572E2,5.1827517E0,1.06520004E2,1.25901215E2,1.2816512E2,2.6143267E1,3.2904878E0,3.9712003E2,1.26271225E2,1.5550359E2,1.3644849E2,1.4496367E2,1.1441044E3,9.91069E1,6.1010904E0,1.2942333E1,1.2687338E2,4.1001687E0,1.082583E0,9.825713E1,8.262872E0,8.9762634E1,3.613858E1,1.1444444E2,1.3720673E1,1.5126077E1,1.1017189E1,1.9634427E0,1.3270452E0,3.18313E2,7.880705E1,1.0931691E2,1.6954319E1,1.2162603E2,3.3877552E1,9.7698906E1,3.8749577E1,1.4759809E1,1.3020386E2,5.671104E2,5.769939E2,9.021556E1,8.891339E0,1.3696651E0,4.7314253E0,1.65399E0,1.1288342E1,2.8437353E1,9.8436035E1,3.0276012E0,1.0725675E0,8.435672E1,1.3900409E1,4.697256E0,3.5656157E0,4.437411E1,4.5388523E1,2.4158628E1,1.1979954E1,7.564057E1,3.8803867E1,6.878544E0,6.8421288E0,6.2239413E0,8.902136E0,2.050094E2,1.133036E2,4.4043358E1,3.476369E1,2.615805E1,8.315885E1,1.3561388E1,3.3929315E0,8.415791E1,3.7468117E1,2.2879862E1,1.0997691E1,8.055721E1,1.7141691E1,1.5533784E1,2.3215792E1,6.1450734E0,8.614736E0,1.3782101E1,1.1642176E2,5.643628E2,2.7476518E0,3.56555E2,2.2043892E2,3.3216732E1,5.6998833E1,3.9149559E0,4.9763837E0,1.3005179E0,9.987825E0,2.1616077E0,2.6275745E1,8.656687E1,1.1869159E1],"tree_param":{"num_deleted":"0","num_feature":"50","num_nodes":"113","size_leaf_vector":"1"}},{"base_weights":[-3.608271E-2,1.09830625E-1,-1.4315066E-1,2.0247817E-1,-1.981549E-2,-2.9390851E-2,-2.5667974E-1,-1.9393998E-1,2.4072734E-1,6.096456E-2,-2.4328586E-1,-1.7783888E-1,6.671302E-2,3.5120094E-1,-2.8678155E-1,-3.1973097E-1,3.4938073E-1,-4.7081742E-1,2.5971407E-1,4.009045E-1,8.989471E-3,-3.4358963E-1,1.2324577E-1,-2.3300427E-1,6.751897E-1,1.4874856E-1,-2.1453643E-1,7.5281E-1,-3.2073396E-1,-3.337326E-1,-3.0620513E-2,5.1084114E-3,-5.7748425E-1,-3.850829E-1,2.5871515E-1,-2.0212533E-1,5.566065E-2,5.4379284E-1,2.1407813E-1,-9.983534E-2,6.578639E-1,1.7263496E-1,-8.969695E-2,7.182491E-2,-4.2706323E-1,8.983003E-1,-1.134965E-1,-2.507483E-1,9.606161E-1,-1.1294318E-1,1.1282263E0,4.2019302E-1,7.668382E-2,2.042442E-2,-4.0890688E-1,1.0928407E0,-4.511061E-1,-5.360125E-1,1.8696542E-1,-3.8913167E-1,-1.3032037E-1,5.4881656E-1,-2.1296525E-1,1.0452641E-1,-1.1220187E-1,-1.9408472E-1,1.4741895E-1,-1.5724587E-1,1.9562932E-2,2.0086206E-1,-1.4566563E-1,-8.578484E-2,1.9389373E-1,1.5660033E-2,9.3117885E-2,-1.16352834E-1,1.7926016E-1,-1.6403477E-1,2.2086495E-1,1.8780102E-1,1.7196387E-2,-1.3605052E-1,-6.0041985E-3,1.2230692E-1,-1.8251282E-1,-1.3668129E-1,1.6696131E-1,8.5142806E-2,3.0418867E-1,-8.903436E-2,2.3383985E-1,1.9499962E-1,-8.230523E-2,3.808703E-1,7.414504E-2,-1.7382704E-1,2.4072881E-1,3.5784772E-1,1.0300289E-1,-1.6002549E-2,1.9411744E-1,1.6144592E-1,1.0710959E-2,-1.4668536E-1,1.0047474E-1,1.817454E-1,-1.6133226E-1,-4.536403E-2,3.8055322E-1,-1.7125605E-1,6.684655E-3,4.1483757E-3,-1.8259695E-1,-1.19150005E-1,1.4317189E-1,-1.2326242E-1,2.8860219E-2,7.129041E-2,-9.149676E-2,-1.0964394E-1,2.152294E-1,1.05029665E-1,-9.386419E-2],"categories":[],"categories_nodes":[],"categories_segments":[],"categories_sizes":[],"default_left":[0,0,0,0,0,0,0,0,0,0,0,0,0,0,0,0,0,0,0,0,0,0,0,0,0,0,0,0,0,0,0,0,0,0,0,0,0,0,0,0,0,0,0,0,0,0,0,0,0,0,0,0,0,0,0,0,0,0,0,0,0,0,0,0,0,0,0,0,0,0,0,0,0,0,0,0,0,0,0,0,0,0,0,0,0,0,0,0,0,0,0,0,0,0,0,0,0,0,0,0,0,0,0,0,0,0,0,0,0,0,0,0,0,0,0,0,0,0,0,0,0,0,0],"id":10,"left_children":[1,3,5,7,9,11,13,15,17,19,21,23,25,27,29,31,33,35,37,39,41,43,45,47,49,51,53,55,57,59,61,63,65,67,-1,-1,69,71,73,75,77,79,81,83,85,87,89,91,93,95,97,99,101,103,105,107,109,111,113,115,117,119,121,-1,-1,-1,-1,-1,-1,-1,-1,-1,-1,-1,-1,-1,-1,-1,-1,-1,-1,-1,-1,-1,-1,-1,-1,-1,-1,-1,-1,-1,-1,-1,-1,-1,-1,-1,-1,-1,-1,-1,-1,-1,-1,-1,-1,-1,-1,-1,-1,-1,-1,-1,-1,-1,-1,-1,-1,-1,-1,-1,-1],"loss_changes":[4.2716724E1,1.3905477E1,2.0358456E1,1.0282736E1,8.738866E0,1.1265071E1,1.4540493E1,4.209573E0,8.44606E0,6.2821403E0,4.7670264E0,1.4756995E1,1.1096041E1,1.0410393E1,9.039505E0,4.1231227E0,4.7592382E0,1.7863424E0,7.671894E0,6.133434E0,5.0154653E0,3.5386562E0,5.303469E0,6.428483E0,6.94777E0,7.2415857E0,4.9724784E0,1.0270612E1,1.7176231E0,7.1139603E0,1.2547751E1,3.0929508E0,2.355791E0,3.8006014E-1,0E0,0E0,2.1450164E0,7.2027855E0,8.079613E0,3.618207E0,3.3565607E0,6.0709815E0,4.903756E0,4.3105927E0,2.6223965E0,1.9162321E-1,3.930662E0,6.3152466E0,6.751437E-1,3.8302858E0,2.100668E-1,8.3908825E0,5.560682E0,8.199515E0,8.110789E0,4.3259106E0,3.5103083E-1,4.338236E-1,1.0624024E0,5.3073883E0,8.915863E0,4.6468782E0,5.184703E0,0E0,0E0,0E0,0E0,0E0,0E0,0E0,0E0,0E0,0E0,0E0,0E0,0E0,0E0,0E0,0E0,0E0,0E0,0E0,0E0,0E0,0E0,0E0,0E0,0E0,0E0,0E0,0E0,0E0,0E0,0E0,0E0,0E0,0E0,0E0,0E0,0E0,0E0,0E0,0E0,0E0,0E0,0E0,0E0,0E0,0E0,0E0,0E0,0E0,0E0,0E0,0E0,0E0,0E0,0E0,0E0,0E0,0E0,0E0,0E0],"parents":[2147483647,0,0,1,1,2,2,3,3,4,4,5,5,6,6,7,7,8,8,9,9,10,10,11,11,12,12,13,13,14,14,15,15,16,16,17,17,18,18,19,19,20,20,21,21,22,22,23,23,24,24,25,25,26,26,27,27,28,28,29,29,30,30,31,31,32,32,33,33,36,36,37,37,38,38,39,39,40,40,41,41,42,42,43,43,44,44,45,45,46,46,47,47,48,48,49,49,50,50,51,51,52,52,53,53,54,54,55,55,56,56,57,57,58,58,59,59,60,60,61,61,62,62],"right_children":[2,4,6,8,10,12,14,16,18,20,22,24,26,28,30,32,34,36,38,40,42,44,46,48,50,52,54,56,58,60,62,64,66,68,-1,-1,70,72,74,76,78,80,82,84,86,88,90,92,94,96,98,100,102,104,106,108,110,112,114,116,118,120,122,-1,-1,-1,-1,-1,-1,-1,-1,-1,-1,-1,-1,-1,-1,-1,-1,-1,-1,-1,-1,-1,-1,-1,-1,-1,-1,-1,-1,-1,-1,-1,-1,-1,-1,-1,-1,-1,-1,-1,-1,-1,-1,-1,-1,-1,-1,-1,-1,-1,-1,-1,-1,-1,-1,-1,-1,-1,-1,-1,-1],"split_conditions":[-3.5515842E-1,3.144068E-2,-2.3520492E-2,-1.2471126E0,-9.904133E-2,-9.908581E-2,-1.179818E0,8.2701695E-1,-1.336839E0,-8.9733934E-1,9.628848E-1,1.8026233E0,8.7005E-1,2.1737431E-1,9.569484E-1,2.2922142E-1,1.2845093E-1,1.7719479E0,-7.595106E-1,-1.22860454E-1,-1.8937244E-1,-7.2463286E-1,-5.908292E-1,1.4343425E0,-4.9002603E-1,-7.913836E-1,-3.6661452E-1,-3.885742E-2,-7.7199167E-1,1.9844921E-1,-8.7452763E-1,-5.3929275E-1,2.4754815E0,8.713159E-1,2.5871515E-1,-2.0212533E-1,-9.544963E-1,-1.2217389E0,-1.2764826E-1,7.848119E-2,5.4031614E-2,-3.3706817E-1,-5.908292E-1,-4.2178258E-1,2.2744591E0,-9.0014726E-1,7.834747E-1,-1.2265944E0,-3.8646874E-1,2.2704488E-1,2.4077926E0,2.962941E-1,-4.251948E-1,-7.2463286E-1,-1.7815748E0,-1.0420105E0,3.3551675E-1,-1.1083453E0,-1.8348981E-1,1.3805635E0,-3.090655E-1,-1.1822045E0,-1.0472343E0,1.0452641E-1,-1.1220187E-1,-1.9408472E-1,1.4741895E-1,-1.5724587E-1,1.9562932E-2,2.0086206E-1,-1.4566563E-1,-8.578484E-2,1.9389373E-1,1.5660033E-2,9.3117885E-2,-1.16352834E-1,1.7926016E-1,-1.6403477E-1,2.2086495E-1,1.8780102E-1,1.7196387E-2,-1.3605052E-1,-6.0041985E-3,1.2230692E-1,-1.8251282E-1,-1.3668129E-1,1.6696131E-1,8.5142806E-2,3.0418867E-1,-8.903436E-2,2.3383985E-1,1.9499962E-1,-8.230523E-2,3.808703E-1,7.414504E-2,-1.7382704E-1,2.4072881E-1,3.5784772E-1,1.0300289E-1,-1.6002549E-2,1.9411744E-1,1.6144592E-1,1.0710959E-2,-1.4668536E-1,1.0047474E-1,1.817454E-1,-1.6133226E-1,-4.536403E-2,3.8055322E-1,-1.7125605E-1,6.684655E-3,4.1483757E-3,-1.8259695E-1,-1.19150005E-1,1.4317189E-1,-1.2326242E-1,2.8860219E-2,7.129041E-2,-9.149676E-2,-1.0964394E-1,2.152294E-1,1.05029665E-1,-9.386419E-2],"split_indices":[7,17,5,0,32,8,15,6,24,15,12,21,20,22,1,16,14,9,36,4,28,39,13,30,5,31,45,46,31,44,44,20,24,45,0,0,30,44,16,3,17,13,13,23,21,7,14,33,23,22,21,1,9,39,13,16,19,43,7,11,28,29,12,0,0,0,0,0,0,0,0,0,0,0,0,0,0,0,0,0,0,0,0,0,0,0,0,0,0,0,0,0,0,0,0,0,0,0,0,0,0,0,0,0,0,0,0,0,0,0,0,0,0,0,0,0,0,0,0,0,0,0,0],"split_type":[0,0,0,0,0,0,0,0,0,0,0,0,0,0,0,0,0,0,0,0,0,0,0,0,0,0,0,0,0,0,0,0,0,0,0,0,0,0,0,0,0,0,0,0,0,0,0,0,0,0,0,0,0,0,0,0,0,0,0,0,0,0,0,0,0,0,0,0,0,0,0,0,0,0,0,0,0,0,0,0,0,0,0,0,0,0,0,0,0,0,0,0,0,0,0,0,0,0,0,0,0,0,0,0,0,0,0,0,0,0,0,0,0,0,0,0,0,0,0,0,0,0,0],"sum_hessian":[2.732277E3,1.1563564E3,1.5759207E3,6.740826E2,4.8227383E2,7.8778925E2,7.881314E2,5.8958664E1,6.151239E2,3.5476178E2,1.2751206E2,3.0925076E2,4.7853848E2,3.6682964E1,7.514484E2,4.820877E1,1.0749891E1,1.5368769E1,5.997551E2,4.615757E1,3.0860422E2,1.001641E2,2.7347961E1,2.91149E2,1.8101768E1,3.708416E2,1.0769689E2,2.288466E1,1.37983055E1,6.3479565E2,1.16652756E2,2.17624E1,2.6446373E1,4.5232854E0,6.226606E0,1.0891032E1,4.4777365E0,8.150149E1,5.1825366E2,1.5860841E1,3.029673E1,1.15811676E2,1.9279254E2,1.6782734E1,8.338136E1,5.7450867E0,2.1602875E1,2.876626E2,3.4863865E0,6.881298E0,1.122047E1,7.6785355E1,2.9405624E2,4.9162594E1,5.8534298E1,1.7916607E1,4.968054E0,9.650472E0,4.1478333E0,4.9819882E2,1.3659685E2,2.744164E1,8.921111E1,1.1462932E1,1.0299469E1,2.52032E1,1.2431734E0,3.3306184E0,1.1926671E0,1.9869239E0,2.4908123E0,8.765846E0,7.273564E1,1.9390169E2,3.24352E2,1.1539129E1,4.3217115E0,1.4851108E0,2.8811619E1,2.2585516E1,9.322616E1,3.0105896E1,1.6268665E2,1.1503332E1,5.279401E0,8.155179E1,1.8295786E0,1.4571723E0,4.2879143E0,1.8477854E1,3.1250207E0,6.66755E0,2.8099506E2,1.8889706E0,1.5974159E0,4.8014526E0,2.0798457E0,9.886979E0,1.3334911E0,2.5119137E1,5.166622E1,2.2994205E1,2.7106204E2,1.8554878E1,3.0607716E1,6.1789575E0,5.2355343E1,2.2341433E0,1.5682463E1,3.8007383E0,1.1673156E0,1.2206966E0,8.429775E0,1.2546986E0,2.8931346E0,4.7698322E2,2.1215591E1,4.3854027E1,9.274281E1,4.09101E0,2.3350632E1,1.3067338E1,7.6143776E1],"tree_param":{"num_deleted":"0","num_feature":"50","num_nodes":"123","size_leaf_vector":"1"}},{"base_weights":[6.597385E-2,-3.395422E-1,1.9869624E-1,2.0922951E-1,-3.9756042E-1,1.4600925E-1,3.9018798E-1,-3.8390926E-1,2.9143563E-1,-5.518584E-1,-2.5200775E-1,1.729267E-1,-2.5643754E-1,-1.2726353E-1,4.1644698E-1,4.4669677E-2,-1.6400497E-1,1.0556992E-1,5.8504117E-1,3.6052033E-1,-5.609581E-1,-1.6954884E-1,-4.792107E-1,2.7417144E-1,6.336435E-2,2.3944211E-1,-3.6165586E-1,-4.1613084E-1,3.172975E-1,3.7232092E-1,6.557872E-1,-2.312316E-2,7.619142E-1,1.2858671E-1,7.693218E-1,-6.090839E-3,1.6578989E-1,-5.8541816E-1,-3.0795115E-1,-3.1566954E-1,-9.279062E-3,-5.171656E-1,3.0125684E-1,1.9349284E-1,5.3234404E-1,-1.2835354E-1,1.427717E-1,-3.5617313E-1,6.58839E-1,5.1399714E-1,-4.3169278E-1,6.2831136E-4,-2.2811039E-1,2.274898E-1,-1.9188306E-1,4.4341856E-1,1.8597315E-1,-5.6697243E-1,7.3023E-1,6.7457035E-2,-1.3861388E-1,2.5986984E-1,7.338808E-2,-1.5303145E-1,1.6258164E-1,8.614731E-2,2.438486E-1,-5.6390926E-2,-1.7813791E-1,-1.3597223E-1,9.6785426E-2,5.0339956E-2,-1.1943587E-1,-3.2941777E-2,1.6476014E-1,1.273802E-1,-1.6107768E-1,-5.693736E-2,2.818827E-1,7.245591E-2,-3.410685E-2,1.7313807E-1,3.2543864E-2,-5.153417E-3,-1.4092551E-1,1.7048867E-1,2.1060145E-2,-1.8958353E-1,1.7358828E-1,2.4781136E-1,-1.20876536E-1,-1.2369212E-1,2.349255E-1,1.9987074E-1,-1.4345714E-1,-1.7372206E-1,1.1071467E-1,1.7406407E-1,-1.9236717E-1,1.6555144E-1,7.537623E-2,1.2026249E-1,-1.3999026E-2,-1.9944601E-1,-6.599358E-2,2.3735572E-1,-8.4504224E-2],"categories":[],"categories_nodes":[],"categories_segments":[],"categories_sizes":[],"default_left":[0,0,0,0,0,0,0,0,0,0,0,0,0,0,0,0,0,0,0,0,0,0,0,0,0,0,0,0,0,0,0,0,0,0,0,0,0,0,0,0,0,0,0,0,0,0,0,0,0,0,0,0,0,0,0,0,0,0,0,0,0,0,0,0,0,0,0,0,0,0,0,0,0,0,0,0,0,0,0,0,0,0,0,0,0,0,0,0,0,0,0,0,0,0,0,0,0,0,0,0,0,0,0,0,0,0,0],"id":11,"left_children":[1,3,5,7,9,11,13,15,17,19,21,23,25,27,29,-1,-1,31,33,35,37,39,41,43,45,47,49,51,53,55,57,59,61,63,65,-1,-1,67,69,71,73,75,77,79,81,83,85,87,89,91,93,95,-1,-1,97,99,101,103,105,-1,-1,-1,-1,-1,-1,-1,-1,-1,-1,-1,-1,-1,-1,-1,-1,-1,-1,-1,-1,-1,-1,-1,-1,-1,-1,-1,-1,-1,-1,-1,-1,-1,-1,-1,-1,-1,-1,-1,-1,-1,-1,-1,-1,-1,-1,-1,-1],"loss_changes":[1.5544371E2,2.2760056E1,2.1893562E1,3.4644084E0,1.4335083E1,1.8544811E1,6.4236145E0,8.4467435E-1,3.2646399E0,2.7926025E0,6.1664906E0,1.7745724E1,5.6938024E0,3.1382604E0,4.470764E0,0E0,0E0,3.2735078E0,1.8701363E0,2.8117073E-1,1.7339249E0,5.7633967E0,2.7701168E0,1.7225964E1,1.1746476E1,5.0840683E0,5.68344E0,2.0982158E0,2.3432617E0,4.94228E0,6.6203346E0,3.717286E0,1.3067508E-1,2.3708708E0,1.1220837E-1,0E0,0E0,8.235092E-1,2.8376381E0,5.199786E0,6.7108235E0,1.8010063E0,1.6593584E0,9.402229E0,3.686592E0,8.575729E0,1.6797096E1,2.6008506E0,2.4174538E0,2.0805817E0,4.555979E0,1.8397466E0,0E0,0E0,2.224892E0,5.565754E0,5.3410974E0,5.7151318E-3,4.2140656E0,0E0,0E0,0E0,0E0,0E0,0E0,0E0,0E0,0E0,0E0,0E0,0E0,0E0,0E0,0E0,0E0,0E0,0E0,0E0,0E0,0E0,0E0,0E0,0E0,0E0,0E0,0E0,0E0,0E0,0E0,0E0,0E0,0E0,0E0,0E0,0E0,0E0,0E0,0E0,0E0,0E0,0E0,0E0,0E0,0E0,0E0,0E0,0E0],"parents":[2147483647,0,0,1,1,2,2,3,3,4,4,5,5,6,6,7,7,8,8,9,9,10,10,11,11,12,12,13,13,14,14,17,17,18,18,19,19,20,20,21,21,22,22,23,23,24,24,25,25,26,26,27,27,28,28,29,29,30,30,31,31,32,32,33,33,34,34,37,37,38,38,39,39,40,40,41,41,42,42,43,43,44,44,45,45,46,46,47,47,48,48,49,49,50,50,51,51,54,54,55,55,56,56,57,57,58,58],"right_children":[2,4,6,8,10,12,14,16,18,20,22,24,26,28,30,-1,-1,32,34,36,38,40,42,44,46,48,50,52,54,56,58,60,62,64,66,-1,-1,68,70,72,74,76,78,80,82,84,86,88,90,92,94,96,-1,-1,98,100,102,104,106,-1,-1,-1,-1,-1,-1,-1,-1,-1,-1,-1,-1,-1,-1,-1,-1,-1,-1,-1,-1,-1,-1,-1,-1,-1,-1,-1,-1,-1,-1,-1,-1,-1,-1,-1,-1,-1,-1,-1,-1,-1,-1,-1,-1,-1,-1,-1,-1],"split_conditions":[-5.070595E-1,-1.4487289E0,9.411325E-1,-5.777906E-1,-7.8899103E-1,1.1324177E0,-9.462675E-1,-1.1538852E0,-4.119933E-1,-1.4977243E0,6.2363815E-2,-1.9498062E-1,-1.0161356E0,-4.733506E-1,-1.3303746E-1,4.4669677E-2,-1.6400497E-1,-8.591124E-1,-5.77937E-1,6.6430193E-1,8.242398E-3,-1.4064409E-1,1.5625193E0,-7.209699E-1,-5.589046E-1,1.2368283E-1,-1.2031097E0,-1.1540612E0,-1.0823845E-1,7.9334325E-1,-1.4523301E0,-6.929939E-1,-1.0516243E0,-1.0086323E0,-7.906229E-2,-6.090839E-3,1.6578989E-1,-1.4040275E0,1.062343E0,-1.1395259E0,9.3161964E-1,-1.6066622E0,-3.381503E-1,4.157762E-1,8.897654E-1,1.0351024E-1,9.21877E-2,5.5993766E-1,2.8341493E-1,-4.3317595E-1,-1.4656771E0,-1.4977243E0,-2.2811039E-1,2.274898E-1,8.120494E-1,-2.1851864E-1,-1.9512738E-1,-3.9516047E-1,1.3176839E0,6.7457035E-2,-1.3861388E-1,2.5986984E-1,7.338808E-2,-1.5303145E-1,1.6258164E-1,8.614731E-2,2.438486E-1,-5.6390926E-2,-1.7813791E-1,-1.3597223E-1,9.6785426E-2,5.0339956E-2,-1.1943587E-1,-3.2941777E-2,1.6476014E-1,1.273802E-1,-1.6107768E-1,-5.693736E-2,2.818827E-1,7.245591E-2,-3.410685E-2,1.7313807E-1,3.2543864E-2,-5.153417E-3,-1.4092551E-1,1.7048867E-1,2.1060145E-2,-1.8958353E-1,1.7358828E-1,2.4781136E-1,-1.20876536E-1,-1.2369212E-1,2.349255E-1,1.9987074E-1,-1.4345714E-1,-1.7372206E-1,1.1071467E-1,1.7406407E-1,-1.9236717E-1,1.6555144E-1,7.537623E-2,1.2026249E-1,-1.3999026E-2,-1.9944601E-1,-6.599358E-2,2.3735572E-1,-8.4504224E-2],"split_indices":[7,4,7,22,7,11,32,40,48,24,49,48,1,38,40,0,0,11,21,0,15,15,18,48,49,45,43,26,46,49,13,19,5,41,8,0,0,16,17,9,19,31,38,44,1,22,49,15,12,4,28,24,0,0,15,36,27,3,27,0,0,0,0,0,0,0,0,0,0,0,0,0,0,0,0,0,0,0,0,0,0,0,0,0,0,0,0,0,0,0,0,0,0,0,0,0,0,0,0,0,0,0,0,0,0,0,0],"split_type":[0,0,0,0,0,0,0,0,0,0,0,0,0,0,0,0,0,0,0,0,0,0,0,0,0,0,0,0,0,0,0,0,0,0,0,0,0,0,0,0,0,0,0,0,0,0,0,0,0,0,0,0,0,0,0,0,0,0,0,0,0,0,0,0,0,0,0,0,0,0,0,0,0,0,0,0,0,0,0,0,0,0,0,0,0,0,0,0,0,0,0,0,0,0,0,0,0,0,0,0,0,0,0,0,0,0,0],"sum_hessian":[2.8859043E3,7.112411E2,2.174663E3,6.775613E1,6.43485E2,1.7068135E3,4.6784973E2,7.8008504E0,5.9955276E1,3.1100366E2,3.324813E2,1.6003455E3,1.0646795E2,2.2409462E1,4.4544028E2,1.8454325E0,5.955418E0,3.754631E1,2.2408962E1,2.6898212E0,3.0831384E2,2.452271E2,8.7254196E1,8.3096344E2,7.693821E2,1.8413225E1,8.805472E1,1.3622059E1,8.787404E0,3.7825818E2,6.71821E1,3.2197865E1,5.3484454E0,6.9332943E0,1.5475669E1,1.2018073E0,1.4880139E0,2.7993646E2,2.8377398E1,1.2776864E2,1.1745846E2,8.352944E1,3.724755E0,6.3444855E2,1.9651488E2,2.2515665E2,5.442254E2,7.670522E0,1.0742703E1,6.051794E0,8.200293E1,6.613471E0,7.008588E0,4.446785E0,4.340619E0,2.727976E2,1.0546056E2,3.4756997E0,6.3706398E1,2.0885704E1,1.1312162E1,3.8895023E0,1.4589434E0,2.632152E0,4.301142E0,1.9098686E0,1.35658E1,6.260792E0,2.7367566E2,2.3291922E1,5.085477E0,1.8464071E1,1.0930457E2,1.0022182E2,1.723664E1,1.2955406E0,8.22339E1,2.5024488E0,1.2223061E0,5.488514E2,8.559716E1,1.7740935E2,1.9105522E1,1.7063885E2,5.4517803E1,7.829707E1,4.6592834E2,6.173331E0,1.4971914E0,9.472975E0,1.269728E0,1.242475E0,4.809319E0,2.7902265E0,7.92127E1,2.3476777E0,4.2657933E0,1.4896748E0,2.8509445E0,1.7320393E2,9.959368E1,5.4443924E1,5.1016636E1,1.9967126E0,1.4789872E0,6.0292603E1,3.413796E0],"tree_param":{"num_deleted":"0","num_feature":"50","num_nodes":"107","size_leaf_vector":"1"}},{"base_weights":[-2.3467192E-2,6.2452734E-2,-1.4886113E-1,1.2000293E-1,-1.1897454E-1,-6.482429E-2,-2.7076375E-1,2.0400728E-1,4.2609632E-2,6.066531E-2,-2.3313029E-1,-8.7719314E-2,3.7606603E-1,-1.847025E-1,-2.4475908E-1,-2.964555E-1,2.2532988E-1,-4.9035728E-2,1.61391E-1,-8.694154E-2,2.1726443E-1,-2.6722568E-1,4.1628674E-1,-9.549407E-2,9.2831856E-1,1.0251166E0,-1.7301665E-1,-8.750126E-2,-3.2108748E-1,1.7027259E-1,-3.9285478E-1,-9.394487E-2,2.5847277E-1,6.769468E-2,-4.287139E-1,3.6758754E-2,3.6777732E-1,4.6620777E-1,-1.7726852E-1,5.067057E-1,2.7320093E-2,-3.8272688E-1,-9.1694154E-2,9.1682976E-1,-3.6096524E-2,-2.0334305E-2,-2.1189703E-1,3.540015E-2,3.3855194E-1,-5.239603E-2,1.2328159E0,-5.216388E-1,3.434822E-1,-3.0860925E-1,5.8147244E-2,4.9398747E-1,-3.3671457E-1,-1.7570037E-1,8.112079E-2,-5.8163404E-2,2.5699472E-1,9.720964E-2,4.2388346E-2,6.8798766E-2,-1.87511E-2,-1.3814968E-1,2.7351633E-1,5.6285627E-2,-8.636522E-2,-1.2915027E-1,1.427855E-1,-4.9541615E-2,2.516645E-1,-7.185692E-2,2.2537425E-1,-1.6315179E-1,1.9362797E-1,1.7808382E-1,-3.221977E-2,-1.3813072E-1,2.3879513E-2,1.337307E-1,-5.8638886E-2,1.0763008E-2,3.4580126E-1,-1.6019283E-1,1.2232577E-1,-1.5203013E-2,1.2635635E-1,-7.159618E-2,2.3418345E-1,1.7809394E-1,4.7003695E-1,3.3367455E-2,-1.8074304E-1,-8.7840684E-2,2.508508E-1,4.5007482E-2,-1.3621597E-1,1.1452987E-1,-6.3441016E-2,-1.1655104E-1,2.6658723E-1,-1.1023501E-1,2.020616E-2],"categories":[],"categories_nodes":[],"categories_segments":[],"categories_sizes":[],"default_left":[0,0,0,0,0,0,0,0,0,0,0,0,0,0,0,0,0,0,0,0,0,0,0,0,0,0,0,0,0,0,0,0,0,0,0,0,0,0,0,0,0,0,0,0,0,0,0,0,0,0,0,0,0,0,0,0,0,0,0,0,0,0,0,0,0,0,0,0,0,0,0,0,0,0,0,0,0,0,0,0,0,0,0,0,0,0,0,0,0,0,0,0,0,0,0,0,0,0,0,0,0,0,0,0,0],"id":12,"left_children":[1,3,5,7,9,11,13,15,17,19,21,23,25,-1,27,29,31,33,35,37,39,41,43,45,47,49,51,53,55,-1,57,59,61,63,65,67,69,71,73,75,77,79,81,83,85,87,89,-1,-1,-1,91,93,95,97,99,101,103,-1,-1,-1,-1,-1,-1,-1,-1,-1,-1,-1,-1,-1,-1,-1,-1,-1,-1,-1,-1,-1,-1,-1,-1,-1,-1,-1,-1,-1,-1,-1,-1,-1,-1,-1,-1,-1,-1,-1,-1,-1,-1,-1,-1,-1,-1,-1,-1],"loss_changes":[2.8688236E1,1.651429E1,1.1073172E1,7.79438E0,7.8285837E0,6.5150375E0,3.8089523E0,6.2055435E0,6.8219094E0,3.4597497E0,5.2749176E0,4.917319E0,1.15422325E1,0E0,4.919344E0,2.2169714E0,5.8688087E0,1.5722954E1,7.0048323E0,3.94704E0,3.9728408E0,4.4694443E0,2.7557492E0,5.3108745E0,6.3495827E-1,3.8930836E0,3.443848E0,4.3996325E0,3.6960144E0,0E0,2.9881916E0,5.170127E0,3.8002663E0,5.732157E0,3.9733467E0,8.440098E0,9.066465E0,2.7578354E0,4.065013E0,4.5298924E0,3.484583E0,4.839712E0,5.0782523E0,1.1524591E0,1.826024E0,4.981823E0,6.5136185E0,0E0,0E0,0E0,1.7819538E0,6.4109707E-1,2.7242808E0,3.6829991E0,7.3112893E0,2.3019161E0,3.4089508E0,0E0,0E0,0E0,0E0,0E0,0E0,0E0,0E0,0E0,0E0,0E0,0E0,0E0,0E0,0E0,0E0,0E0,0E0,0E0,0E0,0E0,0E0,0E0,0E0,0E0,0E0,0E0,0E0,0E0,0E0,0E0,0E0,0E0,0E0,0E0,0E0,0E0,0E0,0E0,0E0,0E0,0E0,0E0,0E0,0E0,0E0,0E0,0E0],"parents":[2147483647,0,0,1,1,2,2,3,3,4,4,5,5,6,6,7,7,8,8,9,9,10,10,11,11,12,12,14,14,15,15,16,16,17,17,18,18,19,19,20,20,21,21,22,22,23,23,24,24,25,25,26,26,27,27,28,28,30,30,31,31,32,32,33,33,34,34,35,35,36,36,37,37,38,38,39,39,40,40,41,41,42,42,43,43,44,44,45,45,46,46,50,50,51,51,52,52,53,53,54,54,55,55,56,56],"right_children":[2,4,6,8,10,12,14,16,18,20,22,24,26,-1,28,30,32,34,36,38,40,42,44,46,48,50,52,54,56,-1,58,60,62,64,66,68,70,72,74,76,78,80,82,84,86,88,90,-1,-1,-1,92,94,96,98,100,102,104,-1,-1,-1,-1,-1,-1,-1,-1,-1,-1,-1,-1,-1,-1,-1,-1,-1,-1,-1,-1,-1,-1,-1,-1,-1,-1,-1,-1,-1,-1,-1,-1,-1,-1,-1,-1,-1,-1,-1,-1,-1,-1,-1,-1,-1,-1,-1,-1],"split_conditions":[-9.187331E-3,4.2069998E-1,1.6938436E-1,-4.7647282E-1,-6.427374E-1,7.992437E-1,3.438592E-1,-1.2673856E0,1.08042225E-1,-3.8041085E-1,2.158934E0,8.37708E-1,3.1459758E-1,-1.847025E-1,2.9167714E-2,-8.684168E-1,-9.880956E-1,-5.589046E-1,-3.8018567E-4,-1.097021E0,-2.5422013E-1,-2.5057024E-1,6.459822E-2,-3.8195294E-1,-9.5788836E-1,1.00147024E-1,1.7645277E-1,-4.0449554E-1,-1.3388764E0,1.7027259E-1,1.2116508E0,-4.8646274E-1,7.6652914E-1,-3.8195294E-1,1.7681148E0,-6.8267024E-1,-9.100141E-1,7.119401E-2,2.3760843E0,-9.6297246E-1,-1.4249773E-1,2.6150012E-1,-7.8899103E-1,-1.4983976E0,1.4884129E0,1.1467376E0,3.1724539E0,3.540015E-2,3.3855194E-1,-5.239603E-2,-6.978816E-1,-1.4394388E0,-4.7156207E-2,-6.2785447E-1,6.1160564E-1,1.5041538E-2,4.050347E-1,-1.7570037E-1,8.112079E-2,-5.8163404E-2,2.5699472E-1,9.720964E-2,4.2388346E-2,6.8798766E-2,-1.87511E-2,-1.3814968E-1,2.7351633E-1,5.6285627E-2,-8.636522E-2,-1.2915027E-1,1.427855E-1,-4.9541615E-2,2.516645E-1,-7.185692E-2,2.2537425E-1,-1.6315179E-1,1.9362797E-1,1.7808382E-1,-3.221977E-2,-1.3813072E-1,2.3879513E-2,1.337307E-1,-5.8638886E-2,1.0763008E-2,3.4580126E-1,-1.6019283E-1,1.2232577E-1,-1.5203013E-2,1.2635635E-1,-7.159618E-2,2.3418345E-1,1.7809394E-1,4.7003695E-1,3.3367455E-2,-1.8074304E-1,-8.7840684E-2,2.508508E-1,4.5007482E-2,-1.3621597E-1,1.1452987E-1,-6.3441016E-2,-1.1655104E-1,2.6658723E-1,-1.1023501E-1,2.020616E-2],"split_indices":[20,1,0,23,22,10,0,17,49,28,49,1,13,0,9,45,26,49,1,44,16,5,40,8,29,20,25,41,45,0,40,36,34,8,32,0,11,10,10,31,34,44,7,26,24,44,22,0,0,0,39,46,16,16,15,22,46,0,0,0,0,0,0,0,0,0,0,0,0,0,0,0,0,0,0,0,0,0,0,0,0,0,0,0,0,0,0,0,0,0,0,0,0,0,0,0,0,0,0,0,0,0,0,0,0],"split_type":[0,0,0,0,0,0,0,0,0,0,0,0,0,0,0,0,0,0,0,0,0,0,0,0,0,0,0,0,0,0,0,0,0,0,0,0,0,0,0,0,0,0,0,0,0,0,0,0,0,0,0,0,0,0,0,0,0,0,0,0,0,0,0,0,0,0,0,0,0,0,0,0,0,0,0,0,0,0,0,0,0,0,0,0,0,0,0,0,0,0,0,0,0,0,0,0,0,0,0,0,0,0,0,0,0],"sum_hessian":[2.6609055E3,1.579283E3,1.0816227E3,1.1992194E3,3.8006354E2,6.411562E2,4.404665E2,5.7426447E2,6.2495496E2,1.4785767E2,2.3220587E2,6.1026666E2,3.0889538E1,2.929104E1,4.1117545E2,2.293985E1,5.513246E2,3.5310507E2,2.7184985E2,7.634313E1,7.151453E1,2.2118199E2,1.1023879E1,6.065315E2,3.7351875E0,1.37588005E1,1.7130737E1,1.3506017E2,2.761153E2,1.8119056E0,2.1127943E1,5.167644E1,4.9964816E2,2.7070096E2,8.240413E1,1.7022984E2,1.0162001E2,1.0132407E1,6.6210724E1,2.7675045E1,4.3839485E1,1.326903E2,8.849169E1,4.7459826E0,6.2778964E0,3.6927225E2,2.3725925E2,1.0548457E0,2.680342E0,2.053856E0,1.1704945E1,1.0221536E1,6.9092007E0,5.3191566E1,8.186861E1,4.6184025E0,2.714969E2,1.6459923E1,4.6680202E0,4.7480953E1,4.195487E0,3.1926132E2,1.8038684E2,1.2043086E2,1.502701E2,8.113663E1,1.2674963E0,1.1651018E2,5.371966E1,1.1771549E1,8.9848465E1,3.967667E0,6.16474E0,6.2745823E1,3.464905E0,2.8874836E0,2.4787561E1,7.770385E0,3.60691E1,1.1360017E2,1.9090136E1,1.3787017E1,7.470467E1,1.2455432E0,3.5004396E0,2.863151E0,3.414745E0,3.4635513E2,2.2917091E1,2.3177052E2,5.488727E0,4.9702506E0,6.734694E0,1.1151732E0,9.106362E0,3.192249E0,3.7169514E0,1.2799358E1,4.039221E1,3.701905E1,4.4849556E1,1.4319036E0,3.1864989E0,2.523895E2,1.910738E1],"tree_param":{"num_deleted":"0","num_feature":"50","num_nodes":"105","size_leaf_vector":"1"}},{"base_weights":[-2.721371E-2,6.8822965E-2,-1.4141014E-1,1.08455166E-1,-1.3576402E-1,-4.4627283E-2,-2.5393444E-1,-4.8944512E-1,1.2486328E-1,-3.1237376E-1,2.0439093E-1,-1.1220891E-1,2.1890983E-1,1.2198599E-1,-2.847087E-1,2.2255109E-1,-5.706322E-1,2.9347917E-1,8.155864E-2,-3.5406238E-1,5.939925E-1,5.1719684E-2,7.3166066E-1,-3.768552E-1,-4.9420517E-2,3.6221263E-1,-1.2819007E-1,5.159348E-1,-2.4881804E-1,-3.2110527E-1,7.653877E-2,1.9839078E-1,-1.0563288E-1,-6.0271454E-1,4.787358E-2,-3.084017E-1,3.3906928E-1,1.8033022E-1,1.4229691E-2,6.867109E-1,-3.9293897E-1,-1.7451975E-1,3.0240402E-1,-1.8206717E-1,6.738276E-1,8.6047196E-1,-1.1355947E-1,-7.5096294E-2,-4.9133807E-1,1.3745601E-2,-3.756581E-1,5.327292E-1,1.5397233E-2,-3.618745E-1,2.6635936E-1,-3.8097253E-1,8.3681834E-1,-1.7782247E-1,1.9212045E-1,2.238454E-2,-3.5021746E-1,7.351242E-1,-1.2200012E-1,-1.8855175E-1,3.1604506E-3,1.4768726E-1,-1.3059138E-1,1.916125E-1,8.3640076E-2,3.1629387E-2,1.1304628E-1,-1.0957386E-2,9.84895E-2,3.2605183E-1,-1.2151826E-1,-1.2327386E-1,2.3143904E-1,-1.0584294E-1,3.165113E-2,-8.4048584E-2,1.441005E-1,-5.4074477E-2,2.907982E-1,3.0982053E-1,-5.9749898E-2,1.8199351E-1,-8.018592E-2,2.95728E-1,-1.5901203E-1,1.3625751E-1,-7.5061065E-3,-1.3139221E-1,1.7849126E-1,2.343248E-1,-2.0949529E-3,-1.1175161E-1,8.3516814E-2,-1.6915976E-1,1.4222902E-1,2.7805996E-1,-1.5830625E-2,3.5036057E-2,-1.5691078E-1,-1.3473704E-1,3.1689125E-1,3.214785E-1,-4.87266E-2,-1.24881215E-1,7.897464E-2,-1.256288E-1,-7.805222E-2,4.0339553E-1,-2.50414E-2,-9.674913E-2,2.6452065E-1],"categories":[],"categories_nodes":[],"categories_segments":[],"categories_sizes":[],"default_left":[0,0,0,0,0,0,0,0,0,0,0,0,0,0,0,0,0,0,0,0,0,0,0,0,0,0,0,0,0,0,0,0,0,0,0,0,0,0,0,0,0,0,0,0,0,0,0,0,0,0,0,0,0,0,0,0,0,0,0,0,0,0,0,0,0,0,0,0,0,0,0,0,0,0,0,0,0,0,0,0,0,0,0,0,0,0,0,0,0,0,0,0,0,0,0,0,0,0,0,0,0,0,0,0,0,0,0,0,0,0,0,0,0,0,0],"id":13,"left_children":[1,3,5,7,9,11,13,15,17,19,21,23,25,27,29,31,33,35,37,39,41,43,45,47,49,51,53,55,57,59,61,-1,-1,63,-1,65,67,69,71,73,75,77,-1,79,81,83,-1,85,87,89,91,93,95,97,99,101,103,-1,105,107,109,111,113,-1,-1,-1,-1,-1,-1,-1,-1,-1,-1,-1,-1,-1,-1,-1,-1,-1,-1,-1,-1,-1,-1,-1,-1,-1,-1,-1,-1,-1,-1,-1,-1,-1,-1,-1,-1,-1,-1,-1,-1,-1,-1,-1,-1,-1,-1,-1,-1,-1,-1,-1,-1],"loss_changes":[2.9005297E1,1.1664642E1,1.3145172E1,1.1874734E1,1.4097892E1,1.1613373E1,6.4946594E0,1.997972E0,8.539852E0,6.035527E0,6.437746E0,8.597771E0,6.669043E0,6.402944E0,6.8148766E0,1.2495499E0,7.8340054E-1,6.6702156E0,6.2123637E0,6.258749E0,2.4517362E0,9.351884E0,2.897853E0,3.3929605E0,8.665421E0,5.580222E0,3.751667E0,6.406462E0,3.5716944E0,4.7013893E0,6.3761086E0,0E0,0E0,4.5437622E-1,0E0,1.9794291E0,3.8473167E0,5.534087E0,8.887812E0,2.927535E0,3.316534E0,2.0480454E-1,0E0,3.182759E0,4.602937E0,3.2032843E0,0E0,3.8946514E0,4.6268215E0,6.039431E0,4.386057E0,8.493006E0,3.3862658E0,4.5432186E0,3.2787504E0,5.0379765E-1,4.9597197E0,0E0,3.5249963E0,4.083591E0,2.5620193E0,5.739876E0,7.8912807E0,0E0,0E0,0E0,0E0,0E0,0E0,0E0,0E0,0E0,0E0,0E0,0E0,0E0,0E0,0E0,0E0,0E0,0E0,0E0,0E0,0E0,0E0,0E0,0E0,0E0,0E0,0E0,0E0,0E0,0E0,0E0,0E0,0E0,0E0,0E0,0E0,0E0,0E0,0E0,0E0,0E0,0E0,0E0,0E0,0E0,0E0,0E0,0E0,0E0,0E0,0E0,0E0],"parents":[2147483647,0,0,1,1,2,2,3,3,4,4,5,5,6,6,7,7,8,8,9,9,10,10,11,11,12,12,13,13,14,14,15,15,16,16,17,17,18,18,19,19,20,20,21,21,22,22,23,23,24,24,25,25,26,26,27,27,28,28,29,29,30,30,33,33,35,35,36,36,37,37,38,38,39,39,40,40,41,41,43,43,44,44,45,45,47,47,48,48,49,49,50,50,51,51,52,52,53,53,54,54,55,55,56,56,58,58,59,59,60,60,61,61,62,62],"right_children":[2,4,6,8,10,12,14,16,18,20,22,24,26,28,30,32,34,36,38,40,42,44,46,48,50,52,54,56,58,60,62,-1,-1,64,-1,66,68,70,72,74,76,78,-1,80,82,84,-1,86,88,90,92,94,96,98,100,102,104,-1,106,108,110,112,114,-1,-1,-1,-1,-1,-1,-1,-1,-1,-1,-1,-1,-1,-1,-1,-1,-1,-1,-1,-1,-1,-1,-1,-1,-1,-1,-1,-1,-1,-1,-1,-1,-1,-1,-1,-1,-1,-1,-1,-1,-1,-1,-1,-1,-1,-1,-1,-1,-1,-1,-1,-1],"split_conditions":[-1.5061249E-1,3.4354174E-1,1.5968733E-2,-1.2312312E0,-3.904696E-3,9.9827296E-1,-1.220013E0,-9.544963E-1,-7.043402E-1,1.8026233E0,2.2891201E-1,-9.798119E-1,7.7620363E-1,1.4736633E-1,1.0700558E0,2.6963863E-1,1.1410663E0,-1.340662E0,-1.8937244E-1,-1.8815901E0,-5.650125E-1,9.6186024E-1,3.7128503E0,1.00147024E-1,6.632542E-1,9.787342E-1,-4.6255103E-1,-5.9761286E-1,7.013153E-1,-1.0270084E0,-5.022421E-1,1.9839078E-1,-1.0563288E-1,1.4585538E0,4.787358E-2,3.5162494E-1,-9.703136E-1,-4.7972947E-1,9.8964876E-1,-4.3317595E-1,1.3102978E0,7.239696E-1,3.0240402E-1,1.2586535E0,1.6188662E-1,1.9894493E0,-1.1355947E-1,-9.9942124E-1,-1.268716E0,-2.0057905E0,3.0445673E0,-2.0384288E-1,-4.7526237E-1,5.1540796E-2,-1.4347476E0,-6.461825E-1,-1.1881596E0,-1.7782247E-1,-1.1302936E0,2.7977265E-2,-1.7668547E-1,-2.8971782E-1,8.4866446E-1,-1.8855175E-1,3.1604506E-3,1.4768726E-1,-1.3059138E-1,1.916125E-1,8.3640076E-2,3.1629387E-2,1.1304628E-1,-1.0957386E-2,9.84895E-2,3.2605183E-1,-1.2151826E-1,-1.2327386E-1,2.3143904E-1,-1.0584294E-1,3.165113E-2,-8.4048584E-2,1.441005E-1,-5.4074477E-2,2.907982E-1,3.0982053E-1,-5.9749898E-2,1.8199351E-1,-8.018592E-2,2.95728E-1,-1.5901203E-1,1.3625751E-1,-7.5061065E-3,-1.3139221E-1,1.7849126E-1,