{"learner":{"attributes":{"scikit_learn":"{\"_estimator_type\": \"classifier\"}"},"feature_names":[],"feature_types":[],"gradient_booster":{"model":{"gbtree_model_param":{"num_parallel_tree":"1","num_trees":"300"},"iteration_indptr":[0,3,6,9,12,15,18,21,24,27,30,33,36,39,42,45,48,51,54,57,60,63,66,69,72,75,78,81,84,87,90,93,96,99,102,105,108,111,114,117,120,123,126,129,132,135,138,141,144,147,150,153,156,159,162,165,168,171,174,177,180,183,186,189,192,195,198,201,204,207,210,213,216,219,222,225,228,231,234,237,240,243,246,249,252,255,258,261,264,267,270,273,276,279,282,285,288,291,294,297,300],"tree_info":[0,1,2,0,1,2,0,1,2,0,1,2,0,1,2,0,1,2,0,1,2,0,1,2,0,1,2,0,1,2,0,1,2,0,1,2,0,1,2,0,1,2,0,1,2,0,1,2,0,1,2,0,1,2,0,1,2,0,1,2,0,1,2,0,1,2,0,1,2,0,1,2,0,1,2,0,1,2,0,1,2,0,1,2,0,1,2,0,1,2,0,1,2,0,1,2,0,1,2,0,1,2,0,1,2,0,1,2,0,1,2,0,1,2,0,1,2,0,1,2,0,1,2,0,1,2,0,1,2,0,1,2,0,1,2,0,1,2,0,1,2,0,1,2,0,1,2,0,1,2,0,1,2,0,1,2,0,1,2,0,1,2,0,1,2,0,1,2,0,1,2,0,1,2,0,1,2,0,1,2,0,1,2,0,1,2,0,1,2,0,1,2,0,1,2,0,1,2,0,1,2,0,1,2,0,1,2,0,1,2,0,1,2,0,1,2,0,1,2,0,1,2,0,1,2,0,1,2,0,1,2,0,1,2,0,1,2,0,1,2,0,1,2,0,1,2,0,1,2,0,1,2,0,1,2,0,1,2,0,1,2,0,1,2,0,1,2,0,1,2,0,1,2,0,1,2,0,1,2,0,1,2,0,1,2,0,1,2,0,1,2,0,1,2,0,1,2,0,1,2],"trees":[{"base_weights":[2.620131E-1,4.0028837E-1,-9.479506E-3,6.9825625E-1,2.4945794E-1,-3.3955455E-1,1.162577E-1,1.039804E0,4.5649377E-1,5.2627224E-1,1.2589726E-1,-3.8130847E-1,7.384615E-1,4.5537774E-2,6.0655737E-1,-4.037734E-8,1.096191E0,3.179723E-1,1.1413882E0,5.877551E-1,-1.0859733E-1,-3.225811E-2,3.2996204E-1,-1.4687887E-1,-6.17315E-1,3.5999998E-1,-6.206898E-2,1.0546525E-1,-4.1123602E-1,3.0085957E-1,1.0909091E0,-5.217392E-1,3.2727274E-1,-4.9180366E-2,1.1362725E0,5.74124E-1,-2.1201458E-2,1.3924915E0,3.4285712E-1,4.363636E-1,8.888889E-1,3.451327E-1,-5.3846157E-1,5.928854E-1,-8.814164E-2,-5.7901133E-2,5.3509337E-1,9.677419E-1,-2.8649393E-1,-6.376441E-1,7.2E-2,3.769096E-2,5.4788417E-1,-4.8251754E-1,2.8800002E-1,-1.7518252E-1,5.837104E-1,-1.2857145E-1,1.2030457E0,-1.894737E-1,-7.663455E-9,2.1724138E-1,-1.7560977E-1,3.50585E-1,1.6981121E-2,6.226414E-2,2.511628E-1,-3.4220546E-2,3.1304348E-1,4.2597866E-1,1.2857142E-1,-1.4210528E-1,3.3157894E-1,-3.8055102E-3,1.9216456E-1,2.0756143E-1,4.047847E-1,-5.8441572E-2,3.5999998E-1,-2.0495051E-1,7.2E-2,2.8911918E-1,-1.5652177E-1,7.723359E-3,-1.0550999E-1,-6.1165065E-2,2.5384617E-1,2.065963E-1,3.3882342E-2,3.9452055E-1,-6.206898E-2,-1.03404276E-1,2.6756757E-1,-2.0013645E-1,-4.7368433E-2,-3.0810827E-2,6.563226E-2,2.8506776E-2,2.8481013E-1,2.5714284E-1,-1.6187054E-1,2.6756757E-1,-1.5688075E-1,-1.7027028E-1,2.3316063E-1,3.8432434E-1,-7.663455E-9],"categories":[],"categories_nodes":[],"categories_segments":[],"categories_sizes":[],"default_left":[0,0,0,0,0,0,0,0,0,0,0,0,0,0,0,0,0,0,0,0,0,0,0,0,0,0,0,0,0,0,0,0,0,0,0,0,0,0,0,0,0,0,0,0,0,0,0,0,0,0,0,0,0,0,0,0,0,0,0,0,0,0,0,0,0,0,0,0,0,0,0,0,0,0,0,0,0,0,0,0,0,0,0,0,0,0,0,0,0,0,0,0,0,0,0,0,0,0,0,0,0,0,0,0,0,0,0],"id":0,"left_children":[1,3,5,7,9,11,13,15,17,19,21,23,25,27,29,31,33,35,37,39,41,43,45,47,49,-1,-1,51,53,55,57,59,-1,61,63,65,67,69,71,73,75,77,79,81,83,85,87,89,91,93,-1,95,97,99,-1,101,103,-1,105,-1,-1,-1,-1,-1,-1,-1,-1,-1,-1,-1,-1,-1,-1,-1,-1,-1,-1,-1,-1,-1,-1,-1,-1,-1,-1,-1,-1,-1,-1,-1,-1,-1,-1,-1,-1,-1,-1,-1,-1,-1,-1,-1,-1,-1,-1,-1,-1],"loss_changes":[7.422179E1,5.869565E1,2.7767897E1,3.583011E1,2.9732468E1,8.588686E0,1.6773836E1,1.0638351E1,2.423014E1,1.0546524E1,1.9493343E1,9.775959E0,3.3994691E0,1.1664856E1,8.703768E0,6.450593E0,7.957184E0,1.8865116E1,8.189228E0,1.0781441E1,4.975213E0,1.1965168E1,2.1009064E1,1.4403891E1,1.6964264E0,0E0,0E0,1.1256901E1,5.2961044E0,5.32364E0,4.47241E0,4.393592E-1,0E0,3.2342374E0,5.742386E0,1.1752769E1,9.446108E0,2.524681E-1,7.7864656E0,1.5136797E1,6.41362E0,6.0291E0,1.6283932E0,1.2122634E1,9.430632E0,1.2328983E1,1.1108322E1,4.4879093E0,5.891797E0,1.1218491E0,0E0,8.341423E0,8.980393E0,4.105592E0,0E0,6.1150436E0,5.9111776E0,0E0,2.0549335E0,0E0,0E0,0E0,0E0,0E0,0E0,0E0,0E0,0E0,0E0,0E0,0E0,0E0,0E0,0E0,0E0,0E0,0E0,0E0,0E0,0E0,0E0,0E0,0E0,0E0,0E0,0E0,0E0,0E0,0E0,0E0,0E0,0E0,0E0,0E0,0E0,0E0,0E0,0E0,0E0,0E0,0E0,0E0,0E0,0E0,0E0,0E0,0E0],"parents":[2147483647,0,0,1,1,2,2,3,3,4,4,5,5,6,6,7,7,8,8,9,9,10,10,11,11,12,12,13,13,14,14,15,15,16,16,17,17,18,18,19,19,20,20,21,21,22,22,23,23,24,24,27,27,28,28,29,29,30,30,31,31,33,33,34,34,35,35,36,36,37,37,38,38,39,39,40,40,41,41,42,42,43,43,44,44,45,45,46,46,47,47,48,48,49,49,51,51,52,52,53,53,55,55,56,56,58,58],"right_children":[2,4,6,8,10,12,14,16,18,20,22,24,26,28,30,32,34,36,38,40,42,44,46,48,50,-1,-1,52,54,56,58,60,-1,62,64,66,68,70,72,74,76,78,80,82,84,86,88,90,92,94,-1,96,98,100,-1,102,104,-1,106,-1,-1,-1,-1,-1,-1,-1,-1,-1,-1,-1,-1,-1,-1,-1,-1,-1,-1,-1,-1,-1,-1,-1,-1,-1,-1,-1,-1,-1,-1,-1,-1,-1,-1,-1,-1,-1,-1,-1,-1,-1,-1,-1,-1,-1,-1,-1,-1],"split_conditions":[7.687014E-2,-4.01889E-1,-7.437199E-1,-8.412308E-2,-1.9283578E-1,1.3431443E0,8.863776E-1,-1.2537576E0,1.599473E0,8.575454E-1,1.41985E-1,1.7158972E-1,1.3990802E0,1.0336636E0,-7.989683E-2,1.144058E0,-1.6178749E0,-4.247189E-1,3.7622783E-1,1.5371202E-1,-3.7371202E-3,-4.0246233E-1,-6.1881846E-1,-7.563615E-1,1.4206885E0,3.5999998E-1,-6.206898E-2,1.2756346E0,1.2878293E0,2.6701918E-1,-8.6512405E-1,-8.221871E-1,3.2727274E-1,-4.5233437E-1,1.5115151E0,-1.3084304E-1,1.1708959E0,-3.373023E-1,-4.2545527E-2,2.2931217E-1,3.3925542E-1,-8.169476E-3,-2.8122893E-1,8.442535E-1,4.19823E-1,-6.8591096E-2,-3.1186906E-1,1.32172E-1,4.4352075E-1,7.4854594E-1,7.2E-2,2.3684615E-1,-4.6193853E-2,1.1438836E-2,2.8800002E-1,-6.188793E-1,-9.251286E-1,-1.2857145E-1,1.2887506E0,-1.894737E-1,-7.663455E-9,2.1724138E-1,-1.7560977E-1,3.50585E-1,1.6981121E-2,6.226414E-2,2.511628E-1,-3.4220546E-2,3.1304348E-1,4.2597866E-1,1.2857142E-1,-1.4210528E-1,3.3157894E-1,-3.8055102E-3,1.9216456E-1,2.0756143E-1,4.047847E-1,-5.8441572E-2,3.5999998E-1,-2.0495051E-1,7.2E-2,2.8911918E-1,-1.5652177E-1,7.723359E-3,-1.0550999E-1,-6.1165065E-2,2.5384617E-1,2.065963E-1,3.3882342E-2,3.9452055E-1,-6.206898E-2,-1.03404276E-1,2.6756757E-1,-2.0013645E-1,-4.7368433E-2,-3.0810827E-2,6.563226E-2,2.8506776E-2,2.8481013E-1,2.5714284E-1,-1.6187054E-1,2.6756757E-1,-1.5688075E-1,-1.7027028E-1,2.3316063E-1,3.8432434E-1,-7.663455E-9],"split_indices":[13,5,10,18,15,48,33,18,45,18,10,7,5,3,27,10,4,23,3,44,14,7,14,35,32,0,0,39,37,13,35,6,0,11,24,32,25,7,4,2,19,20,15,17,16,35,13,3,20,37,0,19,41,23,0,16,8,0,3,0,0,0,0,0,0,0,0,0,0,0,0,0,0,0,0,0,0,0,0,0,0,0,0,0,0,0,0,0,0,0,0,0,0,0,0,0,0,0,0,0,0,0,0,0,0,0,0],"split_type":[0,0,0,0,0,0,0,0,0,0,0,0,0,0,0,0,0,0,0,0,0,0,0,0,0,0,0,0,0,0,0,0,0,0,0,0,0,0,0,0,0,0,0,0,0,0,0,0,0,0,0,0,0,0,0,0,0,0,0,0,0,0,0,0,0,0,0,0,0,0,0,0,0,0,0,0,0,0,0,0,0,0,0,0,0,0,0,0,0,0,0,0,0,0,0,0,0,0,0,0,0,0,0,0,0,0,0],"sum_hessian":[1.9759999E3,1.3088888E3,6.671111E2,4.3866663E2,8.7022217E2,1.8355554E2,4.8355554E2,1.8044443E2,2.582222E2,2.6755554E2,6.026666E2,1.7733333E2,6.222222E0,4.2355554E2,5.9999996E1,9.333333E0,1.711111E2,2.1599998E2,4.222222E1,2.4399998E2,2.3555553E1,3.3999997E2,2.6266666E2,8.977777E1,8.755555E1,3.9999998E0,2.222222E0,3.7511108E2,4.8444443E1,3.7777775E1,2.2222221E1,6.666666E0,2.6666665E0,5.7777777E0,1.6533333E2,1.2266666E2,9.333333E1,3.1555553E1,1.0666666E1,1.6399998E2,7.999999E1,1.1555555E1,1.1999999E1,2.7111109E1,3.1288885E2,9.111111E1,1.7155554E2,9.333333E0,8.044444E1,8.577777E1,1.7777777E0,3.262222E2,4.8888885E1,4.6666664E1,1.7777777E0,1.4222221E1,2.3555553E1,1.3333333E0,2.0888887E1,5.333333E0,1.3333333E0,2.222222E0,3.5555553E0,1.6044443E2,4.8888884E0,5.1999996E1,7.0666664E1,8.6666664E1,6.666666E0,3.0222221E1,1.3333333E0,5.333333E0,5.333333E0,5.1555553E1,1.12444435E2,5.7777775E1,2.2222221E1,7.5555553E0,3.9999998E0,1.0222221E1,1.7777777E0,2.0444443E1,6.666666E0,2.191111E2,9.377777E1,7.911111E1,1.1999999E1,1.2533333E2,4.622222E1,7.1111107E0,2.222222E0,7.733333E1,3.111111E0,8.044444E1,5.333333E0,1.8399998E2,1.4222221E2,2.3555553E1,2.5333332E1,1.3333333E0,4.5333332E1,3.111111E0,1.1111111E1,3.111111E0,2.0444443E1,1.9555553E1,1.3333333E0],"tree_param":{"num_deleted":"0","num_feature":"50","num_nodes":"107","size_leaf_vector":"1"}},{"base_weights":[-2.7314158E-2,1.7550458E-1,-2.2417806E-1,-2.936471E-1,3.2511646E-1,-3.020754E-1,-2.3650026E-2,-4.3294764E-1,1.804507E-2,4.9498248E-1,1.7669287E-2,-4.9792975E-3,-3.689961E-1,-5.054156E-2,3.7358493E-1,-4.7847572E-1,6.8852454E-1,4.4827583E-1,-2.5423735E-1,7.26381E-1,3.029274E-1,-1.1442791E-1,4.3154243E-1,-2.3500617E-1,4.6851382E-1,-3.823474E-1,8.3606553E-1,-2.9889303E-1,6.927171E-2,-5.2968395E-1,6.97674E-2,3.122449E-1,-1.2857145E-1,7.4641144E-1,-1.918033E-1,5.9999996E-1,-3.5013267E-1,8.8524586E-1,4.1052628E-1,1.5025608E-1,7.389162E-1,-2.447654E-1,3.0484986E-1,9.909502E-1,8.219174E-2,-6.2264156E-1,-4.812839E-2,-5.647059E-1,7.2897196E-1,-5.1798564E-1,-2.9236093E-1,-1.2857145E-1,3.6734694E-1,1.7910443E-1,-4.4927543E-1,-1.1749352E-1,4.5901635E-1,-1.6577077E-1,8.780487E-2,3E-1,-1.1612905E-1,3.289655E-1,-1.232878E-2,-1.2857145E-1,3.2727274E-1,-1.23287685E-1,2.5714284E-1,1.6167665E-1,3.285171E-1,7.818853E-2,2.9774436E-1,-1.0363167E-2,1.4270015E-1,1.6363636E-1,3.4285712E-1,-1.0937801E-1,3.610314E-2,2.8235295E-1,-1.2456762E-2,3.9130427E-2,3.9130437E-1,-6.1433464E-2,3.333333E-1,1.2857142E-1,-2.0632415E-1,-8.203755E-2,1.1421319E-1,-7.663455E-9,-1.972603E-1,2.8438663E-1,-1.03278704E-1,-1.0058057E-1,-1.8128116E-1,-9.4446264E-2,1.4516129E-1,2.4950495E-1,-1.321101E-1,-1.6721314E-1,1E-1,-1.1886794E-1,2.3788536E-2,3.2727274E-1,5.4961823E-2],"categories":[],"categories_nodes":[],"categories_segments":[],"categories_sizes":[],"default_left":[0,0,0,0,0,0,0,0,0,0,0,0,0,0,0,0,0,0,0,0,0,0,0,0,0,0,0,0,0,0,0,0,0,0,0,0,0,0,0,0,0,0,0,0,0,0,0,0,0,0,0,0,0,0,0,0,0,0,0,0,0,0,0,0,0,0,0,0,0,0,0,0,0,0,0,0,0,0,0,0,0,0,0,0,0,0,0,0,0,0,0,0,0,0,0,0,0,0,0,0,0,0,0],"id":1,"left_children":[1,3,5,7,9,11,13,15,17,19,21,23,25,27,-1,29,31,33,35,37,39,41,43,45,47,49,51,53,55,57,59,-1,-1,61,-1,63,65,67,69,71,73,75,77,79,81,83,85,87,89,91,93,-1,-1,95,97,99,101,-1,-1,-1,-1,-1,-1,-1,-1,-1,-1,-1,-1,-1,-1,-1,-1,-1,-1,-1,-1,-1,-1,-1,-1,-1,-1,-1,-1,-1,-1,-1,-1,-1,-1,-1,-1,-1,-1,-1,-1,-1,-1,-1,-1,-1,-1],"loss_changes":[7.897638E1,6.848457E1,1.5670738E1,1.0259491E1,3.8597E1,1.4368332E1,9.681991E0,8.663322E0,8.769628E0,2.0938927E1,1.4488725E1,1.4692764E1,9.810471E0,8.2630625E0,0E0,4.457138E0,3.1134162E0,9.880705E0,3.9691768E0,1.043605E1,1.7321081E1,1.1058785E1,1.2447754E1,6.5460157E0,1.2282414E1,6.977997E0,3.8541317E0,6.573844E0,1.3714329E1,2.8739128E0,6.478619E0,0E0,0E0,6.448311E0,0E0,2.992208E0,3.4283228E0,9.752159E0,6.18694E0,1.1756308E1,4.6645813E0,6.77656E0,1.0643055E1,6.452095E0,1.2202326E1,2.3099203E0,6.1273994E0,4.9508452E-1,8.708742E0,3.4497948E0,6.314314E0,0E0,0E0,9.394583E0,6.023283E0,7.0341234E0,1.0431372E1,0E0,0E0,0E0,0E0,0E0,0E0,0E0,0E0,0E0,0E0,0E0,0E0,0E0,0E0,0E0,0E0,0E0,0E0,0E0,0E0,0E0,0E0,0E0,0E0,0E0,0E0,0E0,0E0,0E0,0E0,0E0,0E0,0E0,0E0,0E0,0E0,0E0,0E0,0E0,0E0,0E0,0E0,0E0,0E0,0E0,0E0],"parents":[2147483647,0,0,1,1,2,2,3,3,4,4,5,5,6,6,7,7,8,8,9,9,10,10,11,11,12,12,13,13,15,15,16,16,17,17,18,18,19,19,20,20,21,21,22,22,23,23,24,24,25,25,26,26,27,27,28,28,29,29,30,30,33,33,35,35,36,36,37,37,38,38,39,39,40,40,41,41,42,42,43,43,44,44,45,45,46,46,47,47,48,48,49,49,50,50,53,53,54,54,55,55,56,56],"right_children":[2,4,6,8,10,12,14,16,18,20,22,24,26,28,-1,30,32,34,36,38,40,42,44,46,48,50,52,54,56,58,60,-1,-1,62,-1,64,66,68,70,72,74,76,78,80,82,84,86,88,90,92,94,-1,-1,96,98,100,102,-1,-1,-1,-1,-1,-1,-1,-1,-1,-1,-1,-1,-1,-1,-1,-1,-1,-1,-1,-1,-1,-1,-1,-1,-1,-1,-1,-1,-1,-1,-1,-1,-1,-1,-1,-1,-1,-1,-1,-1,-1,-1,-1,-1,-1,-1],"split_conditions":[-2.5779986E-1,-8.221871E-1,6.506098E-2,-5.02682E-1,-4.1719854E-1,-7.881425E-1,2.301962E0,1.7650616E0,-1.3896702E-1,-2.7958027E-1,3.0592602E-1,2.1624042E-1,1.7528911E0,-4.0219322E-1,3.7358493E-1,1.2619318E0,1.0336636E0,1.3118767E0,-1.1552655E0,-6.5316275E-2,1.0356527E-1,6.326574E-1,-3.8797954E-1,-7.8367555E-1,-7.2847825E-1,-5.71374E-1,-5.3344816E-1,-6.223208E-1,5.862975E-2,1.2635579E0,1.4785584E0,3.122449E-1,-1.2857145E-1,-1.0052259E-3,-1.918033E-1,-8.631377E-1,-3.014318E-1,-1.5418024E-1,1.577275E0,-1.0596281E-2,-4.151797E-1,1.1615885E0,7.220155E-2,4.19823E-1,6.577672E-1,-2.0273788E0,4.718756E-1,-1.1055878E0,1.4808936E-1,-5.465823E-1,1.8833683E0,-1.2857145E-1,3.6734694E-1,8.5465245E-2,1.1957664E0,1.883533E-1,-7.701355E-1,-1.6577077E-1,8.780487E-2,3E-1,-1.1612905E-1,3.289655E-1,-1.232878E-2,-1.2857145E-1,3.2727274E-1,-1.23287685E-1,2.5714284E-1,1.6167665E-1,3.285171E-1,7.818853E-2,2.9774436E-1,-1.0363167E-2,1.4270015E-1,1.6363636E-1,3.4285712E-1,-1.0937801E-1,3.610314E-2,2.8235295E-1,-1.2456762E-2,3.9130427E-2,3.9130437E-1,-6.1433464E-2,3.333333E-1,1.2857142E-1,-2.0632415E-1,-8.203755E-2,1.1421319E-1,-7.663455E-9,-1.972603E-1,2.8438663E-1,-1.03278704E-1,-1.0058057E-1,-1.8128116E-1,-9.4446264E-2,1.4516129E-1,2.4950495E-1,-1.321101E-1,-1.6721314E-1,1E-1,-1.1886794E-1,2.3788536E-2,3.2727274E-1,5.4961823E-2],"split_indices":[21,6,9,24,27,19,24,16,32,19,16,16,7,16,0,17,3,30,1,30,48,32,42,45,5,24,22,3,0,35,17,0,0,23,0,19,21,18,33,41,34,48,4,16,31,18,0,5,37,44,48,0,0,41,7,12,20,0,0,0,0,0,0,0,0,0,0,0,0,0,0,0,0,0,0,0,0,0,0,0,0,0,0,0,0,0,0,0,0,0,0,0,0,0,0,0,0,0,0,0,0,0,0],"split_type":[0,0,0,0,0,0,0,0,0,0,0,0,0,0,0,0,0,0,0,0,0,0,0,0,0,0,0,0,0,0,0,0,0,0,0,0,0,0,0,0,0,0,0,0,0,0,0,0,0,0,0,0,0,0,0,0,0,0,0,0,0,0,0,0,0,0,0,0,0,0,0,0,0,0,0,0,0,0,0,0,0,0,0,0,0,0,0,0,0,0,0,0,0,0,0,0,0,0,0,0,0,0,0],"sum_hessian":[1.9759999E3,9.7333325E2,1.0026666E3,2.351111E2,7.3822217E2,7.217777E2,2.808889E2,1.6222221E2,7.2888885E1,4.7511108E2,2.6311108E2,1.3288889E2,5.8888885E2,2.7599997E2,4.8888884E0,1.5644443E2,5.7777777E0,2.7999998E1,4.4888885E1,2.1422221E2,2.608889E2,1.9999998E2,6.3111107E1,8.977777E1,4.3111107E1,5.831111E2,5.7777777E0,8.933333E1,1.8666666E2,1.431111E2,1.3333332E1,4.444444E0,1.3333333E0,2.2222221E1,5.7777777E0,3.9999998E0,4.0888885E1,1.4133333E2,7.2888885E1,1.9422221E2,6.6666664E1,1.5288889E2,4.7111107E1,2.3555553E1,3.9555553E1,2.8444443E1,6.133333E1,8.444444E0,3.4666664E1,2.3066666E2,3.5244443E2,1.3333333E0,4.444444E0,2.1333332E1,6.799999E1,1.2666666E2,5.9999996E1,1.3955554E2,3.5555553E0,3.9999998E0,9.333333E0,1.5111111E1,7.1111107E0,1.3333333E0,2.6666665E0,3.9555553E1,1.3333333E0,5.4666664E1,8.6666664E1,5.9111107E1,1.3777777E1,1.24444435E2,6.977777E1,4.6666664E1,1.9999998E1,1.1511111E2,3.7777775E1,1.5999999E1,3.1111109E1,6.666666E0,1.6888887E1,3.1555553E1,7.9999995E0,1.3333333E0,2.7111109E1,4.0444443E1,2.0888887E1,1.3333333E0,7.1111107E0,2.8888887E1,5.7777777E0,7.555555E1,1.551111E2,3.4311108E2,9.333333E0,1.0222221E1,1.1111111E1,5.9999996E1,7.9999995E0,5.1999996E1,7.4666664E1,1.7333332E1,4.2666664E1],"tree_param":{"num_deleted":"0","num_feature":"50","num_nodes":"103","size_leaf_vector":"1"}},{"base_weights":[-2.3469909E-1,-5.159513E-1,2.2754931E-1,-6.672924E-1,-3.082675E-1,6.9071615E-1,4.7521044E-2,-7.399941E-1,-5.8435136E-1,-1.13479E-1,-4.3725565E-1,7.479316E-1,-2.0000003E-1,1.5811369E-1,-2.6798424E-1,-6.206898E-2,-2.2278559E-1,-4.525548E-1,-6.714682E-1,-3.7917092E-1,1.8060197E-1,3E-1,-4.5912862E-1,9.691817E-1,5.039727E-1,1.3856369E-3,3.913043E-1,-4.7051448E-1,7.5471655E-2,-5.406465E-1,-2.7149364E-2,-2.571429E-1,-6.93388E-1,-4.665154E-1,3.0769226E-1,4.474097E-1,-4.5724913E-1,3.333333E-1,-4.8133093E-1,1.0943134E0,5.371179E-1,3.0559537E-1,1.1968912E0,-2.4181968E-1,3.3224753E-1,6.642066E-1,4.1860424E-2,2.1724138E-1,-5.0965255E-1,6.745562E-1,-2.4605684E-1,-7.590363E-2,-1.8783614E-1,-1.2857145E-1,1.5773195E-1,-1.6941178E-1,2.1724138E-1,-7.663455E-9,-2.0948736E-1,-1.4810129E-1,2.5714284E-1,3.1304348E-1,-1.894737E-1,1.7999999E-1,-1.247525E-1,-1.9257645E-1,1.4693877E-1,-1.2000001E-1,3E-1,5.5900495E-3,-1.5334903E-1,3.4554747E-1,-1.07288365E-8,2.3370166E-1,-9.473686E-2,3.0173412E-1,2.1951208E-2,3.1034475E-2,3.9537573E-1,1.441989E-1,-1.0823314E-1,-9.729732E-2,1.4738254E-1,2.2948207E-1,-1.5652177E-1,1.9954751E-1,-8.3140895E-2,-2.1191138E-1,-9.952943E-2,-8.490568E-2,3.096E-1,-1.09090924E-1,3.1034482E-1],"categories":[],"categories_nodes":[],"categories_segments":[],"categories_sizes":[],"default_left":[0,0,0,0,0,0,0,0,0,0,0,0,0,0,0,0,0,0,0,0,0,0,0,0,0,0,0,0,0,0,0,0,0,0,0,0,0,0,0,0,0,0,0,0,0,0,0,0,0,0,0,0,0,0,0,0,0,0,0,0,0,0,0,0,0,0,0,0,0,0,0,0,0,0,0,0,0,0,0,0,0,0,0,0,0,0,0,0,0,0,0,0,0],"id":2,"left_children":[1,3,5,7,9,11,13,15,17,19,21,23,-1,25,27,-1,-1,29,31,33,35,-1,37,39,41,43,45,47,49,51,53,55,57,59,61,63,65,67,69,71,73,75,77,79,81,83,85,-1,87,89,91,-1,-1,-1,-1,-1,-1,-1,-1,-1,-1,-1,-1,-1,-1,-1,-1,-1,-1,-1,-1,-1,-1,-1,-1,-1,-1,-1,-1,-1,-1,-1,-1,-1,-1,-1,-1,-1,-1,-1,-1,-1,-1],"loss_changes":[2.5714392E2,3.8437073E1,6.2384075E1,3.850891E0,1.3018383E1,1.6764748E1,1.8888233E1,3.7068176E-1,3.5603638E0,1.6363955E1,1.0284943E1,1.0384712E1,0E0,1.4638766E1,9.812583E0,0E0,0E0,5.1193523E0,1.6431274E0,6.736183E0,1.716621E1,0E0,5.589325E0,5.06501E0,1.3089979E1,1.9437218E1,1.5325806E1,4.509598E0,1.0374984E1,2.630642E0,5.6755676E0,3.9299915E0,6.455841E-1,3.9417286E0,9.643373E0,9.572617E0,5.5417686E0,4.7999997E0,4.4923553E0,5.0418243E0,5.495387E0,1.2529734E1,2.7015533E0,1.2138819E1,1.0844268E1,1.1190731E1,1.4433824E1,0E0,2.786787E0,6.7193184E0,5.6794205E0,0E0,0E0,0E0,0E0,0E0,0E0,0E0,0E0,0E0,0E0,0E0,0E0,0E0,0E0,0E0,0E0,0E0,0E0,0E0,0E0,0E0,0E0,0E0,0E0,0E0,0E0,0E0,0E0,0E0,0E0,0E0,0E0,0E0,0E0,0E0,0E0,0E0,0E0,0E0,0E0,0E0,0E0],"parents":[2147483647,0,0,1,1,2,2,3,3,4,4,5,5,6,6,7,7,8,8,9,9,10,10,11,11,13,13,14,14,17,17,18,18,19,19,20,20,22,22,23,23,24,24,25,25,26,26,27,27,28,28,29,29,30,30,31,31,32,32,33,33,34,34,35,35,36,36,37,37,38,38,39,39,40,40,41,41,42,42,43,43,44,44,45,45,46,46,48,48,49,49,50,50],"right_children":[2,4,6,8,10,12,14,16,18,20,22,24,-1,26,28,-1,-1,30,32,34,36,-1,38,40,42,44,46,48,50,52,54,56,58,60,62,64,66,68,70,72,74,76,78,80,82,84,86,-1,88,90,92,-1,-1,-1,-1,-1,-1,-1,-1,-1,-1,-1,-1,-1,-1,-1,-1,-1,-1,-1,-1,-1,-1,-1,-1,-1,-1,-1,-1,-1,-1,-1,-1,-1,-1,-1,-1,-1,-1,-1,-1,-1,-1],"split_conditions":[1.1438836E-2,-4.4980115E-1,-8.535075E-1,-6.585981E-1,-5.1225996E-1,1.1253068E0,2.4912299E-1,-2.2164283E0,-3.0510005E-1,-3.0449808E-1,-1.5901437E0,-5.6068886E-2,-2.0000003E-1,2.3308909E-1,1.8955564E-2,-6.206898E-2,-2.2278559E-1,8.385656E-1,-1.4489084E0,7.431494E-1,-6.9895364E-2,3E-1,-1.1927447E0,1.8481159E0,9.927964E-2,2.9261887E-1,-4.983267E-1,-1.3084304E-1,-4.7977737E-1,-6.1943585E-1,-4.7060728E-1,-1.1921908E-1,-1.8600558E0,2.6211278E0,1.3666103E0,1.2090322E0,1.2838324E0,2.8404978E-1,-1.1160176E0,1.3431443E0,-2.1478084E-1,-1.1572881E0,7.680893E-1,-1.129366E0,1.7958125E-1,4.532988E-1,-5.684815E-1,2.1724138E-1,-1.3191696E-1,-3.5783634E-1,2.2092357E0,-7.590363E-2,-1.8783614E-1,-1.2857145E-1,1.5773195E-1,-1.6941178E-1,2.1724138E-1,-7.663455E-9,-2.0948736E-1,-1.4810129E-1,2.5714284E-1,3.1304348E-1,-1.894737E-1,1.7999999E-1,-1.247525E-1,-1.9257645E-1,1.4693877E-1,-1.2000001E-1,3E-1,5.5900495E-3,-1.5334903E-1,3.4554747E-1,-1.07288365E-8,2.3370166E-1,-9.473686E-2,3.0173412E-1,2.1951208E-2,3.1034475E-2,3.9537573E-1,1.441989E-1,-1.0823314E-1,-9.729732E-2,1.4738254E-1,2.2948207E-1,-1.5652177E-1,1.9954751E-1,-8.3140895E-2,-2.1191138E-1,-9.952943E-2,-8.490568E-2,3.096E-1,-1.09090924E-1,3.1034482E-1],"split_indices":[23,23,16,13,47,42,41,20,20,11,8,37,0,15,3,0,0,9,15,28,44,0,31,27,28,39,41,32,38,25,34,36,19,20,40,11,20,4,1,48,8,17,23,7,38,11,6,0,28,15,14,0,0,0,0,0,0,0,0,0,0,0,0,0,0,0,0,0,0,0,0,0,0,0,0,0,0,0,0,0,0,0,0,0,0,0,0,0,0,0,0,0,0],"split_type":[0,0,0,0,0,0,0,0,0,0,0,0,0,0,0,0,0,0,0,0,0,0,0,0,0,0,0,0,0,0,0,0,0,0,0,0,0,0,0,0,0,0,0,0,0,0,0,0,0,0,0,0,0,0,0,0,0,0,0,0,0,0,0,0,0,0,0,0,0,0,0,0,0,0,0,0,0,0,0,0,0,0,0,0,0,0,0,0,0,0,0,0,0],"sum_hessian":[1.9759999E3,1.2284443E3,7.475555E2,7.093333E2,5.191111E2,2.0844443E2,5.391111E2,3.7377774E2,3.3555554E2,2.0755554E2,3.1155554E2,2.0044443E2,7.9999995E0,3.9955554E2,1.3955554E2,2.222222E0,3.7155554E2,1.3599998E2,1.9955554E2,1.08888885E2,9.8666664E1,3.9999998E0,3.0755554E2,1.0355555E2,9.6888885E1,2.3955554E2,1.5999998E2,8.755555E1,5.1999996E1,1.12444435E2,2.3555553E1,1.0666666E1,1.8888887E2,9.6888885E1,1.1999999E1,6.977777E1,2.8888887E1,7.9999995E0,2.9955554E2,7.911111E1,2.4444443E1,7.644444E1,2.0444443E1,1.3822221E2,1.0133333E2,8.933333E1,7.0666664E1,2.222222E0,8.533333E1,1.7777777E1,3.422222E1,2.6666664E1,8.577777E1,1.3777777E1,9.777777E0,8.444444E0,2.222222E0,1.3333333E0,1.8755554E2,9.555555E1,1.3333333E0,6.666666E0,5.333333E0,5.9555553E1,1.0222221E1,2.4444443E1,4.444444E0,3.9999998E0,3.9999998E0,1.6888887E1,2.8266666E2,7.511111E1,3.9999998E0,1.911111E1,5.333333E0,1.8222221E1,5.8222218E1,2.222222E0,1.8222221E1,1.911111E1,1.1911111E2,1.9555553E1,8.177777E1,8.2666664E1,6.666666E0,2.3555553E1,4.7111107E1,3.9111107E1,4.622222E1,4.8888884E0,1.2888888E1,3.1999998E1,2.222222E0],"tree_param":{"num_deleted":"0","num_feature":"50","num_nodes":"93","size_leaf_vector":"1"}},{"base_weights":[1.9898328E-1,3.286209E-1,3.9114207E-2,5.5326325E-1,2.0079553E-1,-2.5091276E-1,1.2394556E-1,8.0643916E-1,3.6947867E-1,8.2431525E-2,5.060523E-1,1.7491174E-1,-3.532969E-1,2.3656872E-1,-4.1438967E-2,9.106921E-1,3.5187936E-1,4.9974155E-1,5.5221044E-2,-6.776675E-2,2.3310262E-1,7.377522E-2,6.3339984E-1,-1.06299974E-1,6.4474344E-1,-3.9346316E-1,6.353387E-1,1.7852034E-1,8.022194E-1,7.6123816E-1,-1.038848E-1,3.288145E-2,9.5030534E-1,-2.3625241E-4,9.2047966E-1,4.8063815E-2,6.091534E-1,-3.0131744E-2,3.4849352E-1,-2.1649677E-1,1.6291688E-1,2.8591862E-1,-2.4447963E-1,-1.4501409E-1,9.334509E-1,9.248262E-1,4.489801E-1,-3.7252146E-1,4.8091996E-1,-1.6116962E-1,9.6999234E-1,-2.3225987E-1,-5.300929E-1,3.115702E-1,-1.2783886E-1,4.7389433E-2,4.056373E-1,9.1311806E-1,-1.9861852E-1,3.8445324E-1,2.4565053E-1,-2.2035204E-1,2.4674685E-1,-1.2386369E-1,2.3485078E-1,-6.9171615E-2,2.9094082E-1,1.6484377E-1,-1.1283261E-1,-1.835106E-2,3.1441462E-1,2.1948545E-1,-6.395181E-2,2.2213049E-1,7.072974E-2,-5.9777323E-2,1.10676326E-1,-1.1837096E-1,5.831999E-2,1.672217E-1,-3.147587E-2,1.2804368E-1,1.1451601E-2,2.3954426E-1,-1.19307704E-1,6.5681994E-2,-1.6097099E-1,3.298592E-1,-1.0660695E-2,2.9003116E-1,-1.3853243E-1,1.8845566E-1,2.3772037E-2,-1.6696581E-1,1.9446449E-1,2.380055E-1,-1.4153533E-1,3.636242E-1,5.2034672E-2,2.558469E-3,-1.4080635E-1,-1.7630307E-1,1.16160855E-1,-2.3053451E-4,1.7892645E-1,4.9179967E-2,2.120612E-1,2.9382655E-1,-5.419604E-2,1.09590106E-1,-1.6459784E-1,-1.3207532E-1,2.5403106E-1,-2.0617098E-2,-1.2788017E-1,3.4351102E-1,4.1358802E-2],"categories":[],"categories_nodes":[],"categories_segments":[],"categories_sizes":[],"default_left":[0,0,0,0,0,0,0,0,0,0,0,0,0,0,0,0,0,0,0,0,0,0,0,0,0,0,0,0,0,0,0,0,0,0,0,0,0,0,0,0,0,0,0,0,0,0,0,0,0,0,0,0,0,0,0,0,0,0,0,0,0,0,0,0,0,0,0,0,0,0,0,0,0,0,0,0,0,0,0,0,0,0,0,0,0,0,0,0,0,0,0,0,0,0,0,0,0,0,0,0,0,0,0,0,0,0,0,0,0,0,0,0,0,0,0,0,0],"id":3,"left_children":[1,3,5,7,9,11,13,15,17,19,21,23,25,27,29,31,33,35,37,39,41,43,45,47,49,51,53,55,57,59,61,63,65,67,69,71,73,75,-1,77,79,81,83,85,87,89,91,93,95,-1,97,99,101,-1,-1,103,105,107,109,-1,111,113,115,-1,-1,-1,-1,-1,-1,-1,-1,-1,-1,-1,-1,-1,-1,-1,-1,-1,-1,-1,-1,-1,-1,-1,-1,-1,-1,-1,-1,-1,-1,-1,-1,-1,-1,-1,-1,-1,-1,-1,-1,-1,-1,-1,-1,-1,-1,-1,-1,-1,-1,-1,-1,-1,-1],"loss_changes":[4.188479E1,3.1940964E1,2.2331131E1,1.8511002E1,2.5719223E1,9.018803E0,1.3084118E1,7.696602E0,9.635784E0,1.1669617E1,1.0909157E1,5.41832E0,6.840046E0,1.3572802E1,1.4374909E1,4.7320633E0,6.6455193E0,8.211838E0,6.6738396E0,8.909764E0,6.560046E0,8.866471E0,7.839897E0,4.273234E0,6.403976E0,3.402979E0,3.3794496E0,1.1301891E1,4.4647274E0,5.2397585E0,1.08967495E1,2.646809E0,3.2404938E0,4.6485143E0,1.6537266E0,6.156562E0,6.4016457E0,4.5440326E0,0E0,1.1615143E1,1.0831947E1,8.086769E0,4.4978685E0,5.514062E0,1.5762358E0,3.853756E0,6.312006E0,3.8515105E0,2.935832E0,0E0,2.1725779E0,4.2984123E0,4.763422E0,0E0,0E0,6.4022474E0,1.0005272E1,2.7094383E0,1.1224521E0,0E0,5.1710176E0,6.2099266E0,6.3633757E0,0E0,0E0,0E0,0E0,0E0,0E0,0E0,0E0,0E0,0E0,0E0,0E0,0E0,0E0,0E0,0E0,0E0,0E0,0E0,0E0,0E0,0E0,0E0,0E0,0E0,0E0,0E0,0E0,0E0,0E0,0E0,0E0,0E0,0E0,0E0,0E0,0E0,0E0,0E0,0E0,0E0,0E0,0E0,0E0,0E0,0E0,0E0,0E0,0E0,0E0,0E0,0E0,0E0,0E0],"parents":[2147483647,0,0,1,1,2,2,3,3,4,4,5,5,6,6,7,7,8,8,9,9,10,10,11,11,12,12,13,13,14,14,15,15,16,16,17,17,18,18,19,19,20,20,21,21,22,22,23,23,24,24,25,25,26,26,27,27,28,28,29,29,30,30,31,31,32,32,33,33,34,34,35,35,36,36,37,37,39,39,40,40,41,41,42,42,43,43,44,44,45,45,46,46,47,47,48,48,50,50,51,51,52,52,55,55,56,56,57,57,58,58,60,60,61,61,62,62],"right_children":[2,4,6,8,10,12,14,16,18,20,22,24,26,28,30,32,34,36,38,40,42,44,46,48,50,52,54,56,58,60,62,64,66,68,70,72,74,76,-1,78,80,82,84,86,88,90,92,94,96,-1,98,100,102,-1,-1,104,106,108,110,-1,112,114,116,-1,-1,-1,-1,-1,-1,-1,-1,-1,-1,-1,-1,-1,-1,-1,-1,-1,-1,-1,-1,-1,-1,-1,-1,-1,-1,-1,-1,-1,-1,-1,-1,-1,-1,-1,-1,-1,-1,-1,-1,-1,-1,-1,-1,-1,-1,-1,-1,-1,-1,-1,-1,-1,-1],"split_conditions":[-1.3912916E-1,-4.4844398E-1,-7.437199E-1,-4.533122E-2,-3.2118026E-2,-7.997146E-1,9.692818E-2,5.684225E-1,-4.247189E-1,-2.3854318E-1,-7.068109E-1,2.2203891E-1,1.4837421E0,9.55778E-1,-1.2155925E0,-1.3109702E0,3.379456E-1,-3.588258E-1,2.545866E0,-1.311511E-1,8.993806E-1,1.3775614E-1,-3.4870666E-1,-7.8147477E-1,-1.1532096E0,1.32172E-1,1.2619318E0,1.0606809E-1,1.1984866E0,-7.922058E-3,6.706276E-1,5.3358245E-1,-1.6154896E0,-1.6572118E-1,-1.1442106E0,-2.6315668E-1,1.044232E0,-3.4983265E-1,3.4849352E-1,-7.689832E-2,4.1961443E-1,2.7377933E-1,-6.715237E-1,8.665423E-2,5.6531984E-1,1.5462643E0,-4.9097186E-1,1.5567715E0,-5.080329E-1,-1.6116962E-1,-3.336025E-1,-2.186216E-1,1.6933783E0,3.115702E-1,-1.2783886E-1,1.9307824E-2,-7.621771E-2,1.3700622E0,7.966885E-2,3.8445324E-1,3.8646287E-1,2.8635404E-1,-2.832107E-1,-1.2386369E-1,2.3485078E-1,-6.9171615E-2,2.9094082E-1,1.6484377E-1,-1.1283261E-1,-1.835106E-2,3.1441462E-1,2.1948545E-1,-6.395181E-2,2.2213049E-1,7.072974E-2,-5.9777323E-2,1.10676326E-1,-1.1837096E-1,5.831999E-2,1.672217E-1,-3.147587E-2,1.2804368E-1,1.1451601E-2,2.3954426E-1,-1.19307704E-1,6.5681994E-2,-1.6097099E-1,3.298592E-1,-1.0660695E-2,2.9003116E-1,-1.3853243E-1,1.8845566E-1,2.3772037E-2,-1.6696581E-1,1.9446449E-1,2.380055E-1,-1.4153533E-1,3.636242E-1,5.2034672E-2,2.558469E-3,-1.4080635E-1,-1.7630307E-1,1.16160855E-1,-2.3053451E-4,1.7892645E-1,4.9179967E-2,2.120612E-1,2.9382655E-1,-5.419604E-2,1.09590106E-1,-1.6459784E-1,-1.3207532E-1,2.5403106E-1,-2.0617098E-2,-1.2788017E-1,3.4351102E-1,4.1358802E-2],"split_indices":[23,6,10,18,21,6,15,3,23,44,19,19,22,42,18,18,12,20,18,42,3,46,43,20,16,3,17,41,34,3,19,14,14,22,29,40,22,27,0,20,30,16,22,10,4,37,23,49,24,0,5,27,48,0,0,15,27,17,8,0,11,5,4,0,0,0,0,0,0,0,0,0,0,0,0,0,0,0,0,0,0,0,0,0,0,0,0,0,0,0,0,0,0,0,0,0,0,0,0,0,0,0,0,0,0,0,0,0,0,0,0,0,0,0,0,0,0],"split_type":[0,0,0,0,0,0,0,0,0,0,0,0,0,0,0,0,0,0,0,0,0,0,0,0,0,0,0,0,0,0,0,0,0,0,0,0,0,0,0,0,0,0,0,0,0,0,0,0,0,0,0,0,0,0,0,0,0,0,0,0,0,0,0,0,0,0,0,0,0,0,0,0,0,0,0,0,0,0,0,0,0,0,0,0,0,0,0,0,0,0,0,0,0,0,0,0,0,0,0,0,0,0,0,0,0,0,0,0,0,0,0,0,0,0,0,0,0],"sum_hessian":[2.0205945E3,1.1152135E3,9.053809E2,4.0323456E2,7.11979E2,2.0444685E2,7.009341E2,1.6817456E2,2.3506001E2,5.139599E2,1.9801909E2,3.9491188E1,1.6495566E2,4.1672394E2,2.842101E2,1.359834E2,3.219115E1,1.6576044E2,6.929957E1,2.5765933E2,2.5630054E2,4.5420372E1,1.5259871E2,2.5188616E1,1.4302573E1,1.5909401E2,5.861653E0,3.791321E2,3.759182E1,1.9706963E1,2.6450314E2,5.9506207E0,1.3003278E2,2.049738E1,1.1693773E1,3.260376E1,1.3315668E2,6.523956E1,4.0600047E0,1.5669435E2,1.0096499E2,2.3114E2,2.5160547E1,3.686856E1,8.551813E0,5.758543E1,9.501328E1,1.7582878E1,7.6057386E0,2.945755E0,1.1356818E1,7.4222336E1,8.487167E1,4.263585E0,1.5980679E0,2.4112312E2,1.38009E2,3.392084E1,3.6709795E0,9.0695095E0,1.0637454E1,1.988304E2,6.567276E1,4.0141425E0,1.9364779E0,1.9362437E0,1.2809654E2,8.136227E0,1.2361152E1,1.4047382E0,1.0289035E1,8.517136E0,2.4086624E1,9.779081E1,3.536587E1,4.617178E1,1.9067785E1,1.0934606E2,4.73483E1,4.0391838E1,6.057315E1,1.4688414E2,8.425586E1,2.6832633E0,2.2477283E1,1.9336235E1,1.7532328E1,7.1855254E0,1.3662874E0,5.6188522E1,1.3969085E0,6.3525013E1,3.148827E1,1.5282338E1,2.3005388E0,5.8534203E0,1.7523183E0,8.309647E0,3.047172E0,3.730263E1,3.691971E1,8.01966E1,4.675068E0,2.2259683E2,1.852629E1,7.742712E1,6.0581886E1,3.2080677E1,1.8401636E0,1.3892665E0,2.281713E0,5.093351E0,5.5441027E0,1.152778E2,8.35526E1,6.071018E0,5.9601738E1],"tree_param":{"num_deleted":"0","num_feature":"50","num_nodes":"117","size_leaf_vector":"1"}},{"base_weights":[-1.9177973E-2,1.1401037E-1,-2.1826813E-1,-2.8522614E-1,2.131891E-1,-2.4632967E-1,4.35739E-1,2.5235292E-1,-3.6377653E-1,2.903246E-1,-2.223307E-1,-3.9060876E-1,-1.5112789E-1,5.910903E-1,-4.106605E-1,-1.8052986E-1,4.6374294E-1,4.2806208E-2,-4.4238126E-1,2.402343E-1,5.7359546E-1,1.1238248E-1,-3.8173118E-1,-4.1992193E-1,1.8647574E-1,-5.045461E-1,-7.144878E-2,-1.4862263E-1,8.432597E-1,-1.6586706E-1,1.4456821E-2,7.428989E-1,-3.464302E-1,-5.26244E-1,3.78874E-1,-4.943751E-1,1.9944084E-1,1.9551991E-1,5.446725E-1,1.8740892E-1,7.5645214E-1,-3.8974187E-1,3.622598E-1,2.535389E-1,-4.2510465E-1,-4.7413605E-1,-1.8057568E-1,3.2215708E-1,-9.3461506E-2,-1.5091872E-1,-6.100455E-1,1.494032E-1,-2.3143636E-1,2.1388035E-1,-1.823088E-1,9.8579276E-1,-1.3999338E-1,2.8551087E-1,-8.609792E-2,-1.74805E-1,6.644139E-2,2.863983E-2,-1.987937E-1,-1.22245915E-1,1.8331861E-1,-1.5313096E-1,1.7267391E-1,-6.921343E-2,2.917555E-1,-1.1531588E-1,6.780829E-2,2.0601709E-1,3.1069046E-2,-2.0777568E-2,1.9521807E-1,2.5767013E-1,1.7071245E-2,-1.6145277E-1,7.2458416E-2,4.5560624E-2,2.9312003E-1,-1.5967938E-1,-3.2320672E-3,-1.4911883E-1,6.0381953E-2,2.1462496E-1,-8.274268E-2,1.6966067E-1,-1.8708573E-1,-1.5885189E-1,1.920253E-1,-6.9523856E-2,-1.9980925E-1,9.7175516E-2,-1.1398967E-1,1.551542E-1,-8.4714696E-2,3.4444156E-1,-1.3372943E-1],"categories":[],"categories_nodes":[],"categories_segments":[],"categories_sizes":[],"default_left":[0,0,0,0,0,0,0,0,0,0,0,0,0,0,0,0,0,0,0,0,0,0,0,0,0,0,0,0,0,0,0,0,0,0,0,0,0,0,0,0,0,0,0,0,0,0,0,0,0,0,0,0,0,0,0,0,0,0,0,0,0,0,0,0,0,0,0,0,0,0,0,0,0,0,0,0,0,0,0,0,0,0,0,0,0,0,0,0,0,0,0,0,0,0,0,0,0,0,0],"id":4,"left_children":[1,3,5,7,9,11,13,15,17,19,21,23,25,27,29,-1,31,33,35,37,39,41,43,45,47,49,51,53,55,-1,-1,57,59,61,63,65,67,69,71,73,75,77,79,-1,81,83,85,-1,87,89,91,93,95,-1,-1,97,-1,-1,-1,-1,-1,-1,-1,-1,-1,-1,-1,-1,-1,-1,-1,-1,-1,-1,-1,-1,-1,-1,-1,-1,-1,-1,-1,-1,-1,-1,-1,-1,-1,-1,-1,-1,-1,-1,-1,-1,-1,-1,-1],"loss_changes":[5.1551754E1,4.6188213E1,1.440836E1,9.898634E0,3.14319E1,1.0212776E1,4.5057044E0,5.7315254E0,6.508013E0,1.1123566E1,7.5687227E0,5.0965576E0,1.2697046E1,5.3114634E0,3.9327556E-1,0E0,5.8599863E0,6.6644893E0,5.7794876E0,9.097477E0,8.228699E0,5.947547E0,5.4559727E0,3.5816574E0,3.8346527E0,3.0053043E0,1.3113155E1,3.5651758E0,4.3592024E0,0E0,0E0,4.3035345E0,1.0722837E0,1.1632135E0,4.235812E0,3.0049973E0,4.7036347E0,1.0544386E1,5.319435E0,4.732723E0,5.6927376E0,1.6159852E0,3.9155612E0,0E0,4.131153E0,3.658661E0,4.788746E0,0E0,4.6665897E0,6.4497647E0,1.1930065E0,1.4544322E1,8.347566E0,0E0,0E0,4.96381E0,0E0,0E0,0E0,0E0,0E0,0E0,0E0,0E0,0E0,0E0,0E0,0E0,0E0,0E0,0E0,0E0,0E0,0E0,0E0,0E0,0E0,0E0,0E0,0E0,0E0,0E0,0E0,0E0,0E0,0E0,0E0,0E0,0E0,0E0,0E0,0E0,0E0,0E0,0E0,0E0,0E0,0E0,0E0],"parents":[2147483647,0,0,1,1,2,2,3,3,4,4,5,5,6,6,7,7,8,8,9,9,10,10,11,11,12,12,13,13,14,14,16,16,17,17,18,18,19,19,20,20,21,21,22,22,23,23,24,24,25,25,26,26,27,27,28,28,31,31,32,32,33,33,34,34,35,35,36,36,37,37,38,38,39,39,40,40,41,41,42,42,44,44,45,45,46,46,48,48,49,49,50,50,51,51,52,52,55,55],"right_children":[2,4,6,8,10,12,14,16,18,20,22,24,26,28,30,-1,32,34,36,38,40,42,44,46,48,50,52,54,56,-1,-1,58,60,62,64,66,68,70,72,74,76,78,80,-1,82,84,86,-1,88,90,92,94,96,-1,-1,98,-1,-1,-1,-1,-1,-1,-1,-1,-1,-1,-1,-1,-1,-1,-1,-1,-1,-1,-1,-1,-1,-1,-1,-1,-1,-1,-1,-1,-1,-1,-1,-1,-1,-1,-1,-1,-1,-1,-1,-1,-1,-1,-1],"split_conditions":[-3.864559E-2,-8.162715E-1,1.2899935E0,-1.0922372E0,3.1434616E-1,-5.635928E-1,-8.676397E-2,-1.5794873E0,-3.2466877E-1,7.7113324E-1,-3.650649E-1,1.087442E0,-8.0301905E-1,-2.1996821E-1,3.2107398E-1,-1.8052986E-1,1.7538687E0,-4.287984E-1,1.323923E0,1.4061855E0,2.0532463E-2,-9.215877E-1,-1.5705068E0,8.124079E-1,-1.7534342E0,-7.2847825E-1,-1.8297593E-1,-4.505012E-1,-1.2504841E-1,-1.6586706E-1,1.4456821E-2,1.3415838E0,2.545866E0,-8.92155E-1,-1.1543158E0,3.918461E0,3.429571E-1,-1.1135184E0,3.5294473E-2,-1.7939378E-1,8.542123E-1,1.6447754E0,1.3502322E0,2.535389E-1,-1.4893027E-1,1.429628E0,-1.3477479E0,3.2215708E-1,-6.855471E-1,-9.805632E-1,-1.3892822E0,9.927964E-2,-1.10831E0,2.1388035E-1,-1.823088E-1,1.8884697E0,-1.3999338E-1,2.8551087E-1,-8.609792E-2,-1.74805E-1,6.644139E-2,2.863983E-2,-1.987937E-1,-1.22245915E-1,1.8331861E-1,-1.5313096E-1,1.7267391E-1,-6.921343E-2,2.917555E-1,-1.1531588E-1,6.780829E-2,2.0601709E-1,3.1069046E-2,-2.0777568E-2,1.9521807E-1,2.5767013E-1,1.7071245E-2,-1.6145277E-1,7.2458416E-2,4.5560624E-2,2.9312003E-1,-1.5967938E-1,-3.2320672E-3,-1.4911883E-1,6.0381953E-2,2.1462496E-1,-8.274268E-2,1.6966067E-1,-1.8708573E-1,-1.5885189E-1,1.920253E-1,-6.9523856E-2,-1.9980925E-1,9.7175516E-2,-1.1398967E-1,1.551542E-1,-8.4714696E-2,3.4444156E-1,-1.3372943E-1],"split_indices":[21,5,8,14,23,24,15,7,43,16,19,16,16,31,48,0,18,41,15,0,5,22,20,47,4,5,19,32,14,0,0,43,18,22,31,24,16,44,37,41,12,27,13,0,16,43,1,0,18,5,12,28,46,0,0,43,0,0,0,0,0,0,0,0,0,0,0,0,0,0,0,0,0,0,0,0,0,0,0,0,0,0,0,0,0,0,0,0,0,0,0,0,0,0,0,0,0,0,0],"split_type":[0,0,0,0,0,0,0,0,0,0,0,0,0,0,0,0,0,0,0,0,0,0,0,0,0,0,0,0,0,0,0,0,0,0,0,0,0,0,0,0,0,0,0,0,0,0,0,0,0,0,0,0,0,0,0,0,0,0,0,0,0,0,0,0,0,0,0,0,0,0,0,0,0,0,0,0,0,0,0,0,0,0,0,0,0,0,0,0,0,0,0,0,0,0,0,0,0,0,0],"sum_hessian":[1.9422013E3,1.163958E3,7.782432E2,2.3124057E2,9.3271747E2,7.468226E2,3.1420633E1,2.9198797E1,2.0204176E2,7.9266144E2,1.40056E2,2.956538E2,4.5116876E2,2.680279E1,4.6178436E0,5.4264746E0,2.3772322E1,3.280636E1,1.6923541E2,6.751278E2,1.1753365E2,4.5277054E1,9.4778946E1,2.8162112E2,1.4032697E1,8.202282E1,3.6914594E2,6.918551E0,1.988424E1,3.3687E0,1.2491435E0,1.7742086E1,6.0302353E0,1.1970798E1,2.083556E1,1.5676561E2,1.2469809E1,5.900992E2,8.502863E1,3.841901E1,7.911465E1,1.4858803E1,3.0418251E1,2.6051376E0,9.217381E1,2.2881212E2,5.2809002E1,2.6850896E0,1.1347607E1,1.9405922E1,6.2616898E1,1.5510298E2,2.1404297E2,2.2127771E0,4.705774E0,1.8156075E1,1.7281644E0,1.4814468E1,2.9276183E0,4.2402263E0,1.7900085E0,2.2078168E0,9.76298E0,4.577563E0,1.6257998E1,1.5496236E2,1.8032498E0,8.462635E0,4.0071735E0,2.8912691E1,5.6118646E2,6.3895462E1,2.1133171E1,2.527034E1,1.3148671E1,6.880972E1,1.0304924E1,1.2149496E1,2.7093072E0,2.3591948E1,6.8263044E0,7.300709E1,1.9166723E1,2.215555E2,7.2566113E0,4.448019E0,4.8360985E1,5.029322E0,6.318285E0,1.3347953E1,6.0579686E0,8.734726E0,5.388217E1,1.169399E2,3.8163074E1,1.3055115E1,2.0098785E2,1.6484617E1,1.6714581E0],"tree_param":{"num_deleted":"0","num_feature":"50","num_nodes":"99","size_leaf_vector":"1"}},{"base_weights":[-1.9418646E-1,-4.6891415E-1,1.542046E-1,-5.95017E-1,-2.791896E-1,5.1872534E-1,2.0433063E-2,-6.7083734E-1,-5.1077044E-1,-1.2474409E-1,-4.2371556E-1,5.5821025E-1,-1.8018767E-1,1.15505606E-1,-2.5059927E-1,-5.3177178E-2,-6.735325E-1,-3.7883025E-1,-6.006262E-1,1.1100123E-2,-4.234341E-1,2.9319343E-1,-4.5360976E-1,6.11101E-2,6.151816E-1,1.8067881E-1,-2.7522627E-1,-3.0689344E-1,7.2135645E-1,-2.0389906E-1,-4.9066067E-1,-4.6357355E-1,4.621193E-7,-2.1228206E-1,-6.2267137E-1,-2.4048941E-1,2.4071069E-1,-5.922563E-1,1.0560025E-1,2.707112E-1,-4.6600387E-1,-3.7254587E-1,6.01561E-1,8.351311E-1,4.298689E-1,2.1552257E-1,-5.7637453E-1,-3.8423756E-1,2.8217232E-1,-5.2189285E-1,-1.386559E-1,-6.548273E-2,3.1930465E-1,1.7314784E-1,-1.8844812E-1,-5.4411482E-2,-1.655395E-1,-1.0964207E-1,1.3570896E-1,-1.5135463E-1,1.813065E-1,1.0523824E-2,-1.8837012E-1,6.2225375E-2,-1.5123197E-1,1.1548745E-1,-9.819852E-2,-1.889369E-1,1.2987784E-1,3.3934146E-1,-9.93538E-2,-1.5783598E-1,-4.077576E-2,-2.159424E-1,2.6395735E-1,-1.6315478E-1,2.7311155E-1,5.716921E-2,2.7424818E-1,2.7951654E-2,1.8758188E-1,3.3237662E-2,1.5961114E-1,1.19190946E-1,-2.05471E-1,1.7445028E-1,-1.3908334E-1,1.8880631E-1,-1.7670506E-1,9.860564E-2,-1.20612375E-1],"categories":[],"categories_nodes":[],"categories_segments":[],"categories_sizes":[],"default_left":[0,0,0,0,0,0,0,0,0,0,0,0,0,0,0,0,0,0,0,0,0,0,0,0,0,0,0,0,0,0,0,0,0,0,0,0,0,0,0,0,0,0,0,0,0,0,0,0,0,0,0,0,0,0,0,0,0,0,0,0,0,0,0,0,0,0,0,0,0,0,0,0,0,0,0,0,0,0,0,0,0,0,0,0,0,0,0,0,0,0,0],"id":5,"left_children":[1,3,5,7,9,11,13,15,17,19,21,23,-1,25,27,-1,29,31,33,35,37,-1,39,41,43,45,47,49,51,-1,53,55,57,59,61,63,65,67,69,-1,71,73,75,77,79,81,83,85,-1,87,89,-1,-1,-1,-1,-1,-1,-1,-1,-1,-1,-1,-1,-1,-1,-1,-1,-1,-1,-1,-1,-1,-1,-1,-1,-1,-1,-1,-1,-1,-1,-1,-1,-1,-1,-1,-1,-1,-1,-1,-1],"loss_changes":[1.7997581E2,2.4982666E1,4.043599E1,3.6852112E0,9.357586E0,1.017524E1,1.56912155E1,3.1785583E-1,3.3632584E0,8.33147E0,9.547371E0,6.0674057E0,0E0,1.1526035E1,8.875149E0,0E0,3.262329E-2,4.0261726E0,1.3956985E0,8.2630205E0,5.7946997E0,0E0,4.0088425E0,5.679232E0,7.5195084E0,1.0328641E1,8.952452E0,5.3605947E0,3.119145E0,0E0,2.445831E0,2.4515572E0,4.120935E0,2.9548824E0,6.010742E-1,8.16619E0,6.2518716E0,2.1506252E0,7.7095222E0,0E0,4.1400146E0,6.5182605E0,4.295562E0,4.274143E0,6.9793205E0,1.2224348E1,2.0995507E0,4.883917E0,0E0,5.438141E0,1.0671996E1,0E0,0E0,0E0,0E0,0E0,0E0,0E0,0E0,0E0,0E0,0E0,0E0,0E0,0E0,0E0,0E0,0E0,0E0,0E0,0E0,0E0,0E0,0E0,0E0,0E0,0E0,0E0,0E0,0E0,0E0,0E0,0E0,0E0,0E0,0E0,0E0,0E0,0E0,0E0,0E0],"parents":[2147483647,0,0,1,1,2,2,3,3,4,4,5,5,6,6,7,7,8,8,9,9,10,10,11,11,13,13,14,14,16,16,17,17,18,18,19,19,20,20,22,22,23,23,24,24,25,25,26,26,27,27,28,28,30,30,31,31,32,32,33,33,34,34,35,35,36,36,37,37,38,38,40,40,41,41,42,42,43,43,44,44,45,45,46,46,47,47,49,49,50,50],"right_children":[2,4,6,8,10,12,14,16,18,20,22,24,-1,26,28,-1,30,32,34,36,38,-1,40,42,44,46,48,50,52,-1,54,56,58,60,62,64,66,68,70,-1,72,74,76,78,80,82,84,86,-1,88,90,-1,-1,-1,-1,-1,-1,-1,-1,-1,-1,-1,-1,-1,-1,-1,-1,-1,-1,-1,-1,-1,-1,-1,-1,-1,-1,-1,-1,-1,-1,-1,-1,-1,-1,-1,-1,-1,-1,-1,-1],"split_conditions":[-7.238569E-2,-4.4980115E-1,-8.535075E-1,-6.585981E-1,-3.1938946E-1,1.1253068E0,2.4912299E-1,-2.2164283E0,-3.0510005E-1,3.2439406E-3,-1.5901437E0,-1.3715663E0,-1.8018767E-1,8.9598376E-1,1.7695006E0,-5.3177178E-2,1.7744577E0,8.385656E-1,-1.4489084E0,-3.319763E-1,-1.0388428E-1,2.9319343E-1,-1.6582993E0,4.8434892E-1,-5.399879E-1,1.4536633E0,2.5627795E-1,-1.52561E-1,-3.2988465E-1,-2.0389906E-1,-1.3270733E0,-6.1943585E-1,-4.7060728E-1,-1.1921908E-1,-1.8600558E0,-4.5777965E-1,5.8203506E-1,2.3608108E0,-1.1244335E0,2.707112E-1,8.575454E-1,3.9810523E-1,-5.138292E-1,-1.1937557E0,-4.8068818E-1,-1.3876158E-1,-1.4800341E-1,-1.0852771E0,2.8217232E-1,-1.4854375E0,2.0576972E-1,-6.548273E-2,3.1930465E-1,1.7314784E-1,-1.8844812E-1,-5.4411482E-2,-1.655395E-1,-1.0964207E-1,1.3570896E-1,-1.5135463E-1,1.813065E-1,1.0523824E-2,-1.8837012E-1,6.2225375E-2,-1.5123197E-1,1.1548745E-1,-9.819852E-2,-1.889369E-1,1.2987784E-1,3.3934146E-1,-9.93538E-2,-1.5783598E-1,-4.077576E-2,-2.159424E-1,2.6395735E-1,-1.6315478E-1,2.7311155E-1,5.716921E-2,2.7424818E-1,2.7951654E-2,1.8758188E-1,3.3237662E-2,1.5961114E-1,1.19190946E-1,-2.05471E-1,1.7445028E-1,-1.3908334E-1,1.8880631E-1,-1.7670506E-1,9.860564E-2,-1.20612375E-1],"split_indices":[13,23,16,13,47,42,41,20,20,44,8,9,0,47,14,0,12,9,15,21,31,0,37,3,8,37,29,28,15,0,10,25,34,36,19,25,6,21,2,0,18,12,0,5,49,40,31,45,0,42,28,0,0,0,0,0,0,0,0,0,0,0,0,0,0,0,0,0,0,0,0,0,0,0,0,0,0,0,0,0,0,0,0,0,0,0,0,0,0,0,0],"split_type":[0,0,0,0,0,0,0,0,0,0,0,0,0,0,0,0,0,0,0,0,0,0,0,0,0,0,0,0,0,0,0,0,0,0,0,0,0,0,0,0,0,0,0,0,0,0,0,0,0,0,0,0,0,0,0,0,0,0,0,0,0,0,0,0,0,0,0,0,0,0,0,0,0,0,0,0,0,0,0,0,0,0,0,0,0,0,0,0,0,0,0],"sum_hessian":[1.8786205E3,1.0501594E3,8.28461E2,6.2957086E2,4.2058856E2,2.2163611E2,6.068249E2,3.2769174E2,3.0187912E2,2.0421764E2,2.1637094E2,2.1456854E2,7.0675693E0,4.496654E2,1.571595E2,2.1422248E0,3.2554953E2,1.24412796E2,1.7746634E2,1.410369E2,6.318074E1,3.8582242E0,2.1251271E2,2.227571E1,1.9229283E2,3.858449E2,6.382049E1,1.492022E2,7.9573116E0,3.1236066E2,1.3188881E1,1.014868E2,2.2925991E1,1.0104093E1,1.6736224E2,6.727489E1,7.376201E1,4.7805756E1,1.5374985E1,1.2744548E0,2.1123827E2,1.2531307E1,9.744402E0,8.632556E1,1.0596726E2,3.6955145E2,1.6293472E1,5.9196747E1,4.623744E0,6.45756E1,8.4626595E1,2.2251363E0,5.7321754E0,1.1397865E0,1.2049094E1,2.4898985E1,7.6587814E1,1.278709E1,1.01389E1,7.7227225E0,2.3813705E0,1.2749672E0,1.6608728E2,2.500408E1,4.227081E1,5.9081257E1,1.468075E1,4.6489395E1,1.3163608E0,4.1175194E0,1.1257466E1,1.7819157E2,3.3046684E1,1.0143901E1,2.3874063E0,1.9076453E0,7.8367567E0,9.800853E0,7.652471E1,3.945683E1,6.651044E1,2.7868753E2,9.086391E1,1.3671471E0,1.4926325E1,4.0153856E0,5.5181362E1,3.096218E0,6.147938E1,3.04137E1,5.4212894E1],"tree_param":{"num_deleted":"0","num_feature":"50","num_nodes":"91","size_leaf_vector":"1"}},{"base_weights":[1.557575E-1,-1.380303E-1,2.0230038E-1,2.4783385E-1,-1.9765995E-1,2.955235E-1,7.282195E-2,9.768669E-1,7.6113984E-2,-2.5397274E-1,1.8081686E-1,4.3917805E-1,2.1711978E-1,2.1758734E-1,-1.8536867E-1,3.3506125E-1,7.4909516E-2,-1.9121219E-1,6.3475305E-1,-1.296432E-1,-4.3065837E-1,4.8028335E-1,-4.161953E-1,1.7408077E-1,5.579662E-1,7.408331E-2,3.4185344E-1,2.76442E-1,-1.0408014E-1,-2.5727534E-1,1.4219607E-1,-1.9638038E-1,1.7421831E-1,8.7071043E-1,-1.2625234E-1,-2.198255E-1,5.394127E-1,-4.674046E-1,4.8680982E-1,-1.7342836E-1,6.490462E-1,-1.9688167E-1,1.6213994E-1,5.3308256E-2,5.9127307E-1,5.920196E-1,-1.551879E-1,-8.955768E-2,2.456806E-1,4.0099186E-1,-1.1343069E-1,3.6378688E-1,4.838229E-3,-3.5526523E-1,2.8583387E-1,-3.838924E-1,-2.9647215E-3,4.5433643E-1,-4.7316152E-1,1.2630121E-1,-1.7223263E-1,2.9449406E-1,5.8478534E-2,1.050078E-1,-8.732895E-2,-1.3958281E-1,2.2535329E-1,-1.7471665E-1,-8.098197E-2,2.313643E-1,-1.1767028E-3,1.3917163E-1,-1.4854708E-1,-1.4283665E-1,2.4028644E-1,3.9058294E-2,-1.8258843E-1,2.578467E-1,-1.0036857E-2,1.0438711E-1,2.1026585E-1,-1.2226776E-1,1.8626706E-1,1.0672597E-1,-5.045645E-2,-5.7742164E-2,1.1032782E-1,-8.267301E-2,1.2972979E-1,-7.266815E-2,2.3096229E-1,1.81849E-1,8.1178784E-2,-1.1286778E-1,7.388052E-2,1.2298837E-1,-1.559937E-1,2.618286E-1,-1.13094434E-1,-1.3185063E-1,3.1045668E-2,2.4739711E-1,-3.8486302E-2,-7.924337E-3,2.2426556E-1,1.07916825E-1,-1.876197E-1],"categories":[],"categories_nodes":[],"categories_segments":[],"categories_sizes":[],"default_left":[0,0,0,0,0,0,0,0,0,0,0,0,0,0,0,0,0,0,0,0,0,0,0,0,0,0,0,0,0,0,0,0,0,0,0,0,0,0,0,0,0,0,0,0,0,0,0,0,0,0,0,0,0,0,0,0,0,0,0,0,0,0,0,0,0,0,0,0,0,0,0,0,0,0,0,0,0,0,0,0,0,0,0,0,0,0,0,0,0,0,0,0,0,0,0,0,0,0,0,0,0,0,0,0,0,0,0],"id":6,"left_children":[1,3,5,7,9,11,13,15,17,19,21,23,25,27,29,-1,-1,31,33,35,37,39,41,43,45,47,49,51,53,55,57,-1,59,61,-1,63,65,67,69,71,73,-1,-1,75,77,79,81,83,85,87,89,91,93,95,97,99,101,103,105,-1,-1,-1,-1,-1,-1,-1,-1,-1,-1,-1,-1,-1,-1,-1,-1,-1,-1,-1,-1,-1,-1,-1,-1,-1,-1,-1,-1,-1,-1,-1,-1,-1,-1,-1,-1,-1,-1,-1,-1,-1,-1,-1,-1,-1,-1,-1,-1],"loss_changes":[2.7615833E1,6.411299E0,2.100592E1,4.614666E0,5.1623306E0,1.1308601E1,2.7346483E1,4.3946457E-1,4.8105183E0,4.543745E0,5.8630867E0,1.1129715E1,1.1696402E1,8.899364E0,6.2312994E0,0E0,0E0,3.840355E0,2.9553204E0,7.6203737E0,3.128644E0,2.490996E0,2.9079676E0,5.6001863E0,6.0598526E0,8.651653E0,9.487305E0,9.401213E0,7.2705727E0,6.9545403E0,9.431865E0,0E0,2.659651E0,4.69944E-1,0E0,4.580544E0,3.5531368E0,1.7329655E0,5.338848E-1,1.2985833E0,3.3462038E0,0E0,0E0,4.5466304E0,4.2167664E0,5.9935303E0,2.601784E0,5.5935926E0,8.109179E0,6.7257843E0,4.86152E0,6.609886E0,9.05922E0,5.8806357E0,1.1701494E1,3.9538689E0,7.657552E0,4.5794067E0,2.334705E0,0E0,0E0,0E0,0E0,0E0,0E0,0E0,0E0,0E0,0E0,0E0,0E0,0E0,0E0,0E0,0E0,0E0,0E0,0E0,0E0,0E0,0E0,0E0,0E0,0E0,0E0,0E0,0E0,0E0,0E0,0E0,0E0,0E0,0E0,0E0,0E0,0E0,0E0,0E0,0E0,0E0,0E0,0E0,0E0,0E0,0E0,0E0,0E0],"parents":[2147483647,0,0,1,1,2,2,3,3,4,4,5,5,6,6,7,7,8,8,9,9,10,10,11,11,12,12,13,13,14,14,17,17,18,18,19,19,20,20,21,21,22,22,23,23,24,24,25,25,26,26,27,27,28,28,29,29,30,30,32,32,33,33,35,35,36,36,37,37,38,38,39,39,40,40,43,43,44,44,45,45,46,46,47,47,48,48,49,49,50,50,51,51,52,52,53,53,54,54,55,55,56,56,57,57,58,58],"right_children":[2,4,6,8,10,12,14,16,18,20,22,24,26,28,30,-1,-1,32,34,36,38,40,42,44,46,48,50,52,54,56,58,-1,60,62,-1,64,66,68,70,72,74,-1,-1,76,78,80,82,84,86,88,90,92,94,96,98,100,102,104,106,-1,-1,-1,-1,-1,-1,-1,-1,-1,-1,-1,-1,-1,-1,-1,-1,-1,-1,-1,-1,-1,-1,-1,-1,-1,-1,-1,-1,-1,-1,-1,-1,-1,-1,-1,-1,-1,-1,-1,-1,-1,-1,-1,-1,-1,-1,-1,-1],"split_conditions":[-6.7713886E-1,3.938095E-1,2.2948465E-1,-8.924803E-1,5.063308E-1,-4.957924E-1,3.5816887E-1,1.9486307E-1,1.5701115E-1,6.293621E-2,2.93627E-1,-5.3364495E-3,-6.505637E-2,4.8689336E-1,5.5419046E-1,3.3506125E-1,7.4909516E-2,-1.1513917E-1,8.7582546E-1,2.1969207E-1,1.6233268E0,-1.1899847E0,1.1708959E0,5.421051E-1,1.4522257E0,-1.7388038E-1,1.0090102E0,3.711087E-1,4.6516064E-1,-1.12514675E-1,2.4605164E-1,-1.9638038E-1,7.2147626E-1,1.5529248E-2,-1.2625234E-1,-6.223769E-1,-1.9517233E0,4.0028545E-1,-1.5656561E0,4.7208652E-1,-9.2168486E-1,-1.9688167E-1,1.6213994E-1,1.2854275E0,9.341062E-1,-3.7640837E-1,2.7855053E0,-1.0367968E0,-3.6110657E-1,-1.0922372E0,1.5214039E0,-9.538115E-1,-6.561936E-1,-1.0915098E0,6.0105745E-2,5.4195875E-1,-2.9281148E-1,6.293621E-2,-6.0321546E-1,1.2630121E-1,-1.7223263E-1,2.9449406E-1,5.8478534E-2,1.050078E-1,-8.732895E-2,-1.3958281E-1,2.2535329E-1,-1.7471665E-1,-8.098197E-2,2.313643E-1,-1.1767028E-3,1.3917163E-1,-1.4854708E-1,-1.4283665E-1,2.4028644E-1,3.9058294E-2,-1.8258843E-1,2.578467E-1,-1.0036857E-2,1.0438711E-1,2.1026585E-1,-1.2226776E-1,1.8626706E-1,1.0672597E-1,-5.045645E-2,-5.7742164E-2,1.1032782E-1,-8.267301E-2,1.2972979E-1,-7.266815E-2,2.3096229E-1,1.81849E-1,8.1178784E-2,-1.1286778E-1,7.388052E-2,1.2298837E-1,-1.559937E-1,2.618286E-1,-1.13094434E-1,-1.3185063E-1,3.1045668E-2,2.4739711E-1,-3.8486302E-2,-7.924337E-3,2.2426556E-1,1.07916825E-1,-1.876197E-1],"split_indices":[16,23,15,6,37,23,0,30,37,7,18,16,19,14,10,0,0,4,46,5,18,10,25,36,17,41,18,24,44,30,16,0,35,8,0,39,10,14,14,14,29,0,0,48,9,8,8,33,11,14,30,5,14,6,37,19,40,7,24,0,0,0,0,0,0,0,0,0,0,0,0,0,0,0,0,0,0,0,0,0,0,0,0,0,0,0,0,0,0,0,0,0,0,0,0,0,0,0,0,0,0,0,0,0,0,0,0],"split_type":[0,0,0,0,0,0,0,0,0,0,0,0,0,0,0,0,0,0,0,0,0,0,0,0,0,0,0,0,0,0,0,0,0,0,0,0,0,0,0,0,0,0,0,0,0,0,0,0,0,0,0,0,0,0,0,0,0,0,0,0,0,0,0,0,0,0,0,0,0,0,0,0,0,0,0,0,0,0,0,0,0,0,0,0,0,0,0,0,0,0,0,0,0,0,0,0,0,0,0,0,0,0,0,0,0,0,0],"sum_hessian":[2.016584E3,2.755148E2,1.7410692E3,3.645538E1,2.3905943E2,1.0115102E3,7.29559E2,6.0560064E0,3.0399372E1,2.0838344E2,3.0675987E1,3.5551645E2,6.559937E2,4.6755948E2,2.6199954E2,4.628878E0,1.4271288E0,2.1005367E1,9.394005E0,1.2333163E2,8.505182E1,2.0558958E1,1.011703E1,1.1077265E2,2.447438E2,3.063199E2,3.4967383E2,3.953618E2,7.21977E1,2.1501439E2,4.6985157E1,8.912473E0,1.2092895E1,7.8209343E0,1.57307E0,1.0927398E2,1.4057643E1,8.2248184E1,2.8036354E0,4.2128024E0,1.6346155E1,8.338467E0,1.778563E0,8.67789E1,2.3993748E1,2.3375189E2,1.0991914E1,1.5703964E2,1.4928024E2,3.095806E2,4.0093235E1,2.9889948E2,9.6462296E1,4.3964413E1,2.8233292E1,1.4320529E2,7.180909E1,3.134637E1,1.5638787E1,9.422814E0,2.6700802E0,6.329306E0,1.4916284E0,1.1712751E1,9.7561226E1,2.2388072E0,1.1818836E1,5.0748104E1,3.1500082E1,1.4131081E0,1.3905272E0,1.2649877E0,2.947815E0,1.6905068E0,1.4655648E1,7.846791E1,8.31099E0,1.6523787E1,7.4699607E0,7.339879E1,1.603531E2,8.652932E0,2.3389819E0,2.30388E1,1.3400085E2,3.240357E1,1.1687668E2,1.3402805E1,2.961778E2,3.5624523E1,4.4687114E0,8.147915E1,2.1742033E2,3.71957E1,5.9266594E1,7.523384E0,3.644103E1,1.4805847E1,1.34274435E1,1.286272E2,1.4578094E1,8.709837E0,6.309925E1,1.2220223E1,1.9126148E1,2.206148E0,1.3432639E1],"tree_param":{"num_deleted":"0","num_feature":"50","num_nodes":"107","size_leaf_vector":"1"}},{"base_weights":[-1.23738E-2,1.1621478E-1,-1.4926352E-1,-2.0806979E-1,2.05162E-1,-2.1365327E-1,6.901514E-3,-3.3465275E-1,5.2659962E-2,3.1739637E-1,-1.1922142E-2,2.4390915E-1,-2.4284913E-1,1.278723E-1,-2.1482494E-1,-3.7683812E-1,5.315251E-1,2.1870975E-1,-4.7907808E-1,2.0859098E-1,4.883837E-1,6.3239837E-1,-7.064695E-2,4.8920026E-1,-4.6400848E-1,-3.8472012E-1,-1.6035455E-1,-1.8325047E-1,1.7777237E-1,-3.439441E-1,1.6165784E-1,-4.2147723E-1,1.8472284E-1,2.372636E-1,-1.1574784E-1,5.9209937E-1,-6.839768E-2,1.3336252E-1,-5.8392346E-1,-5.5903596E-1,2.4854854E-1,-3.6756936E-1,5.241626E-1,-5.778796E-2,3.2019943E-1,-2.4208324E-1,1.2676713E-1,-2.4712498E-1,7.102279E-1,1.0598188E-1,-1.875129E-1,2.1993737E-1,-3.9905098E-1,-3.7230617E-1,-7.0538215E-2,2.4362732E-1,-3.2540447E-1,-4.1234604E-1,4.1539174E-1,6.816721E-1,-3.706967E-1,-1.4445035E-1,-1.3118203E-2,-6.9146305E-2,2.927826E-1,2.4390209E-1,-6.855763E-2,1.4168228E-1,-9.4823025E-2,-9.133243E-3,-1.8977772E-1,-2.0260802E-1,6.5108575E-2,1.8492734E-1,3.9953716E-2,2.0708863E-1,-2.0656843E-1,1.8465161E-1,8.396118E-2,-1.3359156E-1,1.4119974E-1,-1.1500871E-1,5.5225585E-2,6.684458E-3,2.3725079E-1,1.4357063E-1,-1.4013083E-1,2.393504E-1,-1.3066931E-1,8.119446E-2,-1.2662233E-1,2.3261958E-3,-1.4146072E-1,-6.1491594E-2,4.058749E-2,1.8052682E-1,3.4551132E-2,1.5388466E-1,-1.6263959E-1,-1.3708965E-1,1.6347374E-1,3.0287933E-1,-8.9786515E-2,-1.3597898E-1,2.6638806E-1,-1.9066556E-1,1.6763774E-1],"categories":[],"categories_nodes":[],"categories_segments":[],"categories_sizes":[],"default_left":[0,0,0,0,0,0,0,0,0,0,0,0,0,0,0,0,0,0,0,0,0,0,0,0,0,0,0,0,0,0,0,0,0,0,0,0,0,0,0,0,0,0,0,0,0,0,0,0,0,0,0,0,0,0,0,0,0,0,0,0,0,0,0,0,0,0,0,0,0,0,0,0,0,0,0,0,0,0,0,0,0,0,0,0,0,0,0,0,0,0,0,0,0,0,0,0,0,0,0,0,0,0,0,0,0,0,0],"id":7,"left_children":[1,3,5,7,9,11,13,15,17,19,21,23,25,27,29,31,33,35,37,39,41,43,45,47,49,51,53,-1,55,57,59,61,63,-1,-1,65,67,-1,69,71,73,75,77,79,-1,81,83,85,87,-1,-1,-1,89,91,93,95,97,99,101,103,105,-1,-1,-1,-1,-1,-1,-1,-1,-1,-1,-1,-1,-1,-1,-1,-1,-1,-1,-1,-1,-1,-1,-1,-1,-1,-1,-1,-1,-1,-1,-1,-1,-1,-1,-1,-1,-1,-1,-1,-1,-1,-1,-1,-1,-1,-1],"loss_changes":[3.3394382E1,2.826059E1,9.241119E0,6.983779E0,1.8720829E1,8.751133E0,7.2488246E0,5.397155E0,6.271906E0,9.320076E0,9.98756E0,7.0902843E0,7.102295E0,6.5526724E0,4.693572E0,3.4921513E0,1.9752976E0,5.8200483E0,1.8994794E0,9.685475E0,6.2012215E0,6.680788E0,8.211708E0,5.0319986E0,1.6269593E0,3.886551E0,7.374645E0,0E0,5.531299E0,3.8779306E0,7.1861453E0,2.8467255E0,3.7483432E0,0E0,0E0,4.452875E0,4.350652E0,0E0,4.0205193E-1,1.5645471E0,1.2503267E1,3.3479774E0,4.0392838E0,2.1494076E0,0E0,7.8808417E0,7.8235016E0,1.441766E0,2.677229E0,0E0,0E0,0E0,3.539608E0,4.358677E0,7.6175427E0,6.650131E0,3.815602E0,3.066677E0,3.0181108E0,3.4512262E0,3.5613294E0,0E0,0E0,0E0,0E0,0E0,0E0,0E0,0E0,0E0,0E0,0E0,0E0,0E0,0E0,0E0,0E0,0E0,0E0,0E0,0E0,0E0,0E0,0E0,0E0,0E0,0E0,0E0,0E0,0E0,0E0,0E0,0E0,0E0,0E0,0E0,0E0,0E0,0E0,0E0,0E0,0E0,0E0,0E0,0E0,0E0,0E0],"parents":[2147483647,0,0,1,1,2,2,3,3,4,4,5,5,6,6,7,7,8,8,9,9,10,10,11,11,12,12,13,13,14,14,15,15,16,16,17,17,18,18,19,19,20,20,21,21,22,22,23,23,24,24,25,25,26,26,28,28,29,29,30,30,31,31,32,32,35,35,36,36,38,38,39,39,40,40,41,41,42,42,43,43,45,45,46,46,47,47,48,48,52,52,53,53,54,54,55,55,56,56,57,57,58,58,59,59,60,60],"right_children":[2,4,6,8,10,12,14,16,18,20,22,24,26,28,30,32,34,36,38,40,42,44,46,48,50,52,54,-1,56,58,60,62,64,-1,-1,66,68,-1,70,72,74,76,78,80,-1,82,84,86,88,-1,-1,-1,90,92,94,96,98,100,102,104,106,-1,-1,-1,-1,-1,-1,-1,-1,-1,-1,-1,-1,-1,-1,-1,-1,-1,-1,-1,-1,-1,-1,-1,-1,-1,-1,-1,-1,-1,-1,-1,-1,-1,-1,-1,-1,-1,-1,-1,-1,-1,-1,-1,-1,-1,-1],"split_conditions":[-2.5779986E-1,-8.221871E-1,6.506098E-2,-5.02682E-1,-4.1719854E-1,-1.2512654E0,-4.7729246E-2,1.7650616E0,1.3165927E0,2.752736E-1,-1.4111776E0,1.5360162E-1,-5.71374E-1,-1.2172623E0,1.0216095E0,1.1237262E0,-2.7863333E-1,-1.3896702E-1,-7.0464295E-1,-1.15197E0,-9.4900435E-1,6.839288E-1,-5.026751E-1,-4.581944E-1,-1.7654835E0,-1.7774487E0,-4.2364177E-1,-1.8325047E-1,7.497191E-1,8.0396587E-1,1.02235526E-1,9.1221064E-1,-5.370436E-1,2.372636E-1,-1.1574784E-1,1.5431066E-1,-3.6042616E-1,1.3336252E-1,-8.5337913E-1,-8.5856396E-1,-3.168906E-1,-5.191514E-1,6.0699735E-2,-3.059523E-1,3.2019943E-1,2.9217368E-1,1.429628E0,-1.944873E-1,2.499027E0,1.0598188E-1,-1.875129E-1,2.1993737E-1,-1.3477479E0,-1.0654062E0,1.1730819E-1,-4.5992044E-1,5.056491E-2,1.5670601E0,-5.3344816E-1,3.258068E-1,6.5727013E-1,-1.4445035E-1,-1.3118203E-2,-6.9146305E-2,2.927826E-1,2.4390209E-1,-6.855763E-2,1.4168228E-1,-9.4823025E-2,-9.133243E-3,-1.8977772E-1,-2.0260802E-1,6.5108575E-2,1.8492734E-1,3.9953716E-2,2.0708863E-1,-2.0656843E-1,1.8465161E-1,8.396118E-2,-1.3359156E-1,1.4119974E-1,-1.1500871E-1,5.5225585E-2,6.684458E-3,2.3725079E-1,1.4357063E-1,-1.4013083E-1,2.393504E-1,-1.3066931E-1,8.119446E-2,-1.2662233E-1,2.3261958E-3,-1.4146072E-1,-6.1491594E-2,4.058749E-2,1.8052682E-1,3.4551132E-2,1.5388466E-1,-1.6263959E-1,-1.3708965E-1,1.6347374E-1,3.0287933E-1,-8.9786515E-2,-1.3597898E-1,2.6638806E-1,-1.9066556E-1,1.6763774E-1],"split_indices":[21,6,9,24,27,19,45,16,43,3,37,14,24,8,8,3,35,32,4,42,9,2,34,12,19,14,16,0,32,15,38,47,21,0,0,23,3,0,29,34,30,14,31,24,0,16,43,23,1,0,0,0,1,17,39,17,29,24,22,18,3,0,0,0,0,0,0,0,0,0,0,0,0,0,0,0,0,0,0,0,0,0,0,0,0,0,0,0,0,0,0,0,0,0,0,0,0,0,0,0,0,0,0,0,0,0,0],"split_type":[0,0,0,0,0,0,0,0,0,0,0,0,0,0,0,0,0,0,0,0,0,0,0,0,0,0,0,0,0,0,0,0,0,0,0,0,0,0,0,0,0,0,0,0,0,0,0,0,0,0,0,0,0,0,0,0,0,0,0,0,0,0,0,0,0,0,0,0,0,0,0,0,0,0,0,0,0,0,0,0,0,0,0,0,0,0,0,0,0,0,0,0,0,0,0,0,0,0,0,0,0,0,0,0,0,0,0],"sum_hessian":[1.8951581E3,9.772864E2,9.178717E2,2.1007045E2,7.6721594E2,6.496435E2,2.6822824E2,1.412236E2,6.8846855E1,5.0543802E2,2.617779E2,3.852464E1,6.1111884E2,1.7381859E2,9.4409645E1,1.3520372E2,6.0198717E0,5.2912243E1,1.5934609E1,3.1024063E2,1.9519737E2,2.1050112E1,2.4072778E2,2.884047E1,9.684169E0,2.2334871E2,3.877701E2,1.028728E1,1.635313E2,7.0363945E1,2.4045706E1,1.2547874E2,9.72499E0,4.8005323E0,1.2193394E0,2.2538338E1,3.0373905E1,1.2941357E0,1.4640473E1,1.470729E1,2.9553336E2,7.459812E0,1.8773756E2,8.472465E0,1.2577647E1,1.2871991E2,1.1200788E2,6.6312466E0,2.2209223E1,1.3975518E0,8.286617E0,2.1922262E0,2.2115648E2,1.1447737E2,2.7329276E2,1.4506169E2,1.846961E1,6.496847E1,5.3954773E0,1.2021948E1,1.2023758E1,1.0803713E2,1.7441599E1,6.8427773E0,2.8822124E0,1.7765303E1,4.7730365E0,9.257786E0,2.111612E1,1.3147078E0,1.3325767E1,1.2903024E1,1.8042661E0,6.951846E1,2.260149E2,1.46878E0,5.991032E0,1.3553893E2,5.2198643E1,4.9788194E0,3.4936447E0,9.674756E1,3.1972342E1,9.7673355E1,1.4334523E1,1.269083E0,5.3621635E0,2.0913843E1,1.2953792E0,6.992924E0,2.1416356E2,2.3891624E1,9.058575E1,1.6532083E2,1.07971924E2,3.732308E1,1.0773861E2,3.5131443E0,1.4956467E1,6.2574394E1,2.3940704E0,2.7207277E0,2.6747499E0,1.6649048E0,1.0357042E1,9.603504E0,2.4202538E0],"tree_param":{"num_deleted":"0","num_feature":"50","num_nodes":"107","size_leaf_vector":"1"}},{"base_weights":[-1.6430801E-1,-4.4604552E-1,9.16419E-2,-5.4230213E-1,-2.6234043E-1,4.0298897E-1,-7.944062E-3,-6.2562156E-1,-4.5243716E-1,-1.555382E-1,-5.260095E-1,4.3257034E-1,-1.6674288E-1,2.105305E-1,-8.8975005E-2,-4.076448E-1,-1.90574E-1,-3.2067186E-1,-5.4628277E-1,-2.2499831E-1,3.843969E-1,-5.8271784E-1,-1.4532204E-1,-5.356875E-2,4.777183E-1,-2.6154017E-2,5.5933225E-1,1.0645804E-1,-2.063026E-1,1.5369043E-1,-1.7850745E-1,2.729785E-1,-3.6550194E-1,-1.6964631E-1,-5.6945395E-1,-1.3043031E-1,-5.3619236E-1,-4.163697E-1,6.4834344E-1,-5.953558E-1,3.5266113E-2,-1.7355569E-1,3.2746434E-1,2.5085875E-1,-4.178995E-1,3.9982468E-1,7.140586E-1,1.9094193E-1,-3.3957413E-1,6.5166265E-1,-2.9572013E-1,4.1754237E-1,-1.7650886E-1,-2.3164265E-1,7.173834E-1,-1.464393E-1,2.3667343E-1,-1.277722E-1,4.4487175E-2,-1.3803616E-1,1.6796285E-1,-1.7608877E-1,-7.617969E-2,-8.3655745E-2,4.5669556E-2,-1.743949E-1,1.9924778E-1,3.242294E-2,-1.6371094E-1,2.7165824E-1,-1.0107349E-1,2.0445792E-2,-1.8231544E-1,3.3162308E-1,-1.4526345E-1,-1.7086439E-1,1.11653276E-1,1.5870573E-1,3.7613645E-2,2.4083005E-1,-1.6954891E-1,1.1966721E-1,-5.1194984E-2,1.8734913E-1,-1.3681594E-1,2.5298524E-1,2.0817708E-2,-1.8612768E-1,2.15796E-1,2.1044725E-1,3.7981793E-2,7.1373574E-2,-1.24920525E-1,-1.4688724E-2,-1.0264044E-1,-1.3645907E-1,3.176962E-1],"categories":[],"categories_nodes":[],"categories_segments":[],"categories_sizes":[],"default_left":[0,0,0,0,0,0,0,0,0,0,0,0,0,0,0,0,0,0,0,0,0,0,0,0,0,0,0,0,0,0,0,0,0,0,0,0,0,0,0,0,0,0,0,0,0,0,0,0,0,0,0,0,0,0,0,0,0,0,0,0,0,0,0,0,0,0,0,0,0,0,0,0,0,0,0,0,0,0,0,0,0,0,0,0,0,0,0,0,0,0,0,0,0,0,0,0,0],"id":8,"left_children":[1,3,5,7,9,11,13,15,17,19,21,23,-1,25,27,29,-1,31,33,35,37,39,41,43,45,47,49,51,53,-1,-1,55,57,59,61,63,65,67,69,71,-1,-1,73,-1,75,77,79,81,83,85,87,89,91,93,95,-1,-1,-1,-1,-1,-1,-1,-1,-1,-1,-1,-1,-1,-1,-1,-1,-1,-1,-1,-1,-1,-1,-1,-1,-1,-1,-1,-1,-1,-1,-1,-1,-1,-1,-1,-1,-1,-1,-1,-1,-1,-1],"loss_changes":[1.2766188E2,1.4757751E1,2.8781727E1,3.8498993E0,8.131166E0,6.62064E0,1.2485571E1,3.364792E-1,3.153267E0,7.9244614E0,1.7213669E0,4.8274612E0,0E0,1.5768081E1,1.1816819E1,2.8548472E0,0E0,3.1439734E0,1.2629433E0,5.397978E0,5.3828216E0,7.114372E-1,2.6837475E0,6.6677856E0,3.4017334E0,7.8649735E0,6.2862415E0,1.7117968E1,7.69751E0,0E0,0E0,3.7636921E0,3.377225E0,2.4726617E0,6.593323E-1,6.0761166E0,2.7141705E0,5.070406E-1,5.0142574E0,6.2674713E-1,0E0,0E0,4.6154814E0,0E0,1.948715E0,5.3555355E0,5.943344E0,5.2086515E0,5.5930696E0,7.7489357E0,3.1522639E0,7.5550137E0,1.0249342E1,6.319849E0,4.0198574E0,0E0,0E0,0E0,0E0,0E0,0E0,0E0,0E0,0E0,0E0,0E0,0E0,0E0,0E0,0E0,0E0,0E0,0E0,0E0,0E0,0E0,0E0,0E0,0E0,0E0,0E0,0E0,0E0,0E0,0E0,0E0,0E0,0E0,0E0,0E0,0E0,0E0,0E0,0E0,0E0,0E0,0E0],"parents":[2147483647,0,0,1,1,2,2,3,3,4,4,5,5,6,6,7,7,8,8,9,9,10,10,11,11,13,13,14,14,15,15,17,17,18,18,19,19,20,20,21,21,22,22,23,23,24,24,25,25,26,26,27,27,28,28,31,31,32,32,33,33,34,34,35,35,36,36,37,37,38,38,39,39,42,42,44,44,45,45,46,46,47,47,48,48,49,49,50,50,51,51,52,52,53,53,54,54],"right_children":[2,4,6,8,10,12,14,16,18,20,22,24,-1,26,28,30,-1,32,34,36,38,40,42,44,46,48,50,52,54,-1,-1,56,58,60,62,64,66,68,70,72,-1,-1,74,-1,76,78,80,82,84,86,88,90,92,94,96,-1,-1,-1,-1,-1,-1,-1,-1,-1,-1,-1,-1,-1,-1,-1,-1,-1,-1,-1,-1,-1,-1,-1,-1,-1,-1,-1,-1,-1,-1,-1,-1,-1,-1,-1,-1,-1,-1,-1,-1,-1,-1],"split_conditions":[-1.7159331E-1,-4.4980115E-1,-8.535075E-1,-6.585981E-1,-3.7646848E-1,1.1253068E0,-6.6350424E-1,-1.499715E0,-3.0510005E-1,1.3983933E0,8.1389624E-1,-8.5249454E-1,-1.6674288E-1,3.410932E-1,-5.44399E-1,-1.1055878E0,-1.90574E-1,-1.403848E0,-1.4489084E0,5.335405E-1,-6.7550063E-1,3.0509295E0,-5.708753E-2,-1.2337457E0,3.71302E-1,-1.6653346E-1,9.666427E-1,1.15282476E-1,3.855823E0,1.5369043E-1,-1.7850745E-1,1.0488536E-1,9.344594E-1,-1.1921908E-1,1.4248871E0,-8.2301356E-2,7.618785E-1,-9.565145E-1,1.5727301E0,-1.1953259E0,3.5266113E-2,-1.7355569E-1,-4.0374035E-1,2.5085875E-1,9.852229E-2,-2.0662323E-1,6.0139525E-1,2.670672E-1,-6.494234E-1,1.0240923E0,1.500282E0,-8.3298576E-1,-4.9214217E-1,-4.2364177E-1,-7.3802745E-1,-1.464393E-1,2.3667343E-1,-1.277722E-1,4.4487175E-2,-1.3803616E-1,1.6796285E-1,-1.7608877E-1,-7.617969E-2,-8.3655745E-2,4.5669556E-2,-1.743949E-1,1.9924778E-1,3.242294E-2,-1.6371094E-1,2.7165824E-1,-1.0107349E-1,2.0445792E-2,-1.8231544E-1,3.3162308E-1,-1.4526345E-1,-1.7086439E-1,1.11653276E-1,1.5870573E-1,3.7613645E-2,2.4083005E-1,-1.6954891E-1,1.1966721E-1,-5.1194984E-2,1.8734913E-1,-1.3681594E-1,2.5298524E-1,2.0817708E-2,-1.8612768E-1,2.15796E-1,2.1044725E-1,3.7981793E-2,7.1373574E-2,-1.24920525E-1,-1.4688724E-2,-1.0264044E-1,-1.3645907E-1,3.176962E-1],"split_indices":[23,23,16,13,27,42,29,20,20,20,14,11,0,0,6,5,0,5,15,10,11,40,26,17,18,34,31,4,34,0,0,18,18,36,20,45,1,21,10,6,0,0,28,0,30,43,15,19,16,2,7,6,22,16,40,0,0,0,0,0,0,0,0,0,0,0,0,0,0,0,0,0,0,0,0,0,0,0,0,0,0,0,0,0,0,0,0,0,0,0,0,0,0,0,0,0,0],"split_type":[0,0,0,0,0,0,0,0,0,0,0,0,0,0,0,0,0,0,0,0,0,0,0,0,0,0,0,0,0,0,0,0,0,0,0,0,0,0,0,0,0,0,0,0,0,0,0,0,0,0,0,0,0,0,0,0,0,0,0,0,0,0,0,0,0,0,0,0,0,0,0,0,0,0,0,0,0,0,0,0,0,0,0,0,0,0,0,0,0,0,0,0,0,0,0,0,0],"sum_hessian":[1.7687931E3,8.4162714E2,9.271659E2,5.509775E2,2.9064966E2,2.2395209E2,7.032138E2,2.8280737E2,2.6817007E2,2.0799057E2,8.26591E1,2.1778181E2,6.1702805E0,1.8982147E2,5.1339233E2,1.3793025E1,2.6901434E2,1.1338595E2,1.5478413E2,1.8480019E2,2.319039E1,7.148045E1,1.1178644E1,1.8490908E1,1.992909E2,1.1363667E2,7.618481E1,1.926264E2,3.2076593E2,2.0406055E0,1.17524185E1,7.6039205E0,1.0578203E2,9.452916E0,1.4533122E2,1.4281854E2,4.1981647E1,5.6058283E0,1.758456E1,7.0360466E1,1.1199911E0,5.7168584E0,5.461786E0,4.9955864E0,1.3495321E1,1.5191434E2,4.7376556E1,6.736553E1,4.627114E1,6.897465E1,7.210163E0,9.1528E1,1.01098404E2,3.1293036E2,7.8355927E0,3.0938005E0,4.51012E0,9.480687E1,1.0975161E1,7.025039E0,2.427877E0,1.368756E2,8.455623E0,9.365501E1,4.916353E1,4.0957664E1,1.0239803E0,1.1414824E0,4.464346E0,1.4008739E1,3.5758207E0,1.2044092E0,6.915606E1,2.6040566E0,2.857729E0,1.1556311E1,1.9390106E0,1.0265995E2,4.925439E1,4.465256E1,2.7239964E0,4.2703766E1,2.4661764E1,4.5176954E0,4.1753445E1,5.1558727E1,1.7415916E1,5.757227E0,1.452936E0,4.560613E1,4.592187E1,3.7069027E1,6.402938E1,1.1848253E2,1.9444781E2,1.6933042E0,6.142288E0],"tree_param":{"num_deleted":"0","num_feature":"50","num_nodes":"97","size_leaf_vector":"1"}},{"base_weights":[1.226271E-1,1.8079704E-2,2.152205E-1,1.5642174E-1,-1.18723184E-1,1.3819715E-1,3.4154776E-1,2.0414233E-1,-3.3192202E-1,-3.2287717E-2,-3.2664487E-1,2.6293975E-1,3.834361E-2,6.0097784E-1,2.8103885E-1,4.7308165E-1,9.466806E-2,5.256415E-1,-4.3882784E-1,1.2559426E-1,-1.8402627E-1,-4.800415E-1,3.6242466E-2,4.2935082E-1,2.4639862E-2,-8.001777E-2,2.4243471E-1,8.687467E-1,2.9431695E-1,-1.4135954E-1,3.2893267E-1,5.398132E-1,-3.8916102E-1,-1.5508682E-1,2.65634E-1,-1.1546024E-1,2.7233467E-1,-5.449201E-1,1.2222233E-1,-1.5976574E-1,2.629416E-1,-2.239183E-1,7.44882E-1,-5.144058E-1,2.4859342E-1,2.1900079E-1,-5.245867E-1,-1.6859879E-1,4.772645E-1,-2.9388705E-1,3.419509E-1,-1.4127226E-1,4.735816E-1,2.9964364E-1,-3.6806875E-1,-2.5607256E-2,9.403809E-1,-4.4019884E-1,5.7045877E-1,5.225741E-1,-3.8378584E-1,-2.4704237E-1,3.6525327E-1,1.7450295E-1,-1.7930606E-1,-1.7043942E-1,1.1509854E-1,4.557909E-3,-1.1131465E-1,9.7963415E-2,-1.3251829E-1,1.419588E-1,-1.864515E-1,-1.1822826E-1,1.7044517E-1,2.5057918E-1,-7.9508394E-2,1.4639781E-1,1.5560008E-3,-8.587943E-2,7.435836E-2,2.9266453E-1,-9.848713E-2,-1.6196102E-1,1.9645067E-1,3.046066E-1,-8.4419595E-3,-1.808389E-1,1.9050708E-2,2.4053338E-1,-1.3514656E-1,-2.0783186E-2,1.5468335E-1,-1.08763E-1,1.4571242E-1,2.2843776E-2,1.9275019E-1,5.491366E-2,-6.922991E-2,-7.9519115E-2,2.1280733E-1,1.2116228E-1,-2.0594966E-2,-1.9337277E-1,5.6658924E-2,1.2890212E-1,-1.26524E-1,2.952145E-1,6.734687E-2,-2.0956463E-1,6.815626E-2,1.9946441E-1,-1.8565524E-1,-1.5335482E-1,2.6693457E-1,-1.5137118E-1,1.6199669E-1,1.5993573E-1,-1.4563714E-1,5.984335E-2,1.3864093E-1],"categories":[],"categories_nodes":[],"categories_segments":[],"categories_sizes":[],"default_left":[0,0,0,0,0,0,0,0,0,0,0,0,0,0,0,0,0,0,0,0,0,0,0,0,0,0,0,0,0,0,0,0,0,0,0,0,0,0,0,0,0,0,0,0,0,0,0,0,0,0,0,0,0,0,0,0,0,0,0,0,0,0,0,0,0,0,0,0,0,0,0,0,0,0,0,0,0,0,0,0,0,0,0,0,0,0,0,0,0,0,0,0,0,0,0,0,0,0,0,0,0,0,0,0,0,0,0,0,0,0,0,0,0,0,0,0,0,0,0,0,0],"id":9,"left_children":[1,3,5,7,9,11,13,15,17,19,21,23,25,27,29,31,33,35,37,39,41,43,45,47,49,51,53,55,57,59,61,63,65,67,69,-1,-1,71,73,75,77,79,81,83,-1,85,87,89,91,93,95,97,99,101,103,105,107,109,111,113,115,117,119,-1,-1,-1,-1,-1,-1,-1,-1,-1,-1,-1,-1,-1,-1,-1,-1,-1,-1,-1,-1,-1,-1,-1,-1,-1,-1,-1,-1,-1,-1,-1,-1,-1,-1,-1,-1,-1,-1,-1,-1,-1,-1,-1,-1,-1,-1,-1,-1,-1,-1,-1,-1,-1,-1,-1,-1,-1,-1],"loss_changes":[1.926635E1,1.773408E1,1.0223789E1,1.0923812E1,8.458078E0,8.178968E0,6.096817E0,1.2467846E1,4.0674477E0,8.023669E0,7.7136917E0,1.15737E1,8.868357E0,5.8708935E0,6.6321507E0,7.2700634E0,1.2991718E1,2.121748E0,2.313984E0,6.479929E0,6.4921765E0,4.7998085E0,4.420641E0,5.0066643E0,1.2348078E1,7.9547067E0,4.81524E0,2.5430813E0,7.6122065E0,5.6491013E0,6.2131023E0,5.790779E0,1.5174211E0,4.561168E0,7.9175777E0,0E0,0E0,2.7841759E0,1.7943772E0,5.876643E0,6.4518027E0,4.907692E0,2.1174154E0,3.193327E0,0E0,6.403199E0,5.2671194E-1,4.052531E0,3.3774796E0,3.4416108E0,4.8375144E0,6.1433053E0,4.263791E0,4.7770367E0,1.9682469E0,8.826521E-1,9.1791916E-1,1.965733E0,3.4223166E0,4.0526247E0,3.103597E0,3.599057E0,4.336193E0,0E0,0E0,0E0,0E0,0E0,0E0,0E0,0E0,0E0,0E0,0E0,0E0,0E0,0E0,0E0,0E0,0E0,0E0,0E0,0E0,0E0,0E0,0E0,0E0,0E0,0E0,0E0,0E0,0E0,0E0,0E0,0E0,0E0,0E0,0E0,0E0,0E0,0E0,0E0,0E0,0E0,0E0,0E0,0E0,0E0,0E0,0E0,0E0,0E0,0E0,0E0,0E0,0E0,0E0,0E0,0E0,0E0,0E0],"parents":[2147483647,0,0,1,1,2,2,3,3,4,4,5,5,6,6,7,7,8,8,9,9,10,10,11,11,12,12,13,13,14,14,15,15,16,16,17,17,18,18,19,19,20,20,21,21,22,22,23,23,24,24,25,25,26,26,27,27,28,28,29,29,30,30,31,31,32,32,33,33,34,34,37,37,38,38,39,39,40,40,41,41,42,42,43,43,45,45,46,46,47,47,48,48,49,49,50,50,51,51,52,52,53,53,54,54,55,55,56,56,57,57,58,58,59,59,60,60,61,61,62,62],"right_children":[2,4,6,8,10,12,14,16,18,20,22,24,26,28,30,32,34,36,38,40,42,44,46,48,50,52,54,56,58,60,62,64,66,68,70,-1,-1,72,74,76,78,80,82,84,-1,86,88,90,92,94,96,98,100,102,104,106,108,110,112,114,116,118,120,-1,-1,-1,-1,-1,-1,-1,-1,-1,-1,-1,-1,-1,-1,-1,-1,-1,-1,-1,-1,-1,-1,-1,-1,-1,-1,-1,-1,-1,-1,-1,-1,-1,-1,-1,-1,-1,-1,-1,-1,-1,-1,-1,-1,-1,-1,-1,-1,-1,-1,-1,-1,-1,-1,-1,-1,-1,-1],"split_conditions":[2.6581205E-2,8.58156E-2,4.4066235E-2,1.5111842E0,4.3180925E-1,-3.8871098E-1,-5.361849E-1,-4.5993155E-1,-9.530515E-1,-1.4621675E-1,5.5109426E-2,3.5498822E-1,1.4808936E-1,-6.8066105E-2,-6.7531407E-1,9.7191644E-1,-1.3827337E-1,-1.6908495E0,1.0722634E0,-6.565509E-1,1.5123448E0,5.640378E-1,-7.238569E-2,-1.0719635E0,-2.1299885E-1,1.1993824E0,8.7453187E-1,-1.4658815E0,-6.677166E-1,-5.093727E-1,-7.047467E-1,1.8833683E0,-3.0734032E-1,-1.852454E-1,1.5325761E0,-1.1546024E-1,2.7233467E-1,-1.3454447E0,-3.874327E-1,-1.0423894E0,1.9191308E-1,7.733519E-1,1.285388E0,2.1442459E0,2.4859342E-1,-4.128121E-2,1.5041535E0,-1.2736311E0,-8.5856396E-1,1.7257699E0,-5.465823E-1,-8.746522E-1,-9.979683E-1,9.5606613E-1,6.767778E-1,-7.685198E-1,1.4275903E0,3.331699E-2,1.396756E0,-9.309676E-1,1.0144448E0,5.997529E-1,1.15282476E-1,1.7450295E-1,-1.7930606E-1,-1.7043942E-1,1.1509854E-1,4.557909E-3,-1.1131465E-1,9.7963415E-2,-1.3251829E-1,1.419588E-1,-1.864515E-1,-1.1822826E-1,1.7044517E-1,2.5057918E-1,-7.9508394E-2,1.4639781E-1,1.5560008E-3,-8.587943E-2,7.435836E-2,2.9266453E-1,-9.848713E-2,-1.6196102E-1,1.9645067E-1,3.046066E-1,-8.4419595E-3,-1.808389E-1,1.9050708E-2,2.4053338E-1,-1.3514656E-1,-2.0783186E-2,1.5468335E-1,-1.08763E-1,1.4571242E-1,2.2843776E-2,1.9275019E-1,5.491366E-2,-6.922991E-2,-7.9519115E-2,2.1280733E-1,1.2116228E-1,-2.0594966E-2,-1.9337277E-1,5.6658924E-2,1.2890212E-1,-1.26524E-1,2.952145E-1,6.734687E-2,-2.0956463E-1,6.815626E-2,1.9946441E-1,-1.8565524E-1,-1.5335482E-1,2.6693457E-1,-1.5137118E-1,1.6199669E-1,1.5993573E-1,-1.4563714E-1,5.984335E-2,1.3864093E-1],"split_indices":[10,7,44,9,15,18,36,23,40,13,43,2,37,38,42,24,19,28,37,39,22,28,13,14,30,10,5,16,19,3,16,48,38,47,29,0,0,6,48,26,9,47,17,38,0,16,36,3,34,39,44,11,1,24,31,9,7,0,12,8,14,44,4,0,0,0,0,0,0,0,0,0,0,0,0,0,0,0,0,0,0,0,0,0,0,0,0,0,0,0,0,0,0,0,0,0,0,0,0,0,0,0,0,0,0,0,0,0,0,0,0,0,0,0,0,0,0,0,0,0,0],"split_type":[0,0,0,0,0,0,0,0,0,0,0,0,0,0,0,0,0,0,0,0,0,0,0,0,0,0,0,0,0,0,0,0,0,0,0,0,0,0,0,0,0,0,0,0,0,0,0,0,0,0,0,0,0,0,0,0,0,0,0,0,0,0,0,0,0,0,0,0,0,0,0,0,0,0,0,0,0,0,0,0,0,0,0,0,0,0,0,0,0,0,0,0,0,0,0,0,0,0,0,0,0,0,0,0,0,0,0,0,0,0,0,0,0,0,0,0,0,0,0,0,0],"sum_hessian":[1.9896451E3,9.3506104E2,1.0545841E3,4.6484387E2,4.7021716E2,6.564389E2,3.981452E2,4.239935E2,4.0850372E1,3.3295795E2,1.3725922E2,2.911211E2,3.6531784E2,7.361047E1,3.2453473E2,1.2169958E2,3.0229395E2,4.093865E0,3.6756504E1,1.6326018E2,1.6969777E2,9.625028E1,4.1008938E1,1.7094438E2,1.201767E2,2.3160683E2,1.3371103E2,3.831864E1,3.5291832E1,3.2851357E1,2.9168338E2,1.13304535E2,8.395042E0,1.2287921E2,1.7941472E2,1.2081429E0,2.885722E0,3.0935486E1,5.8210206E0,5.2993954E1,1.1026622E2,1.6343787E2,6.259907E0,9.4378944E1,1.8713317E0,3.1389498E1,9.619442E0,1.2494735E1,1.5844966E2,6.0010284E1,6.016641E1,2.0920372E2,2.24031E1,1.2272036E2,1.0990667E1,2.8892176E0,3.5429424E1,9.480455E0,2.5811377E1,8.477741E0,2.4373615E1,1.6958141E1,2.7472522E2,1.09753914E2,3.5506206E0,7.0315404E0,1.3635024E0,6.922608E1,5.3653133E1,1.6568591E2,1.3728807E1,1.8019336E0,2.9133553E1,2.7514741E0,3.0695462E0,4.406341E0,4.8587612E1,5.8390785E1,5.187544E1,1.4470772E2,1.8730143E1,5.22732E0,1.0325862E0,9.2894135E1,1.4848156E0,6.698073E0,2.4691423E1,8.468246E0,1.1511955E0,2.3974524E0,1.0097282E1,1.0335451E1,1.481142E2,5.5644794E1,4.3654876E0,3.2593872E1,2.7572536E1,4.5017914E1,1.641858E2,5.3907156E0,1.7012384E1,9.557508E1,2.7145277E1,7.239173E0,3.7514951E0,1.3048768E0,1.5843409E0,3.3039524E1,2.389901E0,6.8010345E0,2.679421E0,2.4321386E1,1.4899895E0,2.1193373E0,6.3584037E0,2.1956562E1,2.417054E0,3.680006E0,1.3278135E1,1.0246229E2,1.7226294E2],"tree_param":{"num_deleted":"0","num_feature":"50","num_nodes":"121","size_leaf_vector":"1"}},{"base_weights":[-6.4547714E-3,-2.1244244E-1,5.069153E-2,-6.0935676E-2,-2.974931E-1,-1.4800583E-1,1.19844526E-1,-2.2539616E-1,3.224221E-1,-3.125866E-1,4.5245254E-1,-8.965743E-3,-3.0926087E-1,2.6623973E-1,5.2868437E-2,5.594174E-1,-2.9493982E-1,5.031991E-1,-4.8742938E-1,-3.2472304E-1,4.9094433E-1,2.9209438E-1,-1.3802947E-1,-1.914746E-1,1.7831482E-1,-3.454053E-1,5.6431854E-1,5.329988E-1,1.8423931E-1,-7.0322484E-2,1.7518258E-1,2.729754E-1,5.845784E-2,2.03319E-1,-3.7610134E-1,-3.03108E-1,6.7136204E-1,-1.7643425E-1,3.4322772E-2,-4.239566E-1,-2.2822747E-1,2.0294787E-1,5.2315806E-4,-2.4294142E-1,4.366963E-1,-2.1635218E-1,3.0332473E-1,-3.6674547E-1,2.3278263E-1,3.1581426E-1,-2.5522566E-1,-7.216044E-2,7.66897E-1,1.1221633E-1,5.410061E-1,-1.07886806E-1,7.3690504E-1,2.3649992E-1,-8.0163956E-2,1.631767E-1,-1.3313618E-1,-1.287924E-1,2.1260813E-1,1.5688615E-1,-1.2625971E-1,7.322551E-2,-1.5577318E-1,-1.2917416E-1,2.318183E-1,-3.635513E-2,-1.6106716E-1,-9.139921E-2,4.3855198E-2,-8.416614E-2,1.8360578E-1,-1.436562E-1,2.624046E-1,6.803372E-2,-1.8281436E-1,3.531614E-2,1.8139197E-1,-5.8070756E-2,-1.5267463E-1,3.2730438E-2,-1.4107288E-1,-1.3549767E-1,1.4391153E-1,-6.416229E-2,2.4265124E-1,1.0768358E-2,1.4608197E-1,2.2214685E-1,-9.9334106E-2,2.6052495E-2,-6.56198E-2,-2.0946477E-2,2.8133217E-1,5.327968E-2,1.716876E-1,1.0566042E-1,-1.1521124E-1],"categories":[],"categories_nodes":[],"categories_segments":[],"categories_sizes":[],"default_left":[0,0,0,0,0,0,0,0,0,0,0,0,0,0,0,0,0,0,0,0,0,0,0,0,0,0,0,0,0,0,0,0,0,0,0,0,0,0,0,0,0,0,0,0,0,0,0,0,0,0,0,0,0,0,0,0,0,0,0,0,0,0,0,0,0,0,0,0,0,0,0,0,0,0,0,0,0,0,0,0,0,0,0,0,0,0,0,0,0,0,0,0,0,0,0,0,0,0,0,0,0],"id":10,"left_children":[1,3,5,7,9,11,13,15,17,19,21,23,25,27,29,31,33,35,37,39,41,-1,-1,43,45,47,49,51,53,55,57,-1,59,61,63,65,67,-1,-1,69,71,-1,-1,73,75,77,79,81,-1,-1,83,85,87,89,91,93,95,97,99,-1,-1,-1,-1,-1,-1,-1,-1,-1,-1,-1,-1,-1,-1,-1,-1,-1,-1,-1,-1,-1,-1,-1,-1,-1,-1,-1,-1,-1,-1,-1,-1,-1,-1,-1,-1,-1,-1,-1,-1,-1,-1],"loss_changes":[2.166802E1,5.1330223E0,1.981863E1,9.21349E0,3.0365887E0,8.348943E0,1.0472957E1,5.7345834E0,6.67776E0,2.6102695E0,3.0423336E0,6.90632E0,5.6397305E0,7.2402515E0,1.1088501E1,1.4659305E0,3.8937511E0,5.1405134E0,5.839207E-1,2.2797108E0,3.7438297E-1,0E0,0E0,3.4136899E0,4.9869566E0,4.261919E0,3.1629517E0,1.1145485E1,6.5720873E0,1.1206238E1,5.7986317E0,0E0,1.3703059E0,4.73911E0,3.5010643E0,9.5134753E-1,3.7326975E0,0E0,0E0,4.0787544E0,3.7074943E0,0E0,0E0,3.2331471E0,3.6688871E0,4.4188795E0,4.188669E0,3.933941E0,0E0,0E0,3.2587102E-1,4.9823256E0,2.500969E0,6.161043E0,7.742772E0,7.606001E0,2.7301683E0,5.7906475E0,9.62453E0,0E0,0E0,0E0,0E0,0E0,0E0,0E0,0E0,0E0,0E0,0E0,0E0,0E0,0E0,0E0,0E0,0E0,0E0,0E0,0E0,0E0,0E0,0E0,0E0,0E0,0E0,0E0,0E0,0E0,0E0,0E0,0E0,0E0,0E0,0E0,0E0,0E0,0E0,0E0,0E0,0E0,0E0],"parents":[2147483647,0,0,1,1,2,2,3,3,4,4,5,5,6,6,7,7,8,8,9,9,10,10,11,11,12,12,13,13,14,14,15,15,16,16,17,17,18,18,19,19,20,20,23,23,24,24,25,25,26,26,27,27,28,28,29,29,30,30,32,32,33,33,34,34,35,35,36,36,39,39,40,40,43,43,44,44,45,45,46,46,47,47,50,50,51,51,52,52,53,53,54,54,55,55,56,56,57,57,58,58],"right_children":[2,4,6,8,10,12,14,16,18,20,22,24,26,28,30,32,34,36,38,40,42,-1,-1,44,46,48,50,52,54,56,58,-1,60,62,64,66,68,-1,-1,70,72,-1,-1,74,76,78,80,82,-1,-1,84,86,88,90,92,94,96,98,100,-1,-1,-1,-1,-1,-1,-1,-1,-1,-1,-1,-1,-1,-1,-1,-1,-1,-1,-1,-1,-1,-1,-1,-1,-1,-1,-1,-1,-1,-1,-1,-1,-1,-1,-1,-1,-1,-1,-1,-1,-1,-1],"split_conditions":[-4.2364177E-1,-3.2066816E-1,-5.6880784E-1,6.506098E-2,2.1141465E0,-8.080238E-2,-2.2790211E-1,-1.8110309E0,1.0346845E0,2.4618006E0,-3.8871098E-1,-1.69834E-1,1.5160987E0,-8.504167E-1,8.204697E-2,5.116952E-1,-1.0136682E0,-8.7226856E-1,8.8052917E-1,-1.6913413E-1,1.6925769E-1,2.9209438E-1,-1.3802947E-1,1.5785145E0,-2.3414355E-2,2.100621E0,-2.2267261E-1,2.1217012E-1,8.332582E-1,2.0617151E0,-3.9657092E-1,2.729754E-1,-1.815877E-1,-1.1513917E-1,-1.8600558E0,-8.9303315E-1,-9.993032E-1,-1.7643425E-1,3.4322772E-2,-1.0453311E0,6.321671E-1,2.0294787E-1,5.2315806E-4,2.0777335E0,-1.417508E0,-1.4539358E-1,-5.1825505E-1,-7.689832E-2,2.3278263E-1,3.1581426E-1,-1.5764186E-1,-2.3604098E-1,-1.4855809E0,-6.764209E-2,8.174848E-1,-2.5569126E-1,-2.2819303E-1,1.2718741E0,1.9609416E-1,1.631767E-1,-1.3313618E-1,-1.287924E-1,2.1260813E-1,1.5688615E-1,-1.2625971E-1,7.322551E-2,-1.5577318E-1,-1.2917416E-1,2.318183E-1,-3.635513E-2,-1.6106716E-1,-9.139921E-2,4.3855198E-2,-8.416614E-2,1.8360578E-1,-1.436562E-1,2.624046E-1,6.803372E-2,-1.8281436E-1,3.531614E-2,1.8139197E-1,-5.8070756E-2,-1.5267463E-1,3.2730438E-2,-1.4107288E-1,-1.3549767E-1,1.4391153E-1,-6.416229E-2,2.4265124E-1,1.0768358E-2,1.4608197E-1,2.2214685E-1,-9.9334106E-2,2.6052495E-2,-6.56198E-2,-2.0946477E-2,2.8133217E-1,5.327968E-2,1.716876E-1,1.0566042E-1,-1.1521124E-1],"split_indices":[16,19,24,9,6,39,30,9,27,24,18,7,15,39,9,11,0,6,41,40,4,0,0,18,16,8,37,2,4,28,27,0,12,4,19,3,17,0,0,43,15,0,0,16,7,12,38,20,0,0,8,1,8,31,29,4,15,24,15,0,0,0,0,0,0,0,0,0,0,0,0,0,0,0,0,0,0,0,0,0,0,0,0,0,0,0,0,0,0,0,0,0,0,0,0,0,0,0,0,0,0],"split_type":[0,0,0,0,0,0,0,0,0,0,0,0,0,0,0,0,0,0,0,0,0,0,0,0,0,0,0,0,0,0,0,0,0,0,0,0,0,0,0,0,0,0,0,0,0,0,0,0,0,0,0,0,0,0,0,0,0,0,0,0,0,0,0,0,0,0,0,0,0,0,0,0,0,0,0,0,0,0,0,0,0,0,0,0,0,0,0,0,0,0,0,0,0,0,0,0,0,0,0,0,0],"sum_hessian":[1.8388143E3,3.9875558E2,1.4400587E3,1.439837E2,2.5477188E2,3.7149667E2,1.068562E3,1.01046715E2,4.2936993E1,2.5031715E2,4.454723E0,2.000563E2,1.7144038E2,3.344819E2,7.3408014E2,7.6517E0,9.339501E1,3.54111E1,7.525898E0,2.4717966E2,3.1374984E0,2.7927284E0,1.6619943E0,1.01307556E2,9.874875E1,1.6520943E2,6.2309484E0,7.735031E1,2.571316E2,3.65941E2,3.681391E2,4.0216026E0,3.6300972E0,1.2871354E1,8.052366E1,5.972364E0,2.9438732E1,6.4668317E0,1.059066E0,1.2018794E2,1.26991714E2,1.9971476E0,1.1403508E0,9.4202675E1,7.104885E0,2.3578552E1,7.51702E1,1.6278445E2,2.42498E0,3.725988E0,2.5049605E0,2.1755169E1,5.5595146E1,2.1503543E2,4.2096157E1,3.5049698E2,1.5444023E1,2.9691385E2,7.122526E1,1.8036895E0,1.8264078E0,5.782877E0,7.0884767E0,3.3124979E0,7.721116E1,1.6544545E0,4.3179092E0,2.2063015E0,2.7232431E1,3.321431E1,8.697364E1,1.0561631E2,2.137541E1,9.087658E1,3.3260918E0,2.2688498E0,4.8360353E0,1.1281696E1,1.2296857E1,4.7377357E1,2.7792837E1,7.4454025E1,8.833042E1,1.1125087E0,1.392452E0,1.2998285E1,8.756884E0,2.111785E0,5.348336E1,1.7955946E2,3.5475975E1,3.4382618E1,7.7135396E0,1.2721992E2,2.2327707E2,3.208897E0,1.2235126E1,2.5390541E2,4.3008446E1,2.9331707E1,4.189355E1],"tree_param":{"num_deleted":"0","num_feature":"50","num_nodes":"101","size_leaf_vector":"1"}},{"base_weights":[-1.3965692E-1,-4.5801964E-1,3.7472054E-2,-5.929457E-1,-3.6439633E-1,-8.3546326E-2,2.3528601E-1,-3.610716E-1,-1.8112098E-1,-2.6090503E-1,-5.2061063E-1,-2.4000984E-1,-9.544858E-3,1.5499242E-1,5.287955E-1,1.3427965E-1,-1.6738154E-1,-3.8363075E-1,-4.4463016E-2,-2.328441E-1,-5.901201E-1,3.8289598E-1,-3.0258417E-1,-1.3870022E-1,1.5363722E-1,3.969216E-1,3.571075E-2,-3.8319892E-1,5.9686524E-1,-4.362086E-1,4.2947295E-1,3.6771387E-1,-2.8323123E-1,-4.631546E-1,3.7442878E-1,4.024458E-2,-6.0485935E-1,-1.8122746E-1,6.677407E-1,-1.1192604E-1,-4.8859972E-1,9.002233E-2,-2.6081765E-1,3.7763235E-1,-1.201899E-2,-3.30083E-1,4.5917517E-1,4.496573E-1,-4.852836E-2,-1.8331113E-1,8.989203E-2,3.0856314E-1,8.6361355E-1,-1.4308748E-1,4.988063E-2,-1.290586E-1,2.3127215E-1,2.8947338E-1,4.4071944E-3,-1.4504674E-1,1.3111682E-1,-1.6528736E-1,1.8707992E-1,2.8767082E-1,-1.3827114E-1,-1.8412879E-1,5.4701895E-2,2.6598668E-1,-8.539389E-2,1.4684136E-3,-1.896732E-1,1.9464722E-1,-1.6565697E-1,8.852707E-2,-1.3262533E-1,-3.233109E-2,-1.639769E-1,1.799153E-2,2.1064222E-1,-4.238533E-2,1.6396321E-1,1.670916E-1,-1.7433275E-1,1.6819116E-1,1.4989595E-2,2.0583172E-1,-5.374569E-2,-8.363874E-2,3.4855306E-2,1.2351682E-1,-1.7964192E-1,2.788485E-1,1.2563889E-1],"categories":[],"categories_nodes":[],"categories_segments":[],"categories_sizes":[],"default_left":[0,0,0,0,0,0,0,0,0,0,0,0,0,0,0,0,0,0,0,0,0,0,0,0,0,0,0,0,0,0,0,0,0,0,0,0,0,0,0,0,0,0,0,0,0,0,0,0,0,0,0,0,0,0,0,0,0,0,0,0,0,0,0,0,0,0,0,0,0,0,0,0,0,0,0,0,0,0,0,0,0,0,0,0,0,0,0,0,0,0,0,0,0],"id":11,"left_children":[1,3,5,7,9,11,13,15,-1,17,19,21,23,25,27,-1,-1,29,31,33,35,37,39,41,43,45,47,49,51,53,55,57,59,61,63,-1,65,-1,67,69,71,73,75,77,79,81,83,85,87,-1,-1,89,91,-1,-1,-1,-1,-1,-1,-1,-1,-1,-1,-1,-1,-1,-1,-1,-1,-1,-1,-1,-1,-1,-1,-1,-1,-1,-1,-1,-1,-1,-1,-1,-1,-1,-1,-1,-1,-1,-1,-1,-1],"loss_changes":[9.378856E1,7.294052E0,2.5618969E1,3.8739014E-1,5.580349E0,7.6881423E0,9.489809E0,2.3586392E0,0E0,5.6855335E0,2.6608086E0,8.427119E0,9.546908E0,9.229673E0,5.6189194E0,0E0,0E0,6.038681E0,7.8604436E0,4.2109995E0,1.2770271E0,5.9997725E0,6.837082E0,7.0847983E0,7.43152E0,4.9345493E0,7.5414248E0,1.2160548E0,5.9772205E0,3.2476387E0,2.919538E0,6.172188E0,7.4910765E0,2.383432E0,4.58749E0,0E0,8.826561E-1,0E0,3.5716605E0,5.9150333E0,7.451021E0,9.813628E0,7.1608105E0,8.732835E0,8.454936E0,2.309355E0,4.031063E0,5.5588455E0,6.862567E0,0E0,0E0,4.0443907E0,8.302517E-1,0E0,0E0,0E0,0E0,0E0,0E0,0E0,0E0,0E0,0E0,0E0,0E0,0E0,0E0,0E0,0E0,0E0,0E0,0E0,0E0,0E0,0E0,0E0,0E0,0E0,0E0,0E0,0E0,0E0,0E0,0E0,0E0,0E0,0E0,0E0,0E0,0E0,0E0,0E0,0E0],"parents":[2147483647,0,0,1,1,2,2,3,3,4,4,5,5,6,6,7,7,9,9,10,10,11,11,12,12,13,13,14,14,17,17,18,18,19,19,20,20,21,21,22,22,23,23,24,24,25,25,26,26,27,27,28,28,29,29,30,30,31,31,32,32,33,33,34,34,36,36,38,38,39,39,40,40,41,41,42,42,43,43,44,44,45,45,46,46,47,47,48,48,51,51,52,52],"right_children":[2,4,6,8,10,12,14,16,-1,18,20,22,24,26,28,-1,-1,30,32,34,36,38,40,42,44,46,48,50,52,54,56,58,60,62,64,-1,66,-1,68,70,72,74,76,78,80,82,84,86,88,-1,-1,90,92,-1,-1,-1,-1,-1,-1,-1,-1,-1,-1,-1,-1,-1,-1,-1,-1,-1,-1,-1,-1,-1,-1,-1,-1,-1,-1,-1,-1,-1,-1,-1,-1,-1,-1,-1,-1,-1,-1,-1,-1],"split_conditions":[-3.4604263E-1,-6.585981E-1,4.9914914E-1,-1.499715E0,3.252659E-2,-3.475429E-1,7.8070503E-1,-1.1055878E0,-1.8112098E-1,1.6559348E-2,-1.1055878E0,-1.1614895E0,1.4895113E-1,-1.1532096E0,-8.353456E-1,1.3427965E-1,-1.6738154E-1,3.5452825E-1,-6.191565E-1,4.9073803E-1,-2.7937022E-1,-3.509698E-1,-7.6924914E-1,-2.7580047E-1,-5.2421653E-1,-1.2777836E0,-8.3298576E-1,-1.2324235E0,-6.2521577E-1,1.629774E0,-5.06866E-1,-6.939303E-1,6.9247603E-1,2.4497507E0,-2.6824158E-1,4.024458E-2,1.4499375E0,-1.8122746E-1,9.8016515E-2,3.7173554E-1,-1.1467301E0,6.804429E-1,-4.0386012E-1,-8.664471E-1,-3.864559E-2,-1.7555374E0,1.8481159E0,4.1978946E-1,-1.6038367E-1,-1.8331113E-1,8.989203E-2,1.396756E0,9.7125447E-1,-1.4308748E-1,4.988063E-2,-1.290586E-1,2.3127215E-1,2.8947338E-1,4.4071944E-3,-1.4504674E-1,1.3111682E-1,-1.6528736E-1,1.8707992E-1,2.8767082E-1,-1.3827114E-1,-1.8412879E-1,5.4701895E-2,2.6598668E-1,-8.539389E-2,1.4684136E-3,-1.896732E-1,1.9464722E-1,-1.6565697E-1,8.852707E-2,-1.3262533E-1,-3.233109E-2,-1.639769E-1,1.799153E-2,2.1064222E-1,-4.238533E-2,1.6396321E-1,1.670916E-1,-1.7433275E-1,1.6819116E-1,1.4989595E-2,2.0583172E-1,-5.374569E-2,-8.363874E-2,3.4855306E-2,1.2351682E-1,-1.7964192E-1,2.788485E-1,1.2563889E-1],"split_indices":[23,13,13,20,29,40,3,5,0,14,5,2,15,16,26,0,0,32,25,15,41,29,45,20,44,3,6,10,48,17,23,10,12,26,20,0,12,0,18,41,22,11,27,44,21,37,27,4,2,0,0,12,38,0,0,0,0,0,0,0,0,0,0,0,0,0,0,0,0,0,0,0,0,0,0,0,0,0,0,0,0,0,0,0,0,0,0,0,0,0,0,0,0],"split_type":[0,0,0,0,0,0,0,0,0,0,0,0,0,0,0,0,0,0,0,0,0,0,0,0,0,0,0,0,0,0,0,0,0,0,0,0,0,0,0,0,0,0,0,0,0,0,0,0,0,0,0,0,0,0,0,0,0,0,0,0,0,0,0,0,0,0,0,0,0,0,0,0,0,0,0,0,0,0,0,0,0,0,0,0,0,0,0,0,0,0,0,0,0],"sum_hessian":[1.6618712E3,5.935209E2,1.0683503E3,2.4094604E2,3.525748E2,6.6319775E2,4.0515265E2,1.2246869E1,2.2869917E2,2.1368176E2,1.3889305E2,2.1223006E2,4.5096768E2,3.1932495E2,8.5827705E1,2.1483746E0,1.0098495E1,1.3586943E2,7.781234E1,2.7868458E1,1.1102459E2,1.8906208E1,1.9332385E2,2.5181285E2,1.9915482E2,1.0468116E2,2.1464378E2,5.639576E0,8.018813E1,1.2805266E2,7.816764E0,2.834366E1,4.9468678E1,2.0377525E1,7.4909325E0,2.0527766E0,1.0897181E2,3.9832985E0,1.492291E1,9.6261536E1,9.706232E1,8.774039E1,1.6407246E2,8.412458E1,1.15030235E2,7.917492E0,9.6763664E1,3.5561005E1,1.7908278E2,4.307481E0,1.3320951E0,3.957363E1,4.0614502E1,1.2013543E2,7.917231E0,2.1481504E0,5.6686134E0,9.886212E0,1.8457447E1,3.8964363E1,1.0504313E1,1.9310387E1,1.0671386E0,4.3202014E0,3.170731E0,1.07970985E2,1.0008295E0,1.21903305E1,2.7325788E0,7.942074E1,1.6840796E1,4.6518826E0,9.241043E1,6.365421E1,2.4086178E1,1.07745605E2,5.6326862E1,4.3109543E1,4.1015038E1,9.401896E1,2.101128E1,1.4775323E0,6.4399595E0,7.7241806E1,1.9521858E1,2.5777058E1,9.783948E0,7.4391396E1,1.04691376E2,3.602425E1,3.5493803E0,3.442608E1,6.188422E0],"tree_param":{"num_deleted":"0","num_feature":"50","num_nodes":"93","size_leaf_vector":"1"}},{"base_weights":[9.780199E-2,1.7883354E-1,2.2241635E-2,2.1805395E-1,-1.0833476E-1,-1.6658002E-1,6.86996E-2,4.0489575E-1,1.6562149E-1,-1.9301902E-1,5.185958E-1,-2.4641223E-1,1.3515508E-1,-4.703394E-3,1.8815938E-1,4.7513652E-1,5.4808967E-3,3.2726917E-1,1.037751E-1,-1.708894E-2,-4.5636117E-1,6.6905767E-1,-1.2371979E-1,-2.681596E-1,2.4297993E-1,4.929111E-1,-4.871723E-1,1.0533061E-1,-1.04070716E-1,-3.7804908E-1,2.331113E-1,5.1060677E-1,-3.753611E-1,6.334685E-1,-2.3030111E-1,-2.5404312E-2,4.875699E-1,8.80857E-3,2.7380785E-1,4.6980625E-1,-2.779342E-1,-5.110288E-1,1.8542655E-1,8.490546E-1,-1.9127645E-2,-1.8191396E-1,-5.657713E-1,7.6136976E-1,8.130554E-2,-5.44456E-1,3.881602E-2,-1.19432956E-1,2.6511496E-1,-2.1756124E-1,1.6265099E-1,6.257586E-1,-6.56842E-1,1.9349365E-1,6.789669E-1,1.6701007E-1,2.6005272E-2,-1.9729269E-1,1.29991E-1,2.1907373E-1,2.3064936E-2,2.131838E-2,-2.0689392E-1,1.1901335E-1,-9.261071E-2,1.5804121E-1,-7.835531E-2,9.342737E-2,-2.7413566E-2,1.1020885E-1,-3.6202416E-2,-3.0300481E-2,1.9832721E-1,-1.0164069E-1,2.6564577E-1,-1.39476E-2,-1.8703727E-1,2.826669E-1,4.3303605E-2,8.806097E-3,-1.1250525E-1,7.255069E-2,-1.8418571E-1,2.650368E-1,-1.03338294E-1,-1.18439354E-1,1.8600744E-1,-1.7963016E-1,7.764464E-3,8.535234E-2,-7.7049345E-2,-1.31361E-2,1.1364125E-1,7.458641E-2,-8.12068E-2,1.8674406E-1,-4.6219893E-2,2.388374E-1,1.0952841E-3,5.249661E-3,-2.11513E-1,3.983496E-2,1.3488962E-1,2.3458578E-1,-1.5065077E-1],"categories":[],"categories_nodes":[],"categories_segments":[],"categories_sizes":[],"default_left":[0,0,0,0,0,0,0,0,0,0,0,0,0,0,0,0,0,0,0,0,0,0,0,0,0,0,0,0,0,0,0,0,0,0,0,0,0,0,0,0,0,0,0,0,0,0,0,0,0,0,0,0,0,0,0,0,0,0,0,0,0,0,0,0,0,0,0,0,0,0,0,0,0,0,0,0,0,0,0,0,0,0,0,0,0,0,0,0,0,0,0,0,0,0,0,0,0,0,0,0,0,0,0,0,0,0,0,0,0],"id":12,"left_children":[1,3,5,7,9,11,13,15,17,19,21,23,25,27,29,31,33,35,37,39,41,43,-1,45,-1,47,49,51,53,55,57,59,61,63,65,67,69,71,73,75,77,79,-1,81,-1,83,85,87,89,91,-1,93,95,97,99,101,103,105,107,-1,-1,-1,-1,-1,-1,-1,-1,-1,-1,-1,-1,-1,-1,-1,-1,-1,-1,-1,-1,-1,-1,-1,-1,-1,-1,-1,-1,-1,-1,-1,-1,-1,-1,-1,-1,-1,-1,-1,-1,-1,-1,-1,-1,-1,-1,-1,-1,-1,-1],"loss_changes":[1.1920374E1,1.0606266E1,8.862096E0,8.035E0,6.1299534E0,4.8392544E0,7.1072226E0,5.0623703E0,6.439245E0,4.6617107E0,2.2071998E0,3.8497782E0,9.677599E0,5.5101347E0,7.9393024E0,4.823063E0,4.293614E0,1.0115742E1,7.583332E0,7.9364142E0,2.6845884E0,1.6699967E0,0E0,3.8932276E0,0E0,2.9671817E0,6.346946E-1,8.620902E0,8.050656E0,6.8672066E0,4.927491E0,2.839779E0,1.8195617E0,3.7009358E-1,2.969753E0,6.9145226E0,3.7484703E0,9.198531E0,6.2563047E0,2.4483633E0,3.1785777E0,2.003811E0,0E0,5.142865E-1,0E0,4.995588E0,1.4911585E0,2.5281286E0,3.3074524E0,4.7423983E-1,0E0,5.626732E0,4.9366817E0,4.6784735E0,1.1689946E1,5.82845E-1,6.150646E-1,4.0521765E0,3.18715E0,0E0,0E0,0E0,0E0,0E0,0E0,0E0,0E0,0E0,0E0,0E0,0E0,0E0,0E0,0E0,0E0,0E0,0E0,0E0,0E0,0E0,0E0,0E0,0E0,0E0,0E0,0E0,0E0,0E0,0E0,0E0,0E0,0E0,0E0,0E0,0E0,0E0,0E0,0E0,0E0,0E0,0E0,0E0,0E0,0E0,0E0,0E0,0E0,0E0,0E0],"parents":[2147483647,0,0,1,1,2,2,3,3,4,4,5,5,6,6,7,7,8,8,9,9,10,10,11,11,12,12,13,13,14,14,15,15,16,16,17,17,18,18,19,19,20,20,21,21,23,23,25,25,26,26,27,27,28,28,29,29,30,30,31,31,32,32,33,33,34,34,35,35,36,36,37,37,38,38,39,39,40,40,41,41,43,43,45,45,46,46,47,47,48,48,49,49,51,51,52,52,53,53,54,54,55,55,56,56,57,57,58,58],"right_children":[2,4,6,8,10,12,14,16,18,20,22,24,26,28,30,32,34,36,38,40,42,44,-1,46,-1,48,50,52,54,56,58,60,62,64,66,68,70,72,74,76,78,80,-1,82,-1,84,86,88,90,92,-1,94,96,98,100,102,104,106,108,-1,-1,-1,-1,-1,-1,-1,-1,-1,-1,-1,-1,-1,-1,-1,-1,-1,-1,-1,-1,-1,-1,-1,-1,-1,-1,-1,-1,-1,-1,-1,-1,-1,-1,-1,-1,-1,-1,-1,-1,-1,-1,-1,-1,-1,-1,-1,-1,-1,-1],"split_conditions":[-2.8414032E-1,1.0210971E0,-7.437199E-1,-6.0031253E-1,1.3603168E0,5.220953E-1,-1.5654472E-1,9.339871E-1,-3.4151983E-1,4.4960022E-1,3.7076938E-1,2.1511066E0,9.989201E-1,-4.0403932E-1,-1.2570937E0,2.0777335E0,-6.853222E-1,-4.3003806E-1,-3.1260718E-2,-1.721507E-1,5.562878E-1,1.3884498E-1,-1.2371979E-1,8.584416E-1,2.4297993E-1,-7.035058E-2,9.4566315E-1,2.6380315E-1,4.751181E-1,-1.4946674E0,1.4969323E0,6.7341727E-1,-5.06709E-1,-1.6573343E-1,-2.8290716E-1,-6.2825346E-1,2.3884692E0,-6.4724576E-1,8.169436E-1,-2.832107E-1,2.4130511E0,1.218583E0,1.8542655E-1,1.818411E0,-1.9127645E-2,-2.673985E-1,-1.1551224E0,-8.986087E-2,-1.9436745E-1,5.941056E-1,3.881602E-2,-8.1609994E-1,-6.8904746E-1,-6.8060625E-1,2.0038596E-1,6.1692977E-1,-1.3495213E0,7.837506E-1,5.4394484E-1,1.6701007E-1,2.6005272E-2,-1.9729269E-1,1.29991E-1,2.1907373E-1,2.3064936E-2,2.131838E-2,-2.0689392E-1,1.1901335E-1,-9.261071E-2,1.5804121E-1,-7.835531E-2,9.342737E-2,-2.7413566E-2,1.1020885E-1,-3.6202416E-2,-3.0300481E-2,1.9832721E-1,-1.0164069E-1,2.6564577E-1,-1.39476E-2,-1.8703727E-1,2.826669E-1,4.3303605E-2,8.806097E-3,-1.1250525E-1,7.255069E-2,-1.8418571E-1,2.650368E-1,-1.03338294E-1,-1.18439354E-1,1.8600744E-1,-1.7963016E-1,7.764464E-3,8.535234E-2,-7.7049345E-2,-1.31361E-2,1.1364125E-1,7.458641E-2,-8.12068E-2,1.8674406E-1,-4.6219893E-2,2.388374E-1,1.0952841E-3,5.249661E-3,-2.11513E-1,3.983496E-2,1.3488962E-1,2.3458578E-1,-1.5065077E-1],"split_indices":[13,15,10,24,46,19,27,32,2,16,19,33,23,18,31,16,43,39,46,6,32,32,0,9,0,32,3,10,12,22,33,15,4,19,5,23,11,3,10,4,28,15,0,30,0,27,46,36,43,34,0,36,29,46,10,0,17,14,16,0,0,0,0,0,0,0,0,0,0,0,0,0,0,0,0,0,0,0,0,0,0,0,0,0,0,0,0,0,0,0,0,0,0,0,0,0,0,0,0,0,0,0,0,0,0,0,0,0,0],"split_type":[0,0,0,0,0,0,0,0,0,0,0,0,0,0,0,0,0,0,0,0,0,0,0,0,0,0,0,0,0,0,0,0,0,0,0,0,0,0,0,0,0,0,0,0,0,0,0,0,0,0,0,0,0,0,0,0,0,0,0,0,0,0,0,0,0,0,0,0,0,0,0,0,0,0,0,0,0,0,0,0,0,0,0,0,0,0,0,0,0,0,0,0,0,0,0,0,0,0,0,0,0,0,0,0,0,0,0,0,0],"sum_hessian":[1.9465405E3,9.386054E2,1.0079351E3,8.260299E2,1.1257551E2,1.9851483E2,8.094203E2,1.7953592E2,6.46494E2,9.978845E1,1.2787062E1,1.5712617E2,4.138865E1,5.019524E2,3.0746793E2,1.5252365E2,2.7012268E1,1.7771346E2,4.6878055E2,6.046122E1,3.932723E1,1.125022E1,1.5368408E0,1.5468771E2,2.4384668E0,2.6412758E1,1.497589E1,2.3816324E2,2.6378912E2,2.2069788E1,2.8539813E2,1.4680092E2,5.722734E0,6.9130936E0,2.0099174E1,5.5797142E1,1.21916306E2,3.014608E2,1.6731976E2,2.0812117E1,3.9649105E1,3.7922142E1,1.4050864E0,8.904458E0,2.345762E0,1.2118147E2,3.3506237E1,1.5471882E1,1.0940875E1,1.3809785E1,1.1661053E0,9.906467E1,1.3909857E2,1.8517934E2,7.86098E1,4.526689E0,1.7543098E1,2.6342484E2,2.197332E1,1.3212196E2,1.4678958E1,4.380414E0,1.3423197E0,5.6233196E0,1.2897741E0,1.26470995E1,7.452076E0,2.2247671E1,3.354947E1,1.1612773E2,5.788579E0,7.4456345E1,2.2700444E2,1.3530077E2,3.2018993E1,5.3422885E0,1.5469828E1,3.8351414E1,1.2976913E0,7.6650286E0,3.0257113E1,7.567001E0,1.3374573E0,5.8273994E1,6.2907482E1,1.6601205E0,3.1846117E1,1.4114683E1,1.357199E0,5.94979E0,4.991085E0,1.2563557E1,1.246228E0,2.4872025E1,7.419264E1,3.7586933E1,1.0151164E2,1.8568321E1,1.6661101E2,3.1667543E1,4.694226E1,3.333954E0,1.1927351E0,1.2128061E0,1.6330292E1,2.1417825E2,4.9246563E1,2.0521936E1,1.4513843E0],"tree_param":{"num_deleted":"0","num_feature":"50","num_nodes":"109","size_leaf_vector":"1"}},{"base_weights":[-1.6843029E-3,3.8483523E-2,-2.1435697E-1,-1.4813145E-1,9.0650685E-2,2.0637853E-1,-2.6671416E-1,-2.2177893E-1,1.9219206E-1,1.7436962E-1,-2.2643091E-2,3.8449265E-2,8.7518924E-1,3.7244096E-1,-3.0756074E-1,-2.504302E-1,3.887911E-1,-4.1091183E-1,3.5122535E-1,2.0476168E-1,-2.291845E-1,-5.0790157E-2,4.4238755E-1,-1.5647228E-1,2.5180545E-1,3.143931E-1,1.3771072E-2,-9.754647E-2,9.7460526E-1,-1.7723088E-1,-4.378773E-1,-2.896941E-1,1.4410916E-1,-2.7614838E-1,8.632563E-1,9.659295E-2,-1.7747726E-1,9.797821E-2,7.900417E-1,2.275077E-1,-1.9050594E-1,6.324425E-1,-3.875913E-1,-8.302792E-2,4.1282237E-1,6.9191486E-1,-2.2008921E-1,2.0181036E-1,-3.1125364E-1,2.0712195E-1,-3.4276733E-1,-6.6620284E-3,3.513429E-1,7.8385204E-1,-2.1931888E-1,2.4287266E-1,-4.6046373E-1,-9.970725E-2,2.9253377E-2,4.1682604E-1,-1.413397E-2,1.4367047E-1,-1.7254756E-1,2.8214705E-1,8.644011E-2,-1.684387E-1,8.168687E-2,2.83956E-1,-4.890585E-2,5.781551E-2,1.6247909E-1,6.582635E-2,-1.6212787E-1,2.7102312E-1,-3.644355E-2,1.8520701E-1,-1.4840086E-1,-8.90946E-2,-8.142047E-3,1.8002252E-1,-1.01997666E-1,-1.3354996E-1,2.4645661E-1,2.839657E-1,-1.6386873E-1,4.661641E-2,-1.9033231E-1,-1.6128212E-1,1.1281673E-1,-1.01320006E-1,3.5957542E-1,-2.4509562E-2,-1.4073871E-1,-1.17579795E-1,2.2283848E-1,-1.4339298E-1,7.376783E-2],"categories":[],"categories_nodes":[],"categories_segments":[],"categories_sizes":[],"default_left":[0,0,0,0,0,0,0,0,0,0,0,0,0,0,0,0,0,0,0,0,0,0,0,0,0,0,0,0,0,0,0,0,0,0,0,0,0,0,0,0,0,0,0,0,0,0,0,0,0,0,0,0,0,0,0,0,0,0,0,0,0,0,0,0,0,0,0,0,0,0,0,0,0,0,0,0,0,0,0,0,0,0,0,0,0,0,0,0,0,0,0,0,0,0,0,0,0],"id":13,"left_children":[1,3,5,7,9,11,13,15,17,19,21,23,25,27,29,31,33,35,37,39,41,43,45,47,-1,-1,-1,49,51,53,55,57,59,61,63,-1,-1,65,67,69,71,73,75,77,79,81,83,-1,85,-1,87,-1,-1,89,91,93,95,-1,-1,-1,-1,-1,-1,-1,-1,-1,-1,-1,-1,-1,-1,-1,-1,-1,-1,-1,-1,-1,-1,-1,-1,-1,-1,-1,-1,-1,-1,-1,-1,-1,-1,-1,-1,-1,-1,-1,-1],"loss_changes":[1.5237344E1,1.4619664E1,6.2971964E0,8.26775E0,1.11314745E1,3.5518243E0,6.7051544E0,4.8249655E0,5.7953563E0,8.322859E0,6.5595436E0,4.278161E0,8.633671E-1,4.514584E0,3.9616795E0,4.0499706E0,4.183548E0,1.8794782E0,5.163753E0,5.689888E0,6.7597184E0,7.085969E0,4.8811088E0,3.0593667E0,0E0,0E0,0E0,2.1069796E0,1.3849354E0,5.049678E0,1.9298496E0,3.9253197E0,5.801285E0,1.6221125E0,6.3931465E-2,0E0,0E0,3.7215662E0,2.7069798E0,6.3897247E0,5.0986876E0,1.701618E0,4.7106433E0,5.276806E0,4.5518036E0,3.4636583E0,3.7837188E0,0E0,3.0238843E0,0E0,1.3296813E0,0E0,0E0,2.859841E0,3.960268E0,1.7039006E0,1.5374908E0,0E0,0E0,0E0,0E0,0E0,0E0,0E0,0E0,0E0,0E0,0E0,0E0,0E0,0E0,0E0,0E0,0E0,0E0,0E0,0E0,0E0,0E0,0E0,0E0,0E0,0E0,0E0,0E0,0E0,0E0,0E0,0E0,0E0,0E0,0E0,0E0,0E0,0E0,0E0,0E0],"parents":[2147483647,0,0,1,1,2,2,3,3,4,4,5,5,6,6,7,7,8,8,9,9,10,10,11,11,12,12,13,13,14,14,15,15,16,16,17,17,18,18,19,19,20,20,21,21,22,22,23,23,27,27,28,28,29,29,30,30,31,31,32,32,33,33,34,34,37,37,38,38,39,39,40,40,41,41,42,42,43,43,44,44,45,45,46,46,48,48,50,50,53,53,54,54,55,55,56,56],"right_children":[2,4,6,8,10,12,14,16,18,20,22,24,26,28,30,32,34,36,38,40,42,44,46,48,-1,-1,-1,50,52,54,56,58,60,62,64,-1,-1,66,68,70,72,74,76,78,80,82,84,-1,86,-1,88,-1,-1,90,92,94,96,-1,-1,-1,-1,-1,-1,-1,-1,-1,-1,-1,-1,-1,-1,-1,-1,-1,-1,-1,-1,-1,-1,-1,-1,-1,-1,-1,-1,-1,-1,-1,-1,-1,-1,-1,-1,-1,-1,-1,-1],"split_conditions":[5.8574295E-1,-7.94754E-1,-1.0880821E0,1.0356527E-1,-2.7534047E-1,-5.246194E-1,-1.579606E0,1.5670601E0,-4.883217E-1,2.959284E-1,1.8833683E0,8.828524E-1,-3.8374253E-2,6.733298E-1,-1.2087808E-1,1.2117884E0,-8.162715E-1,-5.48897E-1,3.5153496E-1,2.7015156E-1,-5.493326E-2,8.8491476E-1,3.7359324E-1,-1.401751E0,2.5180545E-1,3.143931E-1,1.3771072E-2,-6.393831E-1,-6.1943585E-1,-1.0720103E0,-9.618392E-1,1.2619318E0,-2.081596E0,-1.1059002E0,4.974846E-1,9.659295E-2,-1.7747726E-1,-1.7529419E-1,-5.5225506E-2,-1.880669E-1,-3.0230227E-1,9.523343E-1,-1.1781251E0,-3.9576775E-1,4.2879336E-2,-9.522894E-1,-1.0296243E0,2.0181036E-1,-7.980999E-1,2.0712195E-1,-1.5060945E0,-6.6620284E-3,3.513429E-1,-6.140342E-1,8.5465245E-2,5.5247366E-1,1.4181784E0,-9.970725E-2,2.9253377E-2,4.1682604E-1,-1.413397E-2,1.4367047E-1,-1.7254756E-1,2.8214705E-1,8.644011E-2,-1.684387E-1,8.168687E-2,2.83956E-1,-4.890585E-2,5.781551E-2,1.6247909E-1,6.582635E-2,-1.6212787E-1,2.7102312E-1,-3.644355E-2,1.8520701E-1,-1.4840086E-1,-8.90946E-2,-8.142047E-3,1.8002252E-1,-1.01997666E-1,-1.3354996E-1,2.4645661E-1,2.839657E-1,-1.6386873E-1,4.661641E-2,-1.9033231E-1,-1.6128212E-1,1.1281673E-1,-1.01320006E-1,3.5957542E-1,-2.4509562E-2,-1.4073871E-1,-1.17579795E-1,2.2283848E-1,-1.4339298E-1,7.376783E-2],"split_indices":[23,1,19,48,11,4,33,24,18,27,48,17,48,5,0,47,5,40,49,35,15,9,4,32,0,0,0,7,25,11,26,17,2,31,12,0,0,22,27,39,19,25,20,38,15,15,15,0,20,0,31,0,0,2,41,0,8,0,0,0,0,0,0,0,0,0,0,0,0,0,0,0,0,0,0,0,0,0,0,0,0,0,0,0,0,0,0,0,0,0,0,0,0,0,0,0,0],"split_type":[0,0,0,0,0,0,0,0,0,0,0,0,0,0,0,0,0,0,0,0,0,0,0,0,0,0,0,0,0,0,0,0,0,0,0,0,0,0,0,0,0,0,0,0,0,0,0,0,0,0,0,0,0,0,0,0,0,0,0,0,0,0,0,0,0,0,0,0,0,0,0,0,0,0,0,0,0,0,0,0,0,0,0,0,0,0,0,0,0,0,0,0,0,0,0,0,0],"sum_hessian":[1.7817239E3,1.4993569E3,2.8236688E2,3.2716534E2,1.1721917E3,3.0923983E1,2.514429E2,2.6924738E2,5.7917965E1,6.7376843E2,4.984232E2,2.5562962E1,5.3610225E0,1.4616129E1,2.3682677E2,2.5774252E2,1.1504843E1,1.175511E1,4.6162857E1,6.2703815E2,4.673027E1,4.708167E2,2.7606499E1,2.1206425E1,4.356536E0,4.218382E0,1.1426407E0,8.679675E0,5.936454E0,1.1958727E2,1.17239494E2,2.3465572E2,2.3086813E1,4.9648423E0,6.540001E0,2.1701782E0,9.584931E0,3.0046103E1,1.6116755E1,5.9331946E2,3.371866E1,6.792282E0,3.993799E1,4.4097403E2,2.9842663E1,2.0020992E1,7.5855074E0,2.8095188E0,1.8396906E1,1.6292048E0,7.05047E0,1.1237842E0,4.8126698E0,4.277862E0,1.1530941E2,3.451742E0,1.1378775E2,2.1149432E2,2.3161394E1,2.2390835E0,2.0847729E1,1.2377348E0,3.7271073E0,5.205643E0,1.3343579E0,5.817348E0,2.4228754E1,1.3849706E1,2.2670486E0,5.356077E2,5.7711735E1,1.5699656E1,1.8019005E1,4.850628E0,1.9416542E0,3.3867998E0,3.655119E1,9.043801E1,3.5053604E2,2.4060759E1,5.781904E0,1.7994189E0,1.8221573E1,1.2416579E0,6.3438497E0,7.740216E0,1.0656691E1,5.7452884E0,1.3051815E0,1.2049382E0,3.072924E0,7.5205666E1,4.010375E1,1.6158876E0,1.8358543E0,1.1135034E2,2.437408E0],"tree_param":{"num_deleted":"0","num_feature":"50","num_nodes":"97","size_leaf_vector":"1"}},{"base_weights":[-1.19944274E-1,-4.1994673E-1,3.0898921E-2,-5.694488E-1,-3.219679E-1,-6.809597E-2,1.9066495E-1,-3.350011E-1,-1.7432192E-1,-2.1564992E-1,-4.7687852E-1,-2.2277822E-1,-8.658653E-3,1.2241647E-1,4.44479E-1,1.07074335E-1,-1.5976341E-1,-2.551854E-1,3.9740238E-1,-2.0508447E-1,-5.5168855E-1,-3.3283812E-1,1.0895826E-1,1.967241E-2,-4.993037E-1,1.7676196E-1,-2.8989357E-1,-4.96431E-1,4.905699E-1,-3.0108508E-1,3.621506E-1,1.0324308E0,-1.8401901E-1,2.2216754E-1,-4.6414417E-1,8.100807E-2,-5.674172E-1,5.407789E-1,-3.6891887E-1,-3.3687752E-1,4.845921E-1,-2.6468176E-1,8.3250366E-2,-6.026825E-1,3.4150198E-1,2.6386923E-1,-2.830307E-2,5.768108E-1,-4.7217372E-1,-1.6150661E-3,-2.0603524E-1,5.4487056E-1,-2.1634698E-1,-1.3824686E-1,-1.8284222E-2,2.0775004E-1,-9.1482446E-2,3.468203E-1,1.0343051E-1,-1.5996103E-1,2.040441E-1,-7.506704E-2,2.3437564E-1,-1.6889349E-1,1.3057868E-1,-1.0448334E-1,1.3517743E-1,5.239423E-2,-1.7322041E-1,-2.4271509E-2,2.220513E-1,5.073398E-2,-1.2426096E-1,2.2147703E-1,-1.3488579E-1,2.8150585E-1,-2.49993E-3,1.3474357E-1,-1.0350306E-1,-1.34873185E-2,8.094643E-2,-1.9296964E-1,3.499588E-2,2.108883E-2,1.3535E-1,5.1783048E-2,1.5464309E-1,-1.4973377E-1,4.081028E-2,2.4396794E-1,-5.3919405E-2,1.6699181E-1,-1.7210841E-1,-4.0942054E-2,1.7960554E-1,-1.7200495E-1,1.4187098E-1],"categories":[],"categories_nodes":[],"categories_segments":[],"categories_sizes":[],"default_left":[0,0,0,0,0,0,0,0,0,0,0,0,0,0,0,0,0,0,0,0,0,0,0,0,0,0,0,0,0,0,0,0,0,0,0,0,0,0,0,0,0,0,0,0,0,0,0,0,0,0,0,0,0,0,0,0,0,0,0,0,0,0,0,0,0,0,0,0,0,0,0,0,0,0,0,0,0,0,0,0,0,0,0,0,0,0,0,0,0,0,0,0,0,0,0,0,0],"id":14,"left_children":[1,3,5,7,9,11,13,15,-1,17,19,21,23,25,27,-1,-1,29,31,33,35,37,39,41,43,45,47,49,51,53,55,57,59,61,63,65,67,69,71,73,75,77,79,81,83,85,87,89,91,-1,-1,93,95,-1,-1,-1,-1,-1,-1,-1,-1,-1,-1,-1,-1,-1,-1,-1,-1,-1,-1,-1,-1,-1,-1,-1,-1,-1,-1,-1,-1,-1,-1,-1,-1,-1,-1,-1,-1,-1,-1,-1,-1,-1,-1,-1,-1],"loss_changes":[7.074309E1,7.477707E0,1.6477037E1,3.660965E-1,5.1386375E0,5.913995E0,6.848769E0,1.8413905E0,0E0,4.7198076E0,2.503683E0,6.5562973E0,6.485844E0,7.1194215E0,3.8893719E0,0E0,0E0,5.1984987E0,4.596615E0,3.3538675E0,1.0443859E0,4.433915E0,7.739721E0,8.002199E0,2.419764E0,4.997011E0,6.135799E0,4.0971816E-1,3.2135563E0,6.4058685E0,3.0505273E0,9.9286556E-2,2.498829E0,3.302005E0,1.8990865E0,6.818828E-1,8.270645E-1,7.7062297E-1,3.2277641E0,2.910981E0,5.591397E0,4.7937665E0,8.659526E0,7.4718857E-1,7.0212275E-2,4.41485E0,6.581119E0,1.3801827E0,3.5796232E0,0E0,0E0,2.8381748E0,1.8628237E0,0E0,0E0,0E0,0E0,0E0,0E0,0E0,0E0,0E0,0E0,0E0,0E0,0E0,0E0,0E0,0E0,0E0,0E0,0E0,0E0,0E0,0E0,0E0,0E0,0E0,0E0,0E0,0E0,0E0,0E0,0E0,0E0,0E0,0E0,0E0,0E0,0E0,0E0,0E0,0E0,0E0,0E0,0E0,0E0],"parents":[2147483647,0,0,1,1,2,2,3,3,4,4,5,5,6,6,7,7,9,9,10,10,11,11,12,12,13,13,14,14,17,17,18,18,19,19,20,20,21,21,22,22,23,23,24,24,25,25,26,26,27,27,28,28,29,29,30,30,31,31,32,32,33,33,34,34,35,35,36,36,37,37,38,38,39,39,40,40,41,41,42,42,43,43,44,44,45,45,46,46,47,47,48,48,51,51,52,52],"right_children":[2,4,6,8,10,12,14,16,-1,18,20,22,24,26,28,-1,-1,30,32,34,36,38,40,42,44,46,48,50,52,54,56,58,60,62,64,66,68,70,72,74,76,78,80,82,84,86,88,90,92,-1,-1,94,96,-1,-1,-1,-1,-1,-1,-1,-1,-1,-1,-1,-1,-1,-1,-1,-1,-1,-1,-1,-1,-1,-1,-1,-1,-1,-1,-1,-1,-1,-1,-1,-1,-1,-1,-1,-1,-1,-1,-1,-1,-1,-1,-1,-1],"split_conditions":[-3.4604263E-1,-6.585981E-1,4.9914914E-1,-1.499715E0,-3.90924E-3,-4.477764E-1,7.8070503E-1,-1.1055878E0,-1.7432192E-1,1.6725014E0,-9.805632E-1,7.774627E-1,1.8887737E0,5.3977865E-1,-1.4741529E0,1.07074335E-1,-1.5976341E-1,1.4248871E0,1.3044926E0,-2.6824158E-1,-2.7937022E-1,-1.7074668E0,-1.8539709E-1,-2.521149E-1,1.9668732E0,-4.938694E-1,-7.63814E-1,-7.5473636E-1,1.5563003E0,1.6559348E-2,-2.6561993E-1,8.0905867E-1,1.2403E0,3.4016335E-1,2.1134489E0,1.32172E-1,-1.3863175E0,-6.908914E-1,-1.1467301E0,-1.5339205E0,5.7893854E-1,-1.0726756E0,2.1377279E-1,6.173245E-1,-8.1825435E-1,1.2758665E-1,-4.816616E-1,-6.009436E-1,-1.5799829E0,-1.6150661E-3,-2.0603524E-1,-1.2553082E0,1.4764085E0,-1.3824686E-1,-1.8284222E-2,2.0775004E-1,-9.1482446E-2,3.468203E-1,1.0343051E-1,-1.5996103E-1,2.040441E-1,-7.506704E-2,2.3437564E-1,-1.6889349E-1,1.3057868E-1,-1.0448334E-1,1.3517743E-1,5.239423E-2,-1.7322041E-1,-2.4271509E-2,2.220513E-1,5.073398E-2,-1.2426096E-1,2.2147703E-1,-1.3488579E-1,2.8150585E-1,-2.49993E-3,1.3474357E-1,-1.0350306E-1,-1.34873185E-2,8.094643E-2,-1.9296964E-1,3.499588E-2,2.108883E-2,1.3535E-1,5.1783048E-2,1.5464309E-1,-1.4973377E-1,4.081028E-2,2.4396794E-1,-5.3919405E-2,1.6699181E-1,-1.7210841E-1,-4.0942054E-2,1.7960554E-1,-1.7200495E-1,1.4187098E-1],"split_indices":[23,13,13,20,29,40,3,5,0,9,5,21,36,48,31,0,0,20,18,20,41,2,32,36,44,16,34,19,12,14,44,28,7,15,26,3,46,11,22,3,35,8,15,11,0,9,4,9,15,0,0,5,0,0,0,0,0,0,0,0,0,0,0,0,0,0,0,0,0,0,0,0,0,0,0,0,0,0,0,0,0,0,0,0,0,0,0,0,0,0,0,0,0,0,0,0,0],"split_type":[0,0,0,0,0,0,0,0,0,0,0,0,0,0,0,0,0,0,0,0,0,0,0,0,0,0,0,0,0,0,0,0,0,0,0,0,0,0,0,0,0,0,0,0,0,0,0,0,0,0,0,0,0,0,0,0,0,0,0,0,0,0,0,0,0,0,0,0,0,0,0,0,0,0,0,0,0,0,0,0,0,0,0,0,0,0,0,0,0,0,0,0,0,0,0,0,0],"sum_hessian":[1.5619816E3,5.2200836E2,1.0399731E3,2.0476039E2,3.1724796E2,6.42462E2,3.9751117E2,1.1081328E1,1.9367906E2,1.8954906E2,1.276989E2,1.7757777E2,4.6488422E2,3.144425E2,8.306867E1,2.2819195E0,8.799409E0,1.7861406E2,1.0934995E1,2.8369703E1,9.932919E1,1.3333728E2,4.4240505E1,4.4041354E2,2.4470667E1,2.7832812E2,3.6114395E1,3.422864E0,7.9645805E1,1.6672978E2,1.1884285E1,4.8557944E0,6.0792003E0,1.0762367E1,1.7607336E1,2.3087227E0,9.702048E1,4.7336707E0,1.286036E2,2.0277058E1,2.3963446E1,7.989917E1,3.6051437E2,2.2043573E1,2.427093E0,1.9514703E2,8.3181076E1,5.899427E0,3.021497E1,1.2434529E0,2.1794112E0,7.417723E1,5.4685717E0,9.9574554E1,6.715523E1,7.9227743E0,3.961511E0,3.5384507E0,1.3173437E0,4.6024632E0,1.4767368E0,6.1328983E0,4.6294694E0,1.6201086E1,1.4062511E0,1.0947611E0,1.2139615E0,1.0690802E0,9.595139E1,1.293843E0,3.4398274E0,9.771539E0,1.1883206E2,1.3979203E0,1.8879137E1,1.2006895E1,1.195655E1,7.6173477E0,7.228182E1,2.1412842E2,1.4638596E2,2.0967417E1,1.0761577E0,1.1713352E0,1.2557577E0,1.4444304E2,5.0704002E1,2.099512E1,6.218596E1,4.437732E0,1.4616946E0,2.3111174E0,2.7903852E1,